<?xml version="1.0" encoding="UTF-8"?>
<PMML xmlns="http://www.dmg.org/PMML-4_3" version="4.4">
    <Header copyright="Copyright (c) 2019 Software AG" description="Default Description">
        <Application name="Nyoka" version="3.0.9rc1"/>
        <Timestamp>2019-07-05 12:14:06.992231</Timestamp>
    </Header>
    <MiningBuildTask>
        <Extension name="modelObject" value="LGBMRegressor(boosting_type='gbdt', class_weight=None, colsample_bytree=1.0,
       importance_type='split', learning_rate=0.1, max_depth=-1,
       min_child_samples=20, min_child_weight=0.001, min_split_gain=0.0,
       n_estimators=100, n_jobs=-1, num_leaves=31, objective=None,
       random_state=None, reg_alpha=0.0, reg_lambda=0.0, silent=True,
       subsample=1.0, subsample_for_bin=200000, subsample_freq=0)" for="model1"/>
    </MiningBuildTask>
    <DataDictionary numberOfFields="8">
        <DataField name="cylinders" optype="continuous" dataType="double"/>
        <DataField name="displacement" optype="continuous" dataType="double"/>
        <DataField name="horsepower" optype="continuous" dataType="double"/>
        <DataField name="weight" optype="continuous" dataType="double"/>
        <DataField name="acceleration" optype="continuous" dataType="double"/>
        <DataField name="model year" optype="continuous" dataType="double"/>
        <DataField name="origin" optype="continuous" dataType="double"/>
        <DataField name="mpg" optype="continuous" dataType="double"/>
    </DataDictionary>
    <MiningModel modelName="model1" functionName="regression">
        <MiningSchema>
            <MiningField name="c" usageType="active" optype="categorical"/>
            <MiningField name="cylinders" usageType="active" optype="continuous"/>
            <MiningField name="displacement" usageType="active" optype="continuous"/>
            <MiningField name="horsepower" usageType="active" optype="continuous"/>
            <MiningField name="weight" usageType="active" optype="continuous"/>
            <MiningField name="acceleration" usageType="active" optype="continuous"/>
            <MiningField name="model year" usageType="active" optype="continuous"/>
            <MiningField name="origin" usageType="active" optype="continuous"/>
            <MiningField name="mpg" usageType="target" optype="continuous"/>
        </MiningSchema>
        <Output>
            <OutputField name="predicted_mpg" optype="continuous" dataType="double" feature="predictedValue"/>
        </Output>
        <Segmentation multipleModelMethod="sum">
            <Segment id="1" weight="1">
                <True/>
                <TreeModel modelName="DecisionTreeModel" functionName="regression" missingValuePenalty="1.0" noTrueChildStrategy="returnLastPrediction">
                    <MiningSchema>
                        <MiningField name="cylinders" usageType="active"/>
                        <MiningField name="displacement" usageType="active"/>
                        <MiningField name="horsepower" usageType="active"/>
                        <MiningField name="weight" usageType="active"/>
                        <MiningField name="acceleration" usageType="active"/>
                        <MiningField name="model year" usageType="active"/>
                        <MiningField name="origin" usageType="active"/>
                    </MiningSchema>
                    <Node>
                        <True/>
                        <Node>
                            <SimplePredicate field="cylinders" operator="lessThan" value="5.500000000000001"/>
                            <Node>
                                <SimplePredicate field="horsepower" operator="lessThan" value="70.50000000000001"/>
                                <Node score="24.138115559493734">
                                    <SimplePredicate field="model year" operator="lessThan" value="77.50000000000001"/>
                                </Node>
                                <Node>
                                    <SimplePredicate field="model year" operator="greaterOrEqual" value="77.50000000000001"/>
                                    <Node score="24.92220644443315">
                                        <SimplePredicate field="horsepower" operator="lessThan" value="65.50000000000001"/>
                                    </Node>
                                    <Node score="24.66857009293446">
                                        <SimplePredicate field="horsepower" operator="greaterOrEqual" value="65.50000000000001"/>
                                    </Node>
                                </Node>
                            </Node>
                            <Node>
                                <SimplePredicate field="horsepower" operator="greaterOrEqual" value="70.50000000000001"/>
                                <Node>
                                    <SimplePredicate field="model year" operator="lessThan" value="78.50000000000001"/>
                                    <Node>
                                        <SimplePredicate field="weight" operator="lessThan" value="2305.0000000000005"/>
                                        <Node score="23.923115561026425">
                                            <SimplePredicate field="weight" operator="lessThan" value="2201.0000000000005"/>
                                        </Node>
                                        <Node score="23.73611557366261">
                                            <SimplePredicate field="weight" operator="greaterOrEqual" value="2201.0000000000005"/>
                                        </Node>
                                    </Node>
                                    <Node>
                                        <SimplePredicate field="weight" operator="greaterOrEqual" value="2305.0000000000005"/>
                                        <Node score="23.510941660370346">
                                            <SimplePredicate field="weight" operator="lessThan" value="2578.5000000000005"/>
                                        </Node>
                                        <Node score="23.39644890687673">
                                            <SimplePredicate field="weight" operator="greaterOrEqual" value="2578.5000000000005"/>
                                        </Node>
                                    </Node>
                                </Node>
                                <Node>
                                    <SimplePredicate field="model year" operator="greaterOrEqual" value="78.50000000000001"/>
                                    <Node score="24.480315578240244">
                                        <SimplePredicate field="weight" operator="lessThan" value="2578.5000000000005"/>
                                    </Node>
                                    <Node score="23.887930377386542">
                                        <SimplePredicate field="weight" operator="greaterOrEqual" value="2578.5000000000005"/>
                                    </Node>
                                </Node>
                            </Node>
                        </Node>
                        <Node>
                            <SimplePredicate field="cylinders" operator="greaterOrEqual" value="5.500000000000001"/>
                            <Node>
                                <SimplePredicate field="horsepower" operator="lessThan" value="139.50000000000003"/>
                                <Node>
                                    <SimplePredicate field="model year" operator="lessThan" value="78.50000000000001"/>
                                    <Node>
                                        <SimplePredicate field="displacement" operator="lessThan" value="241.00000000000003"/>
                                        <Node score="23.203591759052536">
                                            <SimplePredicate field="weight" operator="lessThan" value="3094.0000000000005"/>
                                        </Node>
                                        <Node score="23.040388296210313">
                                            <SimplePredicate field="weight" operator="greaterOrEqual" value="3094.0000000000005"/>
                                        </Node>
                                    </Node>
                                    <Node score="22.86252732355849">
                                        <SimplePredicate field="displacement" operator="greaterOrEqual" value="241.00000000000003"/>
                                    </Node>
                                </Node>
                                <Node score="23.47273096570966">
                                    <SimplePredicate field="model year" operator="greaterOrEqual" value="78.50000000000001"/>
                                </Node>
                            </Node>
                            <Node>
                                <SimplePredicate field="horsepower" operator="greaterOrEqual" value="139.50000000000003"/>
                                <Node>
                                    <SimplePredicate field="model year" operator="lessThan" value="74.50000000000001"/>
                                    <Node score="22.616056729152362">
                                        <SimplePredicate field="weight" operator="lessThan" value="4357.000000000001"/>
                                    </Node>
                                    <Node score="22.39773093729716">
                                        <SimplePredicate field="weight" operator="greaterOrEqual" value="4357.000000000001"/>
                                    </Node>
                                </Node>
                                <Node score="22.76811555586069">
                                    <SimplePredicate field="model year" operator="greaterOrEqual" value="74.50000000000001"/>
                                </Node>
                            </Node>
                        </Node>
                    </Node>
                </TreeModel>
            </Segment>
            <Segment id="2" weight="1">
                <True/>
                <TreeModel modelName="DecisionTreeModel" functionName="regression" missingValuePenalty="1.0" noTrueChildStrategy="returnLastPrediction">
                    <MiningSchema>
                        <MiningField name="cylinders" usageType="active"/>
                        <MiningField name="displacement" usageType="active"/>
                        <MiningField name="horsepower" usageType="active"/>
                        <MiningField name="weight" usageType="active"/>
                        <MiningField name="acceleration" usageType="active"/>
                        <MiningField name="model year" usageType="active"/>
                        <MiningField name="origin" usageType="active"/>
                    </MiningSchema>
                    <Node>
                        <True/>
                        <Node>
                            <SimplePredicate field="displacement" operator="lessThan" value="198.50000000000003"/>
                            <Node>
                                <SimplePredicate field="horsepower" operator="lessThan" value="76.50000000000001"/>
                                <Node>
                                    <SimplePredicate field="model year" operator="lessThan" value="77.50000000000001"/>
                                    <Node score="0.6175580097281415">
                                        <SimplePredicate field="weight" operator="lessThan" value="2040.0000000000002"/>
                                    </Node>
                                    <Node score="0.22434779144823552">
                                        <SimplePredicate field="weight" operator="greaterOrEqual" value="2040.0000000000002"/>
                                    </Node>
                                </Node>
                                <Node>
                                    <SimplePredicate field="model year" operator="greaterOrEqual" value="77.50000000000001"/>
                                    <Node score="1.2461687162518502">
                                        <SimplePredicate field="displacement" operator="lessThan" value="97.25000000000001"/>
                                    </Node>
                                    <Node score="0.8822771923882622">
                                        <SimplePredicate field="displacement" operator="greaterOrEqual" value="97.25000000000001"/>
                                    </Node>
                                </Node>
                            </Node>
                            <Node>
                                <SimplePredicate field="horsepower" operator="greaterOrEqual" value="76.50000000000001"/>
                                <Node>
                                    <SimplePredicate field="model year" operator="lessThan" value="78.50000000000001"/>
                                    <Node>
                                        <SimplePredicate field="weight" operator="lessThan" value="2781.5000000000005"/>
                                        <Node score="0.24230273238250188">
                                            <SimplePredicate field="weight" operator="lessThan" value="2305.0000000000005"/>
                                        </Node>
                                        <Node score="-0.0034873473824876726">
                                            <SimplePredicate field="weight" operator="greaterOrEqual" value="2305.0000000000005"/>
                                        </Node>
                                    </Node>
                                    <Node score="-0.31973796516656877">
                                        <SimplePredicate field="weight" operator="greaterOrEqual" value="2781.5000000000005"/>
                                    </Node>
                                </Node>
                                <Node>
                                    <SimplePredicate field="model year" operator="greaterOrEqual" value="78.50000000000001"/>
                                    <Node score="0.697701945900917">
                                        <SimplePredicate field="displacement" operator="lessThan" value="137.50000000000003"/>
                                    </Node>
                                    <Node score="0.2843377639969381">
                                        <SimplePredicate field="displacement" operator="greaterOrEqual" value="137.50000000000003"/>
                                    </Node>
                                </Node>
                            </Node>
                        </Node>
                        <Node>
                            <SimplePredicate field="displacement" operator="greaterOrEqual" value="198.50000000000003"/>
                            <Node>
                                <SimplePredicate field="horsepower" operator="lessThan" value="127.00000000000001"/>
                                <Node score="-0.5063513559453628">
                                    <SimplePredicate field="model year" operator="lessThan" value="75.50000000000001"/>
                                </Node>
                                <Node score="-0.2527940885016793">
                                    <SimplePredicate field="model year" operator="greaterOrEqual" value="75.50000000000001"/>
                                </Node>
                            </Node>
                            <Node>
                                <SimplePredicate field="horsepower" operator="greaterOrEqual" value="127.00000000000001"/>
                                <Node>
                                    <SimplePredicate field="model year" operator="lessThan" value="76.50000000000001"/>
                                    <Node>
                                        <SimplePredicate field="weight" operator="lessThan" value="4357.000000000001"/>
                                        <Node score="-0.7796914537747701">
                                            <SimplePredicate field="displacement" operator="lessThan" value="329.00000000000006"/>
                                        </Node>
                                        <Node score="-0.8606728939783006">
                                            <SimplePredicate field="displacement" operator="greaterOrEqual" value="329.00000000000006"/>
                                        </Node>
                                    </Node>
                                    <Node score="-0.960263159967238">
                                        <SimplePredicate field="weight" operator="greaterOrEqual" value="4357.000000000001"/>
                                    </Node>
                                </Node>
                                <Node score="-0.575820026397705">
                                    <SimplePredicate field="model year" operator="greaterOrEqual" value="76.50000000000001"/>
                                </Node>
                            </Node>
                        </Node>
                    </Node>
                </TreeModel>
            </Segment>
            <Segment id="3" weight="1">
                <True/>
                <TreeModel modelName="DecisionTreeModel" functionName="regression" missingValuePenalty="1.0" noTrueChildStrategy="returnLastPrediction">
                    <MiningSchema>
                        <MiningField name="cylinders" usageType="active"/>
                        <MiningField name="displacement" usageType="active"/>
                        <MiningField name="horsepower" usageType="active"/>
                        <MiningField name="weight" usageType="active"/>
                        <MiningField name="acceleration" usageType="active"/>
                        <MiningField name="model year" usageType="active"/>
                        <MiningField name="origin" usageType="active"/>
                    </MiningSchema>
                    <Node>
                        <True/>
                        <Node>
                            <SimplePredicate field="cylinders" operator="lessThan" value="5.500000000000001"/>
                            <Node>
                                <SimplePredicate field="horsepower" operator="lessThan" value="70.50000000000001"/>
                                <Node score="0.45083630862443347">
                                    <SimplePredicate field="model year" operator="lessThan" value="76.50000000000001"/>
                                </Node>
                                <Node>
                                    <SimplePredicate field="model year" operator="greaterOrEqual" value="76.50000000000001"/>
                                    <Node score="1.1526857861157123">
                                        <SimplePredicate field="displacement" operator="lessThan" value="93.50000000000001"/>
                                    </Node>
                                    <Node score="0.8084757125377655">
                                        <SimplePredicate field="displacement" operator="greaterOrEqual" value="93.50000000000001"/>
                                    </Node>
                                </Node>
                            </Node>
                            <Node>
                                <SimplePredicate field="horsepower" operator="greaterOrEqual" value="70.50000000000001"/>
                                <Node>
                                    <SimplePredicate field="model year" operator="lessThan" value="78.50000000000001"/>
                                    <Node>
                                        <SimplePredicate field="weight" operator="lessThan" value="2305.0000000000005"/>
                                        <Node score="0.337715662419796">
                                            <SimplePredicate field="horsepower" operator="lessThan" value="82.50000000000001"/>
                                        </Node>
                                        <Node score="0.17161316864192488">
                                            <SimplePredicate field="horsepower" operator="greaterOrEqual" value="82.50000000000001"/>
                                        </Node>
                                    </Node>
                                    <Node>
                                        <SimplePredicate field="weight" operator="greaterOrEqual" value="2305.0000000000005"/>
                                        <Node score="-0.11563467098907992">
                                            <SimplePredicate field="model year" operator="lessThan" value="74.50000000000001"/>
                                        </Node>
                                        <Node score="0.005441723823547364">
                                            <SimplePredicate field="model year" operator="greaterOrEqual" value="74.50000000000001"/>
                                        </Node>
                                    </Node>
                                </Node>
                                <Node>
                                    <SimplePredicate field="model year" operator="greaterOrEqual" value="78.50000000000001"/>
                                    <Node score="0.7914748463630676">
                                        <SimplePredicate field="weight" operator="lessThan" value="2578.5000000000005"/>
                                    </Node>
                                    <Node score="0.29244196779198117">
                                        <SimplePredicate field="weight" operator="greaterOrEqual" value="2578.5000000000005"/>
                                    </Node>
                                </Node>
                            </Node>
                        </Node>
                        <Node>
                            <SimplePredicate field="cylinders" operator="greaterOrEqual" value="5.500000000000001"/>
                            <Node>
                                <SimplePredicate field="weight" operator="lessThan" value="3727.5000000000005"/>
                                <Node>
                                    <SimplePredicate field="model year" operator="lessThan" value="78.50000000000001"/>
                                    <Node>
                                        <SimplePredicate field="displacement" operator="lessThan" value="241.00000000000003"/>
                                        <Node score="-0.2418039123217265">
                                            <SimplePredicate field="weight" operator="lessThan" value="3094.0000000000005"/>
                                        </Node>
                                        <Node score="-0.3711720448732376">
                                            <SimplePredicate field="weight" operator="greaterOrEqual" value="3094.0000000000005"/>
                                        </Node>
                                    </Node>
                                    <Node score="-0.5236071428737125">
                                        <SimplePredicate field="displacement" operator="greaterOrEqual" value="241.00000000000003"/>
                                    </Node>
                                </Node>
                                <Node score="0.04722465195439079">
                                    <SimplePredicate field="model year" operator="greaterOrEqual" value="78.50000000000001"/>
                                </Node>
                            </Node>
                            <Node>
                                <SimplePredicate field="weight" operator="greaterOrEqual" value="3727.5000000000005"/>
                                <Node>
                                    <SimplePredicate field="model year" operator="lessThan" value="73.50000000000001"/>
                                    <Node score="-0.770971127351125">
                                        <SimplePredicate field="weight" operator="lessThan" value="4369.500000000001"/>
                                    </Node>
                                    <Node score="-0.9301103938709606">
                                        <SimplePredicate field="weight" operator="greaterOrEqual" value="4369.500000000001"/>
                                    </Node>
                                </Node>
                                <Node>
                                    <SimplePredicate field="model year" operator="greaterOrEqual" value="73.50000000000001"/>
                                    <Node score="-0.594361875312669">
                                        <SimplePredicate field="weight" operator="lessThan" value="4114.500000000001"/>
                                    </Node>
                                    <Node score="-0.6572458338737488">
                                        <SimplePredicate field="weight" operator="greaterOrEqual" value="4114.500000000001"/>
                                    </Node>
                                </Node>
                            </Node>
                        </Node>
                    </Node>
                </TreeModel>
            </Segment>
            <Segment id="4" weight="1">
                <True/>
                <TreeModel modelName="DecisionTreeModel" functionName="regression" missingValuePenalty="1.0" noTrueChildStrategy="returnLastPrediction">
                    <MiningSchema>
                        <MiningField name="cylinders" usageType="active"/>
                        <MiningField name="displacement" usageType="active"/>
                        <MiningField name="horsepower" usageType="active"/>
                        <MiningField name="weight" usageType="active"/>
                        <MiningField name="acceleration" usageType="active"/>
                        <MiningField name="model year" usageType="active"/>
                        <MiningField name="origin" usageType="active"/>
                    </MiningSchema>
                    <Node>
                        <True/>
                        <Node>
                            <SimplePredicate field="displacement" operator="lessThan" value="198.50000000000003"/>
                            <Node>
                                <SimplePredicate field="horsepower" operator="lessThan" value="76.50000000000001"/>
                                <Node>
                                    <SimplePredicate field="model year" operator="lessThan" value="77.50000000000001"/>
                                    <Node score="0.5122265481430551">
                                        <SimplePredicate field="displacement" operator="lessThan" value="93.50000000000001"/>
                                    </Node>
                                    <Node score="0.16192454665899278">
                                        <SimplePredicate field="displacement" operator="greaterOrEqual" value="93.50000000000001"/>
                                    </Node>
                                </Node>
                                <Node>
                                    <SimplePredicate field="model year" operator="greaterOrEqual" value="77.50000000000001"/>
                                    <Node score="1.0131858229637147">
                                        <SimplePredicate field="displacement" operator="lessThan" value="97.25000000000001"/>
                                    </Node>
                                    <Node score="0.7218950859137944">
                                        <SimplePredicate field="displacement" operator="greaterOrEqual" value="97.25000000000001"/>
                                    </Node>
                                </Node>
                            </Node>
                            <Node>
                                <SimplePredicate field="horsepower" operator="greaterOrEqual" value="76.50000000000001"/>
                                <Node>
                                    <SimplePredicate field="model year" operator="lessThan" value="78.50000000000001"/>
                                    <Node>
                                        <SimplePredicate field="weight" operator="lessThan" value="2781.5000000000005"/>
                                        <Node score="0.22405723197893665">
                                            <SimplePredicate field="weight" operator="lessThan" value="2271.5000000000005"/>
                                        </Node>
                                        <Node score="0.016619952137653642">
                                            <SimplePredicate field="weight" operator="greaterOrEqual" value="2271.5000000000005"/>
                                        </Node>
                                    </Node>
                                    <Node score="-0.27042660102248195">
                                        <SimplePredicate field="weight" operator="greaterOrEqual" value="2781.5000000000005"/>
                                    </Node>
                                </Node>
                                <Node>
                                    <SimplePredicate field="model year" operator="greaterOrEqual" value="78.50000000000001"/>
                                    <Node score="0.566250415444374">
                                        <SimplePredicate field="displacement" operator="lessThan" value="137.50000000000003"/>
                                    </Node>
                                    <Node score="0.23134243855109582">
                                        <SimplePredicate field="displacement" operator="greaterOrEqual" value="137.50000000000003"/>
                                    </Node>
                                </Node>
                            </Node>
                        </Node>
                        <Node>
                            <SimplePredicate field="displacement" operator="greaterOrEqual" value="198.50000000000003"/>
                            <Node>
                                <SimplePredicate field="horsepower" operator="lessThan" value="127.00000000000001"/>
                                <Node score="-0.4132933539502761">
                                    <SimplePredicate field="model year" operator="lessThan" value="75.50000000000001"/>
                                </Node>
                                <Node score="-0.20110163045556925">
                                    <SimplePredicate field="model year" operator="greaterOrEqual" value="75.50000000000001"/>
                                </Node>
                            </Node>
                            <Node>
                                <SimplePredicate field="horsepower" operator="greaterOrEqual" value="127.00000000000001"/>
                                <Node>
                                    <SimplePredicate field="model year" operator="lessThan" value="76.50000000000001"/>
                                    <Node>
                                        <SimplePredicate field="weight" operator="lessThan" value="4357.000000000001"/>
                                        <Node score="-0.630149652560552">
                                            <SimplePredicate field="model year" operator="lessThan" value="72.50000000000001"/>
                                        </Node>
                                        <Node score="-0.7125795636858259">
                                            <SimplePredicate field="model year" operator="greaterOrEqual" value="72.50000000000001"/>
                                        </Node>
                                    </Node>
                                    <Node score="-0.7787808479801301">
                                        <SimplePredicate field="weight" operator="greaterOrEqual" value="4357.000000000001"/>
                                    </Node>
                                </Node>
                                <Node score="-0.4619861054420471">
                                    <SimplePredicate field="model year" operator="greaterOrEqual" value="76.50000000000001"/>
                                </Node>
                            </Node>
                        </Node>
                    </Node>
                </TreeModel>
            </Segment>
            <Segment id="5" weight="1">
                <True/>
                <TreeModel modelName="DecisionTreeModel" functionName="regression" missingValuePenalty="1.0" noTrueChildStrategy="returnLastPrediction">
                    <MiningSchema>
                        <MiningField name="cylinders" usageType="active"/>
                        <MiningField name="displacement" usageType="active"/>
                        <MiningField name="horsepower" usageType="active"/>
                        <MiningField name="weight" usageType="active"/>
                        <MiningField name="acceleration" usageType="active"/>
                        <MiningField name="model year" usageType="active"/>
                        <MiningField name="origin" usageType="active"/>
                    </MiningSchema>
                    <Node>
                        <True/>
                        <Node>
                            <SimplePredicate field="displacement" operator="lessThan" value="198.50000000000003"/>
                            <Node>
                                <SimplePredicate field="weight" operator="lessThan" value="2212.5000000000005"/>
                                <Node score="0.30250024254384794">
                                    <SimplePredicate field="model year" operator="lessThan" value="76.50000000000001"/>
                                </Node>
                                <Node>
                                    <SimplePredicate field="model year" operator="greaterOrEqual" value="76.50000000000001"/>
                                    <Node score="0.6695780903100967">
                                        <SimplePredicate field="model year" operator="lessThan" value="79.50000000000001"/>
                                    </Node>
                                    <Node score="0.9252488320524043">
                                        <SimplePredicate field="model year" operator="greaterOrEqual" value="79.50000000000001"/>
                                    </Node>
                                </Node>
                            </Node>
                            <Node>
                                <SimplePredicate field="weight" operator="greaterOrEqual" value="2212.5000000000005"/>
                                <Node>
                                    <SimplePredicate field="model year" operator="lessThan" value="78.50000000000001"/>
                                    <Node>
                                        <SimplePredicate field="weight" operator="lessThan" value="2781.5000000000005"/>
                                        <Node score="-0.08306602457394968">
                                            <SimplePredicate field="model year" operator="lessThan" value="73.50000000000001"/>
                                        </Node>
                                        <Node score="0.12724672425538303">
                                            <SimplePredicate field="model year" operator="greaterOrEqual" value="73.50000000000001"/>
                                        </Node>
                                    </Node>
                                    <Node score="-0.24338394090533258">
                                        <SimplePredicate field="weight" operator="greaterOrEqual" value="2781.5000000000005"/>
                                    </Node>
                                </Node>
                                <Node>
                                    <SimplePredicate field="model year" operator="greaterOrEqual" value="78.50000000000001"/>
                                    <Node score="0.5392912822110313">
                                        <SimplePredicate field="displacement" operator="lessThan" value="137.50000000000003"/>
                                    </Node>
                                    <Node score="0.22084220817376832">
                                        <SimplePredicate field="displacement" operator="greaterOrEqual" value="137.50000000000003"/>
                                    </Node>
                                </Node>
                            </Node>
                        </Node>
                        <Node>
                            <SimplePredicate field="displacement" operator="greaterOrEqual" value="198.50000000000003"/>
                            <Node>
                                <SimplePredicate field="horsepower" operator="lessThan" value="127.00000000000001"/>
                                <Node>
                                    <SimplePredicate field="model year" operator="lessThan" value="77.50000000000001"/>
                                    <Node score="-0.25353621118701997">
                                        <SimplePredicate field="displacement" operator="lessThan" value="241.00000000000003"/>
                                    </Node>
                                    <Node score="-0.42472845378021407">
                                        <SimplePredicate field="displacement" operator="greaterOrEqual" value="241.00000000000003"/>
                                    </Node>
                                </Node>
                                <Node score="-0.13525418862700464">
                                    <SimplePredicate field="model year" operator="greaterOrEqual" value="77.50000000000001"/>
                                </Node>
                            </Node>
                            <Node>
                                <SimplePredicate field="horsepower" operator="greaterOrEqual" value="127.00000000000001"/>
                                <Node>
                                    <SimplePredicate field="model year" operator="lessThan" value="76.50000000000001"/>
                                    <Node>
                                        <SimplePredicate field="horsepower" operator="lessThan" value="177.50000000000003"/>
                                        <Node score="-0.5668637664229782">
                                            <SimplePredicate field="displacement" operator="lessThan" value="329.00000000000006"/>
                                        </Node>
                                        <Node score="-0.6537656734729635">
                                            <SimplePredicate field="displacement" operator="greaterOrEqual" value="329.00000000000006"/>
                                        </Node>
                                    </Node>
                                    <Node score="-0.7271222710609436">
                                        <SimplePredicate field="horsepower" operator="greaterOrEqual" value="177.50000000000003"/>
                                    </Node>
                                </Node>
                                <Node score="-0.41578748047351843">
                                    <SimplePredicate field="model year" operator="greaterOrEqual" value="76.50000000000001"/>
                                </Node>
                            </Node>
                        </Node>
                    </Node>
                </TreeModel>
            </Segment>
            <Segment id="6" weight="1">
                <True/>
                <TreeModel modelName="DecisionTreeModel" functionName="regression" missingValuePenalty="1.0" noTrueChildStrategy="returnLastPrediction">
                    <MiningSchema>
                        <MiningField name="cylinders" usageType="active"/>
                        <MiningField name="displacement" usageType="active"/>
                        <MiningField name="horsepower" usageType="active"/>
                        <MiningField name="weight" usageType="active"/>
                        <MiningField name="acceleration" usageType="active"/>
                        <MiningField name="model year" usageType="active"/>
                        <MiningField name="origin" usageType="active"/>
                    </MiningSchema>
                    <Node>
                        <True/>
                        <Node>
                            <SimplePredicate field="displacement" operator="lessThan" value="198.50000000000003"/>
                            <Node>
                                <SimplePredicate field="horsepower" operator="lessThan" value="70.50000000000001"/>
                                <Node score="0.33509466949364414">
                                    <SimplePredicate field="model year" operator="lessThan" value="76.50000000000001"/>
                                </Node>
                                <Node>
                                    <SimplePredicate field="model year" operator="greaterOrEqual" value="76.50000000000001"/>
                                    <Node score="0.856294112369932">
                                        <SimplePredicate field="displacement" operator="lessThan" value="93.50000000000001"/>
                                    </Node>
                                    <Node score="0.5884119457006455">
                                        <SimplePredicate field="displacement" operator="greaterOrEqual" value="93.50000000000001"/>
                                    </Node>
                                </Node>
                            </Node>
                            <Node>
                                <SimplePredicate field="horsepower" operator="greaterOrEqual" value="70.50000000000001"/>
                                <Node>
                                    <SimplePredicate field="model year" operator="lessThan" value="78.50000000000001"/>
                                    <Node>
                                        <SimplePredicate field="weight" operator="lessThan" value="2305.0000000000005"/>
                                        <Node score="0.24078361489810052">
                                            <SimplePredicate field="horsepower" operator="lessThan" value="82.50000000000001"/>
                                        </Node>
                                        <Node score="0.12512593258172275">
                                            <SimplePredicate field="horsepower" operator="greaterOrEqual" value="82.50000000000001"/>
                                        </Node>
                                    </Node>
                                    <Node>
                                        <SimplePredicate field="weight" operator="greaterOrEqual" value="2305.0000000000005"/>
                                        <Node score="-0.009736132700192301">
                                            <SimplePredicate field="weight" operator="lessThan" value="2781.5000000000005"/>
                                        </Node>
                                        <Node score="-0.21904554590582848">
                                            <SimplePredicate field="weight" operator="greaterOrEqual" value="2781.5000000000005"/>
                                        </Node>
                                    </Node>
                                </Node>
                                <Node>
                                    <SimplePredicate field="model year" operator="greaterOrEqual" value="78.50000000000001"/>
                                    <Node score="0.5925251263504226">
                                        <SimplePredicate field="weight" operator="lessThan" value="2562.5000000000005"/>
                                    </Node>
                                    <Node score="0.21907224790710542">
                                        <SimplePredicate field="weight" operator="greaterOrEqual" value="2562.5000000000005"/>
                                    </Node>
                                </Node>
                            </Node>
                        </Node>
                        <Node>
                            <SimplePredicate field="displacement" operator="greaterOrEqual" value="198.50000000000003"/>
                            <Node>
                                <SimplePredicate field="horsepower" operator="lessThan" value="127.00000000000001"/>
                                <Node score="-0.3385542936184827">
                                    <SimplePredicate field="model year" operator="lessThan" value="75.50000000000001"/>
                                </Node>
                                <Node score="-0.15950424209433167">
                                    <SimplePredicate field="model year" operator="greaterOrEqual" value="75.50000000000001"/>
                                </Node>
                            </Node>
                            <Node>
                                <SimplePredicate field="horsepower" operator="greaterOrEqual" value="127.00000000000001"/>
                                <Node>
                                    <SimplePredicate field="model year" operator="lessThan" value="76.50000000000001"/>
                                    <Node>
                                        <SimplePredicate field="acceleration" operator="lessThan" value="13.100000000000001"/>
                                        <Node score="-0.4767015886306763">
                                            <SimplePredicate field="horsepower" operator="lessThan" value="154.00000000000003"/>
                                        </Node>
                                        <Node score="-0.5863154234424715">
                                            <SimplePredicate field="horsepower" operator="greaterOrEqual" value="154.00000000000003"/>
                                        </Node>
                                    </Node>
                                    <Node score="-0.648658582687378">
                                        <SimplePredicate field="acceleration" operator="greaterOrEqual" value="13.100000000000001"/>
                                    </Node>
                                </Node>
                                <Node score="-0.3742087414860726">
                                    <SimplePredicate field="model year" operator="greaterOrEqual" value="76.50000000000001"/>
                                </Node>
                            </Node>
                        </Node>
                    </Node>
                </TreeModel>
            </Segment>
            <Segment id="7" weight="1">
                <True/>
                <TreeModel modelName="DecisionTreeModel" functionName="regression" missingValuePenalty="1.0" noTrueChildStrategy="returnLastPrediction">
                    <MiningSchema>
                        <MiningField name="cylinders" usageType="active"/>
                        <MiningField name="displacement" usageType="active"/>
                        <MiningField name="horsepower" usageType="active"/>
                        <MiningField name="weight" usageType="active"/>
                        <MiningField name="acceleration" usageType="active"/>
                        <MiningField name="model year" usageType="active"/>
                        <MiningField name="origin" usageType="active"/>
                    </MiningSchema>
                    <Node>
                        <True/>
                        <Node>
                            <SimplePredicate field="weight" operator="lessThan" value="3028.0000000000005"/>
                            <Node>
                                <SimplePredicate field="horsepower" operator="lessThan" value="78.50000000000001"/>
                                <Node>
                                    <SimplePredicate field="model year" operator="lessThan" value="77.50000000000001"/>
                                    <Node score="0.39059290136038155">
                                        <SimplePredicate field="weight" operator="lessThan" value="2067.5000000000005"/>
                                    </Node>
                                    <Node score="0.06370142057538034">
                                        <SimplePredicate field="weight" operator="greaterOrEqual" value="2067.5000000000005"/>
                                    </Node>
                                </Node>
                                <Node>
                                    <SimplePredicate field="model year" operator="greaterOrEqual" value="77.50000000000001"/>
                                    <Node score="0.7751968258811582">
                                        <SimplePredicate field="horsepower" operator="lessThan" value="67.50000000000001"/>
                                    </Node>
                                    <Node score="0.5402638148378442">
                                        <SimplePredicate field="horsepower" operator="greaterOrEqual" value="67.50000000000001"/>
                                    </Node>
                                </Node>
                            </Node>
                            <Node>
                                <SimplePredicate field="horsepower" operator="greaterOrEqual" value="78.50000000000001"/>
                                <Node>
                                    <SimplePredicate field="model year" operator="lessThan" value="78.50000000000001"/>
                                    <Node>
                                        <SimplePredicate field="horsepower" operator="lessThan" value="96.50000000000001"/>
                                        <Node score="-0.023853464337486415">
                                            <SimplePredicate field="model year" operator="lessThan" value="73.50000000000001"/>
                                        </Node>
                                        <Node score="0.1704401008460833">
                                            <SimplePredicate field="model year" operator="greaterOrEqual" value="73.50000000000001"/>
                                        </Node>
                                    </Node>
                                    <Node score="-0.14082438471416633">
                                        <SimplePredicate field="horsepower" operator="greaterOrEqual" value="96.50000000000001"/>
                                    </Node>
                                </Node>
                                <Node>
                                    <SimplePredicate field="model year" operator="greaterOrEqual" value="78.50000000000001"/>
                                    <Node score="0.3757634732723236">
                                        <SimplePredicate field="weight" operator="lessThan" value="2686.0000000000005"/>
                                    </Node>
                                    <Node score="0.1695185558497906">
                                        <SimplePredicate field="weight" operator="greaterOrEqual" value="2686.0000000000005"/>
                                    </Node>
                                </Node>
                            </Node>
                        </Node>
                        <Node>
                            <SimplePredicate field="weight" operator="greaterOrEqual" value="3028.0000000000005"/>
                            <Node>
                                <SimplePredicate field="horsepower" operator="lessThan" value="115.50000000000001"/>
                                <Node score="-0.29707665494398067">
                                    <SimplePredicate field="model year" operator="lessThan" value="77.50000000000001"/>
                                </Node>
                                <Node score="-0.08415372410546179">
                                    <SimplePredicate field="model year" operator="greaterOrEqual" value="77.50000000000001"/>
                                </Node>
                            </Node>
                            <Node>
                                <SimplePredicate field="horsepower" operator="greaterOrEqual" value="115.50000000000001"/>
                                <Node>
                                    <SimplePredicate field="model year" operator="lessThan" value="76.50000000000001"/>
                                    <Node>
                                        <SimplePredicate field="horsepower" operator="lessThan" value="177.50000000000003"/>
                                        <Node score="-0.45894146417749343">
                                            <SimplePredicate field="displacement" operator="lessThan" value="329.00000000000006"/>
                                        </Node>
                                        <Node score="-0.5308985849906659">
                                            <SimplePredicate field="displacement" operator="greaterOrEqual" value="329.00000000000006"/>
                                        </Node>
                                    </Node>
                                    <Node score="-0.5945316278934479">
                                        <SimplePredicate field="horsepower" operator="greaterOrEqual" value="177.50000000000003"/>
                                    </Node>
                                </Node>
                                <Node score="-0.3343283896446228">
                                    <SimplePredicate field="model year" operator="greaterOrEqual" value="76.50000000000001"/>
                                </Node>
                            </Node>
                        </Node>
                    </Node>
                </TreeModel>
            </Segment>
            <Segment id="8" weight="1">
                <True/>
                <TreeModel modelName="DecisionTreeModel" functionName="regression" missingValuePenalty="1.0" noTrueChildStrategy="returnLastPrediction">
                    <MiningSchema>
                        <MiningField name="cylinders" usageType="active"/>
                        <MiningField name="displacement" usageType="active"/>
                        <MiningField name="horsepower" usageType="active"/>
                        <MiningField name="weight" usageType="active"/>
                        <MiningField name="acceleration" usageType="active"/>
                        <MiningField name="model year" usageType="active"/>
                        <MiningField name="origin" usageType="active"/>
                    </MiningSchema>
                    <Node>
                        <True/>
                        <Node>
                            <SimplePredicate field="weight" operator="lessThan" value="3028.0000000000005"/>
                            <Node>
                                <SimplePredicate field="weight" operator="lessThan" value="2212.5000000000005"/>
                                <Node score="0.22196945396104925">
                                    <SimplePredicate field="model year" operator="lessThan" value="76.50000000000001"/>
                                </Node>
                                <Node>
                                    <SimplePredicate field="model year" operator="greaterOrEqual" value="76.50000000000001"/>
                                    <Node score="0.491018411765496">
                                        <SimplePredicate field="model year" operator="lessThan" value="79.50000000000001"/>
                                    </Node>
                                    <Node score="0.6898938020070394">
                                        <SimplePredicate field="model year" operator="greaterOrEqual" value="79.50000000000001"/>
                                    </Node>
                                </Node>
                            </Node>
                            <Node>
                                <SimplePredicate field="weight" operator="greaterOrEqual" value="2212.5000000000005"/>
                                <Node>
                                    <SimplePredicate field="model year" operator="lessThan" value="78.50000000000001"/>
                                    <Node>
                                        <SimplePredicate field="model year" operator="lessThan" value="73.50000000000001"/>
                                        <Node score="-0.05984372071921826">
                                            <SimplePredicate field="displacement" operator="lessThan" value="121.50000000000001"/>
                                        </Node>
                                        <Node score="-0.17537078529596328">
                                            <SimplePredicate field="displacement" operator="greaterOrEqual" value="121.50000000000001"/>
                                        </Node>
                                    </Node>
                                    <Node>
                                        <SimplePredicate field="model year" operator="greaterOrEqual" value="73.50000000000001"/>
                                        <Node score="0.15378420838997478">
                                            <SimplePredicate field="weight" operator="lessThan" value="2589.5000000000005"/>
                                        </Node>
                                        <Node score="-0.04886443503201008">
                                            <SimplePredicate field="weight" operator="greaterOrEqual" value="2589.5000000000005"/>
                                        </Node>
                                    </Node>
                                </Node>
                                <Node>
                                    <SimplePredicate field="model year" operator="greaterOrEqual" value="78.50000000000001"/>
                                    <Node score="0.41557803762995676">
                                        <SimplePredicate field="displacement" operator="lessThan" value="134.50000000000003"/>
                                    </Node>
                                    <Node score="0.19562207133539264">
                                        <SimplePredicate field="displacement" operator="greaterOrEqual" value="134.50000000000003"/>
                                    </Node>
                                </Node>
                            </Node>
                        </Node>
                        <Node>
                            <SimplePredicate field="weight" operator="greaterOrEqual" value="3028.0000000000005"/>
                            <Node>
                                <SimplePredicate field="weight" operator="lessThan" value="3727.5000000000005"/>
                                <Node score="-0.32833224786445503">
                                    <SimplePredicate field="model year" operator="lessThan" value="75.50000000000001"/>
                                </Node>
                                <Node>
                                    <SimplePredicate field="model year" operator="greaterOrEqual" value="75.50000000000001"/>
                                    <Node score="-0.20655966199934483">
                                        <SimplePredicate field="acceleration" operator="lessThan" value="17.550000000000004"/>
                                    </Node>
                                    <Node score="-0.06855655923485757">
                                        <SimplePredicate field="acceleration" operator="greaterOrEqual" value="17.550000000000004"/>
                                    </Node>
                                </Node>
                            </Node>
                            <Node>
                                <SimplePredicate field="weight" operator="greaterOrEqual" value="3727.5000000000005"/>
                                <Node>
                                    <SimplePredicate field="model year" operator="lessThan" value="73.50000000000001"/>
                                    <Node score="-0.45487611393133803">
                                        <SimplePredicate field="weight" operator="lessThan" value="4369.500000000001"/>
                                    </Node>
                                    <Node score="-0.5731657526709817">
                                        <SimplePredicate field="weight" operator="greaterOrEqual" value="4369.500000000001"/>
                                    </Node>
                                </Node>
                                <Node>
                                    <SimplePredicate field="model year" operator="greaterOrEqual" value="73.50000000000001"/>
                                    <Node score="-0.38111328393220906">
                                        <SimplePredicate field="weight" operator="lessThan" value="4068.5000000000005"/>
                                    </Node>
                                    <Node score="-0.3700044700077602">
                                        <SimplePredicate field="weight" operator="greaterOrEqual" value="4068.5000000000005"/>
                                    </Node>
                                </Node>
                            </Node>
                        </Node>
                    </Node>
                </TreeModel>
            </Segment>
            <Segment id="9" weight="1">
                <True/>
                <TreeModel modelName="DecisionTreeModel" functionName="regression" missingValuePenalty="1.0" noTrueChildStrategy="returnLastPrediction">
                    <MiningSchema>
                        <MiningField name="cylinders" usageType="active"/>
                        <MiningField name="displacement" usageType="active"/>
                        <MiningField name="horsepower" usageType="active"/>
                        <MiningField name="weight" usageType="active"/>
                        <MiningField name="acceleration" usageType="active"/>
                        <MiningField name="model year" usageType="active"/>
                        <MiningField name="origin" usageType="active"/>
                    </MiningSchema>
                    <Node>
                        <True/>
                        <Node>
                            <SimplePredicate field="displacement" operator="lessThan" value="153.00000000000003"/>
                            <Node>
                                <SimplePredicate field="horsepower" operator="lessThan" value="70.50000000000001"/>
                                <Node score="0.24723932299277057">
                                    <SimplePredicate field="model year" operator="lessThan" value="76.50000000000001"/>
                                </Node>
                                <Node>
                                    <SimplePredicate field="model year" operator="greaterOrEqual" value="76.50000000000001"/>
                                    <Node score="0.6863161021471025">
                                        <SimplePredicate field="displacement" operator="lessThan" value="90.50000000000001"/>
                                    </Node>
                                    <Node score="0.45333356389711643">
                                        <SimplePredicate field="displacement" operator="greaterOrEqual" value="90.50000000000001"/>
                                    </Node>
                                </Node>
                            </Node>
                            <Node>
                                <SimplePredicate field="horsepower" operator="greaterOrEqual" value="70.50000000000001"/>
                                <Node>
                                    <SimplePredicate field="model year" operator="lessThan" value="78.50000000000001"/>
                                    <Node>
                                        <SimplePredicate field="weight" operator="lessThan" value="2305.0000000000005"/>
                                        <Node score="0.18320549845695497">
                                            <SimplePredicate field="acceleration" operator="lessThan" value="15.450000000000001"/>
                                        </Node>
                                        <Node score="0.09572125792503357">
                                            <SimplePredicate field="acceleration" operator="greaterOrEqual" value="15.450000000000001"/>
                                        </Node>
                                    </Node>
                                    <Node>
                                        <SimplePredicate field="weight" operator="greaterOrEqual" value="2305.0000000000005"/>
                                        <Node score="-0.08702101375568998">
                                            <SimplePredicate field="model year" operator="lessThan" value="74.50000000000001"/>
                                        </Node>
                                        <Node score="0.015549649178981781">
                                            <SimplePredicate field="model year" operator="greaterOrEqual" value="74.50000000000001"/>
                                        </Node>
                                    </Node>
                                </Node>
                                <Node>
                                    <SimplePredicate field="model year" operator="greaterOrEqual" value="78.50000000000001"/>
                                    <Node score="0.4299791336059571">
                                        <SimplePredicate field="weight" operator="lessThan" value="2622.5000000000005"/>
                                    </Node>
                                    <Node score="0.1278914540277227">
                                        <SimplePredicate field="weight" operator="greaterOrEqual" value="2622.5000000000005"/>
                                    </Node>
                                </Node>
                            </Node>
                        </Node>
                        <Node>
                            <SimplePredicate field="displacement" operator="greaterOrEqual" value="153.00000000000003"/>
                            <Node>
                                <SimplePredicate field="weight" operator="lessThan" value="3607.0000000000005"/>
                                <Node>
                                    <SimplePredicate field="model year" operator="lessThan" value="78.50000000000001"/>
                                    <Node score="-0.1561084942640485">
                                        <SimplePredicate field="displacement" operator="lessThan" value="241.00000000000003"/>
                                    </Node>
                                    <Node score="-0.2499124516795079">
                                        <SimplePredicate field="displacement" operator="greaterOrEqual" value="241.00000000000003"/>
                                    </Node>
                                </Node>
                                <Node score="0.03978220779787411">
                                    <SimplePredicate field="model year" operator="greaterOrEqual" value="78.50000000000001"/>
                                </Node>
                            </Node>
                            <Node>
                                <SimplePredicate field="weight" operator="greaterOrEqual" value="3607.0000000000005"/>
                                <Node>
                                    <SimplePredicate field="model year" operator="lessThan" value="73.50000000000001"/>
                                    <Node score="-0.4125000493867057">
                                        <SimplePredicate field="weight" operator="lessThan" value="4357.000000000001"/>
                                    </Node>
                                    <Node score="-0.5136899025543876">
                                        <SimplePredicate field="weight" operator="greaterOrEqual" value="4357.000000000001"/>
                                    </Node>
                                </Node>
                                <Node>
                                    <SimplePredicate field="model year" operator="greaterOrEqual" value="73.50000000000001"/>
                                    <Node score="-0.3608820996114186">
                                        <SimplePredicate field="model year" operator="lessThan" value="76.50000000000001"/>
                                    </Node>
                                    <Node score="-0.252166946941898">
                                        <SimplePredicate field="model year" operator="greaterOrEqual" value="76.50000000000001"/>
                                    </Node>
                                </Node>
                            </Node>
                        </Node>
                    </Node>
                </TreeModel>
            </Segment>
            <Segment id="10" weight="1">
                <True/>
                <TreeModel modelName="DecisionTreeModel" functionName="regression" missingValuePenalty="1.0" noTrueChildStrategy="returnLastPrediction">
                    <MiningSchema>
                        <MiningField name="cylinders" usageType="active"/>
                        <MiningField name="displacement" usageType="active"/>
                        <MiningField name="horsepower" usageType="active"/>
                        <MiningField name="weight" usageType="active"/>
                        <MiningField name="acceleration" usageType="active"/>
                        <MiningField name="model year" usageType="active"/>
                        <MiningField name="origin" usageType="active"/>
                    </MiningSchema>
                    <Node>
                        <True/>
                        <Node>
                            <SimplePredicate field="weight" operator="lessThan" value="3028.0000000000005"/>
                            <Node>
                                <SimplePredicate field="weight" operator="lessThan" value="2212.5000000000005"/>
                                <Node score="0.17935629185093077">
                                    <SimplePredicate field="model year" operator="lessThan" value="76.50000000000001"/>
                                </Node>
                                <Node>
                                    <SimplePredicate field="model year" operator="greaterOrEqual" value="76.50000000000001"/>
                                    <Node score="0.4241629074464607">
                                        <SimplePredicate field="weight" operator="lessThan" value="2067.5000000000005"/>
                                    </Node>
                                    <Node score="0.6005420712673146">
                                        <SimplePredicate field="weight" operator="greaterOrEqual" value="2067.5000000000005"/>
                                    </Node>
                                </Node>
                            </Node>
                            <Node>
                                <SimplePredicate field="weight" operator="greaterOrEqual" value="2212.5000000000005"/>
                                <Node>
                                    <SimplePredicate field="model year" operator="lessThan" value="79.50000000000001"/>
                                    <Node>
                                        <SimplePredicate field="weight" operator="lessThan" value="2781.5000000000005"/>
                                        <Node score="-0.07449030557647347">
                                            <SimplePredicate field="model year" operator="lessThan" value="73.50000000000001"/>
                                        </Node>
                                        <Node score="0.1157512079924345">
                                            <SimplePredicate field="model year" operator="greaterOrEqual" value="73.50000000000001"/>
                                        </Node>
                                    </Node>
                                    <Node score="-0.13780995732545853">
                                        <SimplePredicate field="weight" operator="greaterOrEqual" value="2781.5000000000005"/>
                                    </Node>
                                </Node>
                                <Node>
                                    <SimplePredicate field="model year" operator="greaterOrEqual" value="79.50000000000001"/>
                                    <Node score="0.3580721536820585">
                                        <SimplePredicate field="horsepower" operator="lessThan" value="85.50000000000001"/>
                                    </Node>
                                    <Node score="0.16405009885132316">
                                        <SimplePredicate field="horsepower" operator="greaterOrEqual" value="85.50000000000001"/>
                                    </Node>
                                </Node>
                            </Node>
                        </Node>
                        <Node>
                            <SimplePredicate field="weight" operator="greaterOrEqual" value="3028.0000000000005"/>
                            <Node>
                                <SimplePredicate field="horsepower" operator="lessThan" value="115.50000000000001"/>
                                <Node score="-0.2519166698679328">
                                    <SimplePredicate field="model year" operator="lessThan" value="75.50000000000001"/>
                                </Node>
                                <Node score="-0.0971893408411258">
                                    <SimplePredicate field="model year" operator="greaterOrEqual" value="75.50000000000001"/>
                                </Node>
                            </Node>
                            <Node>
                                <SimplePredicate field="horsepower" operator="greaterOrEqual" value="115.50000000000001"/>
                                <Node>
                                    <SimplePredicate field="model year" operator="lessThan" value="76.50000000000001"/>
                                    <Node>
                                        <SimplePredicate field="acceleration" operator="lessThan" value="13.100000000000001"/>
                                        <Node score="-0.30539740800857545">
                                            <SimplePredicate field="horsepower" operator="lessThan" value="154.00000000000003"/>
                                        </Node>
                                        <Node score="-0.3783042830805625">
                                            <SimplePredicate field="horsepower" operator="greaterOrEqual" value="154.00000000000003"/>
                                        </Node>
                                    </Node>
                                    <Node score="-0.44406472886050197">
                                        <SimplePredicate field="acceleration" operator="greaterOrEqual" value="13.100000000000001"/>
                                    </Node>
                                </Node>
                                <Node score="-0.24656351716816427">
                                    <SimplePredicate field="model year" operator="greaterOrEqual" value="76.50000000000001"/>
                                </Node>
                            </Node>
                        </Node>
                    </Node>
                </TreeModel>
            </Segment>
            <Segment id="11" weight="1">
                <True/>
                <TreeModel modelName="DecisionTreeModel" functionName="regression" missingValuePenalty="1.0" noTrueChildStrategy="returnLastPrediction">
                    <MiningSchema>
                        <MiningField name="cylinders" usageType="active"/>
                        <MiningField name="displacement" usageType="active"/>
                        <MiningField name="horsepower" usageType="active"/>
                        <MiningField name="weight" usageType="active"/>
                        <MiningField name="acceleration" usageType="active"/>
                        <MiningField name="model year" usageType="active"/>
                        <MiningField name="origin" usageType="active"/>
                    </MiningSchema>
                    <Node>
                        <True/>
                        <Node>
                            <SimplePredicate field="weight" operator="lessThan" value="2742.5000000000005"/>
                            <Node>
                                <SimplePredicate field="model year" operator="lessThan" value="77.50000000000001"/>
                                <Node score="0.2755484664067626">
                                    <SimplePredicate field="weight" operator="lessThan" value="2080.0000000000005"/>
                                </Node>
                                <Node>
                                    <SimplePredicate field="weight" operator="greaterOrEqual" value="2080.0000000000005"/>
                                    <Node score="-0.04873591024232538">
                                        <SimplePredicate field="model year" operator="lessThan" value="73.50000000000001"/>
                                    </Node>
                                    <Node score="0.08205301086418332">
                                        <SimplePredicate field="model year" operator="greaterOrEqual" value="73.50000000000001"/>
                                    </Node>
                                </Node>
                            </Node>
                            <Node>
                                <SimplePredicate field="model year" operator="greaterOrEqual" value="77.50000000000001"/>
                                <Node>
                                    <SimplePredicate field="weight" operator="lessThan" value="2379.5000000000005"/>
                                    <Node score="0.5503536188396915">
                                        <SimplePredicate field="horsepower" operator="lessThan" value="67.50000000000001"/>
                                    </Node>
                                    <Node score="0.37228656758864725">
                                        <SimplePredicate field="horsepower" operator="greaterOrEqual" value="67.50000000000001"/>
                                    </Node>
                                </Node>
                                <Node score="0.16787317685895797">
                                    <SimplePredicate field="weight" operator="greaterOrEqual" value="2379.5000000000005"/>
                                </Node>
                            </Node>
                        </Node>
                        <Node>
                            <SimplePredicate field="weight" operator="greaterOrEqual" value="2742.5000000000005"/>
                            <Node>
                                <SimplePredicate field="model year" operator="lessThan" value="79.50000000000001"/>
                                <Node>
                                    <SimplePredicate field="weight" operator="lessThan" value="3607.0000000000005"/>
                                    <Node score="-0.09657805058462866">
                                        <SimplePredicate field="horsepower" operator="lessThan" value="96.50000000000001"/>
                                    </Node>
                                    <Node>
                                        <SimplePredicate field="horsepower" operator="greaterOrEqual" value="96.50000000000001"/>
                                        <Node score="-0.23529273804439155">
                                            <SimplePredicate field="model year" operator="lessThan" value="74.50000000000001"/>
                                        </Node>
                                        <Node score="-0.1357764045475051">
                                            <SimplePredicate field="model year" operator="greaterOrEqual" value="74.50000000000001"/>
                                        </Node>
                                    </Node>
                                </Node>
                                <Node>
                                    <SimplePredicate field="weight" operator="greaterOrEqual" value="3607.0000000000005"/>
                                    <Node>
                                        <SimplePredicate field="model year" operator="lessThan" value="73.50000000000001"/>
                                        <Node score="-0.33559723516990403">
                                            <SimplePredicate field="weight" operator="lessThan" value="4369.500000000001"/>
                                        </Node>
                                        <Node score="-0.42488877773284917">
                                            <SimplePredicate field="weight" operator="greaterOrEqual" value="4369.500000000001"/>
                                        </Node>
                                    </Node>
                                    <Node>
                                        <SimplePredicate field="model year" operator="greaterOrEqual" value="73.50000000000001"/>
                                        <Node score="-0.24367878941389232">
                                            <SimplePredicate field="horsepower" operator="lessThan" value="141.00000000000003"/>
                                        </Node>
                                        <Node score="-0.296758861433376">
                                            <SimplePredicate field="horsepower" operator="greaterOrEqual" value="141.00000000000003"/>
                                        </Node>
                                    </Node>
                                </Node>
                            </Node>
                            <Node score="0.12142196448276872">
                                <SimplePredicate field="model year" operator="greaterOrEqual" value="79.50000000000001"/>
                            </Node>
                        </Node>
                    </Node>
                </TreeModel>
            </Segment>
            <Segment id="12" weight="1">
                <True/>
                <TreeModel modelName="DecisionTreeModel" functionName="regression" missingValuePenalty="1.0" noTrueChildStrategy="returnLastPrediction">
                    <MiningSchema>
                        <MiningField name="cylinders" usageType="active"/>
                        <MiningField name="displacement" usageType="active"/>
                        <MiningField name="horsepower" usageType="active"/>
                        <MiningField name="weight" usageType="active"/>
                        <MiningField name="acceleration" usageType="active"/>
                        <MiningField name="model year" usageType="active"/>
                        <MiningField name="origin" usageType="active"/>
                    </MiningSchema>
                    <Node>
                        <True/>
                        <Node>
                            <SimplePredicate field="weight" operator="lessThan" value="3028.0000000000005"/>
                            <Node>
                                <SimplePredicate field="model year" operator="lessThan" value="75.50000000000001"/>
                                <Node score="0.1795446090400219">
                                    <SimplePredicate field="weight" operator="lessThan" value="2121.5000000000005"/>
                                </Node>
                                <Node>
                                    <SimplePredicate field="weight" operator="greaterOrEqual" value="2121.5000000000005"/>
                                    <Node score="0.018515572762664627">
                                        <SimplePredicate field="displacement" operator="lessThan" value="120.50000000000001"/>
                                    </Node>
                                    <Node score="-0.09130210681921908">
                                        <SimplePredicate field="displacement" operator="greaterOrEqual" value="120.50000000000001"/>
                                    </Node>
                                </Node>
                            </Node>
                            <Node>
                                <SimplePredicate field="model year" operator="greaterOrEqual" value="75.50000000000001"/>
                                <Node>
                                    <SimplePredicate field="weight" operator="lessThan" value="2379.5000000000005"/>
                                    <Node score="0.25731857253091506">
                                        <SimplePredicate field="model year" operator="lessThan" value="79.50000000000001"/>
                                    </Node>
                                    <Node>
                                        <SimplePredicate field="model year" operator="greaterOrEqual" value="79.50000000000001"/>
                                        <Node score="0.3864383651451631">
                                            <SimplePredicate field="acceleration" operator="lessThan" value="16.3"/>
                                        </Node>
                                        <Node score="0.5411243049055339">
                                            <SimplePredicate field="acceleration" operator="greaterOrEqual" value="16.3"/>
                                        </Node>
                                    </Node>
                                </Node>
                                <Node>
                                    <SimplePredicate field="weight" operator="greaterOrEqual" value="2379.5000000000005"/>
                                    <Node score="0.04320521892872281">
                                        <SimplePredicate field="model year" operator="lessThan" value="79.50000000000001"/>
                                    </Node>
                                    <Node score="0.15775597740552927">
                                        <SimplePredicate field="model year" operator="greaterOrEqual" value="79.50000000000001"/>
                                    </Node>
                                </Node>
                            </Node>
                        </Node>
                        <Node>
                            <SimplePredicate field="weight" operator="greaterOrEqual" value="3028.0000000000005"/>
                            <Node>
                                <SimplePredicate field="model year" operator="lessThan" value="77.50000000000001"/>
                                <Node>
                                    <SimplePredicate field="weight" operator="lessThan" value="3648.0000000000005"/>
                                    <Node score="-0.14532915350049733">
                                        <SimplePredicate field="acceleration" operator="lessThan" value="15.850000000000003"/>
                                    </Node>
                                    <Node score="-0.2145357409119606">
                                        <SimplePredicate field="acceleration" operator="greaterOrEqual" value="15.850000000000003"/>
                                    </Node>
                                </Node>
                                <Node>
                                    <SimplePredicate field="weight" operator="greaterOrEqual" value="3648.0000000000005"/>
                                    <Node>
                                        <SimplePredicate field="model year" operator="lessThan" value="73.50000000000001"/>
                                        <Node score="-0.300675420925535">
                                            <SimplePredicate field="acceleration" operator="lessThan" value="12.850000000000003"/>
                                        </Node>
                                        <Node score="-0.3864146232604981">
                                            <SimplePredicate field="acceleration" operator="greaterOrEqual" value="12.850000000000003"/>
                                        </Node>
                                    </Node>
                                    <Node score="-0.2755033193212567">
                                        <SimplePredicate field="model year" operator="greaterOrEqual" value="73.50000000000001"/>
                                    </Node>
                                </Node>
                            </Node>
                            <Node>
                                <SimplePredicate field="model year" operator="greaterOrEqual" value="77.50000000000001"/>
                                <Node score="-0.16145680390653158">
                                    <SimplePredicate field="acceleration" operator="lessThan" value="16.550000000000004"/>
                                </Node>
                                <Node score="-0.032002485692501074">
                                    <SimplePredicate field="acceleration" operator="greaterOrEqual" value="16.550000000000004"/>
                                </Node>
                            </Node>
                        </Node>
                    </Node>
                </TreeModel>
            </Segment>
            <Segment id="13" weight="1">
                <True/>
                <TreeModel modelName="DecisionTreeModel" functionName="regression" missingValuePenalty="1.0" noTrueChildStrategy="returnLastPrediction">
                    <MiningSchema>
                        <MiningField name="cylinders" usageType="active"/>
                        <MiningField name="displacement" usageType="active"/>
                        <MiningField name="horsepower" usageType="active"/>
                        <MiningField name="weight" usageType="active"/>
                        <MiningField name="acceleration" usageType="active"/>
                        <MiningField name="model year" usageType="active"/>
                        <MiningField name="origin" usageType="active"/>
                    </MiningSchema>
                    <Node>
                        <True/>
                        <Node>
                            <SimplePredicate field="weight" operator="lessThan" value="2722.5000000000005"/>
                            <Node>
                                <SimplePredicate field="model year" operator="lessThan" value="76.50000000000001"/>
                                <Node score="0.20421203012051792">
                                    <SimplePredicate field="weight" operator="lessThan" value="2080.0000000000005"/>
                                </Node>
                                <Node>
                                    <SimplePredicate field="weight" operator="greaterOrEqual" value="2080.0000000000005"/>
                                    <Node score="-0.04180272847021881">
                                        <SimplePredicate field="model year" operator="lessThan" value="73.50000000000001"/>
                                    </Node>
                                    <Node score="0.07390734460949898">
                                        <SimplePredicate field="model year" operator="greaterOrEqual" value="73.50000000000001"/>
                                    </Node>
                                </Node>
                            </Node>
                            <Node>
                                <SimplePredicate field="model year" operator="greaterOrEqual" value="76.50000000000001"/>
                                <Node>
                                    <SimplePredicate field="weight" operator="lessThan" value="2379.5000000000005"/>
                                    <Node>
                                        <SimplePredicate field="acceleration" operator="lessThan" value="17.250000000000004"/>
                                        <Node score="0.4081624326498612">
                                            <SimplePredicate field="acceleration" operator="lessThan" value="15.050000000000002"/>
                                        </Node>
                                        <Node score="0.2047428539166084">
                                            <SimplePredicate field="acceleration" operator="greaterOrEqual" value="15.050000000000002"/>
                                        </Node>
                                    </Node>
                                    <Node score="0.48015350933585854">
                                        <SimplePredicate field="acceleration" operator="greaterOrEqual" value="17.250000000000004"/>
                                    </Node>
                                </Node>
                                <Node score="0.12870716875927016">
                                    <SimplePredicate field="weight" operator="greaterOrEqual" value="2379.5000000000005"/>
                                </Node>
                            </Node>
                        </Node>
                        <Node>
                            <SimplePredicate field="weight" operator="greaterOrEqual" value="2722.5000000000005"/>
                            <Node>
                                <SimplePredicate field="model year" operator="lessThan" value="79.50000000000001"/>
                                <Node>
                                    <SimplePredicate field="weight" operator="lessThan" value="3607.0000000000005"/>
                                    <Node>
                                        <SimplePredicate field="horsepower" operator="lessThan" value="111.00000000000001"/>
                                        <Node score="-0.06072982418247395">
                                            <SimplePredicate field="displacement" operator="lessThan" value="231.50000000000003"/>
                                        </Node>
                                        <Node score="-0.1533986382186413">
                                            <SimplePredicate field="displacement" operator="greaterOrEqual" value="231.50000000000003"/>
                                        </Node>
                                    </Node>
                                    <Node score="-0.18316793785918328">
                                        <SimplePredicate field="horsepower" operator="greaterOrEqual" value="111.00000000000001"/>
                                    </Node>
                                </Node>
                                <Node>
                                    <SimplePredicate field="weight" operator="greaterOrEqual" value="3607.0000000000005"/>
                                    <Node>
                                        <SimplePredicate field="model year" operator="lessThan" value="73.50000000000001"/>
                                        <Node score="-0.26866216104606105">
                                            <SimplePredicate field="weight" operator="lessThan" value="4369.500000000001"/>
                                        </Node>
                                        <Node score="-0.34921457659114497">
                                            <SimplePredicate field="weight" operator="greaterOrEqual" value="4369.500000000001"/>
                                        </Node>
                                    </Node>
                                    <Node>
                                        <SimplePredicate field="model year" operator="greaterOrEqual" value="73.50000000000001"/>
                                        <Node score="-0.24729552239179614">
                                            <SimplePredicate field="displacement" operator="lessThan" value="304.50000000000006"/>
                                        </Node>
                                        <Node score="-0.19590399518076862">
                                            <SimplePredicate field="displacement" operator="greaterOrEqual" value="304.50000000000006"/>
                                        </Node>
                                    </Node>
                                </Node>
                            </Node>
                            <Node score="0.08941763659566641">
                                <SimplePredicate field="model year" operator="greaterOrEqual" value="79.50000000000001"/>
                            </Node>
                        </Node>
                    </Node>
                </TreeModel>
            </Segment>
            <Segment id="14" weight="1">
                <True/>
                <TreeModel modelName="DecisionTreeModel" functionName="regression" missingValuePenalty="1.0" noTrueChildStrategy="returnLastPrediction">
                    <MiningSchema>
                        <MiningField name="cylinders" usageType="active"/>
                        <MiningField name="displacement" usageType="active"/>
                        <MiningField name="horsepower" usageType="active"/>
                        <MiningField name="weight" usageType="active"/>
                        <MiningField name="acceleration" usageType="active"/>
                        <MiningField name="model year" usageType="active"/>
                        <MiningField name="origin" usageType="active"/>
                    </MiningSchema>
                    <Node>
                        <True/>
                        <Node>
                            <SimplePredicate field="weight" operator="lessThan" value="3028.0000000000005"/>
                            <Node>
                                <SimplePredicate field="model year" operator="lessThan" value="75.50000000000001"/>
                                <Node>
                                    <SimplePredicate field="displacement" operator="lessThan" value="113.50000000000001"/>
                                    <Node score="0.14305054277181625">
                                        <SimplePredicate field="weight" operator="lessThan" value="2121.5000000000005"/>
                                    </Node>
                                    <Node score="0.03361324739332001">
                                        <SimplePredicate field="weight" operator="greaterOrEqual" value="2121.5000000000005"/>
                                    </Node>
                                </Node>
                                <Node>
                                    <SimplePredicate field="displacement" operator="greaterOrEqual" value="113.50000000000001"/>
                                    <Node score="-0.04476635115077862">
                                        <SimplePredicate field="weight" operator="lessThan" value="2670.5000000000005"/>
                                    </Node>
                                    <Node score="-0.0901206323504448">
                                        <SimplePredicate field="weight" operator="greaterOrEqual" value="2670.5000000000005"/>
                                    </Node>
                                </Node>
                            </Node>
                            <Node>
                                <SimplePredicate field="model year" operator="greaterOrEqual" value="75.50000000000001"/>
                                <Node>
                                    <SimplePredicate field="weight" operator="lessThan" value="2379.5000000000005"/>
                                    <Node score="0.2013438007726922">
                                        <SimplePredicate field="model year" operator="lessThan" value="79.50000000000001"/>
