<?xml version="1.0" encoding="UTF-8"?>
<PMML xmlns="http://www.dmg.org/PMML-4_3" version="4.4">
    <Header copyright="Copyright (c) 2019 Software AG" description="Default Description">
        <Application name="Nyoka" version="3.0.9rc1"/>
        <Timestamp>2019-07-05 12:14:07.347017</Timestamp>
    </Header>
    <MiningBuildTask>
        <Extension name="preprocessingPipeline" value="Pipeline(memory=None,
    steps=[('mapper',DataFrameMapper(default=False,df_out=False,
	features=[('car name', CountVectorizer(analyzer='word', binary=False, decode_error='strict',
        dtype=&lt;class 'numpy.int64'&gt;, encoding='utf-8', input='content',
        lowercase=True, max_df=1.0, max_features=None, min_df=1,
        ngram_range=(1, 1), preprocessor=None, stop_words=None,
        strip_accents=None, token_pattern='(?u)\\b\\w\\w+\\b',
        tokenizer=None, vocabulary=None)),(['displacement'], [StandardScaler(copy=True, with_mean=True, with_std=True)])],
	input_df=False,sparse=False)),])" for="model1"/>
        <Extension name="modelObject" value="LGBMRegressor(boosting_type='gbdt', class_weight=None, colsample_bytree=1.0,
       importance_type='split', learning_rate=0.1, max_depth=-1,
       min_child_samples=20, min_child_weight=0.001, min_split_gain=0.0,
       n_estimators=100, n_jobs=-1, num_leaves=31, objective=None,
       random_state=None, reg_alpha=0.0, reg_lambda=0.0, silent=True,
       subsample=1.0, subsample_for_bin=200000, subsample_freq=0)" for="model1"/>
    </MiningBuildTask>
    <DataDictionary numberOfFields="9">
        <DataField name="car name" optype="categorical" dataType="string"/>
        <DataField name="cylinders" optype="continuous" dataType="double"/>
        <DataField name="displacement" optype="continuous" dataType="double"/>
        <DataField name="horsepower" optype="continuous" dataType="double"/>
        <DataField name="weight" optype="continuous" dataType="double"/>
        <DataField name="acceleration" optype="continuous" dataType="double"/>
        <DataField name="model year" optype="continuous" dataType="double"/>
        <DataField name="origin" optype="continuous" dataType="double"/>
        <DataField name="mpg" optype="continuous" dataType="double"/>
    </DataDictionary>
    <TransformationDictionary for="model1">
        <DerivedField name="lowercase(car name)" optype="categorical" dataType="string">
            <Apply function="lowercase">
                <FieldRef field="car name"/>
            </Apply>
        </DerivedField>
        <DerivedField name="count_vec@[car name](10)" optype="continuous" dataType="double">
            <TextIndex textField="lowercase(car name)" wordSeparatorCharacterRE="(?u)\b\w\w+\b">
                <Constant dataType="string">10</Constant>
            </TextIndex>
        </DerivedField>
        <DerivedField name="count_vec@[car name](100)" optype="continuous" dataType="double">
            <TextIndex textField="lowercase(car name)" wordSeparatorCharacterRE="(?u)\b\w\w+\b">
                <Constant dataType="string">100</Constant>
            </TextIndex>
        </DerivedField>
        <DerivedField name="count_vec@[car name](100ls)" optype="continuous" dataType="double">
            <TextIndex textField="lowercase(car name)" wordSeparatorCharacterRE="(?u)\b\w\w+\b">
                <Constant dataType="string">100ls</Constant>
            </TextIndex>
        </DerivedField>
        <DerivedField name="count_vec@[car name](111)" optype="continuous" dataType="double">
            <TextIndex textField="lowercase(car name)" wordSeparatorCharacterRE="(?u)\b\w\w+\b">
                <Constant dataType="string">111</Constant>
            </TextIndex>
        </DerivedField>
        <DerivedField name="count_vec@[car name](12)" optype="continuous" dataType="double">
            <TextIndex textField="lowercase(car name)" wordSeparatorCharacterRE="(?u)\b\w\w+\b">
                <Constant dataType="string">12</Constant>
            </TextIndex>
        </DerivedField>
        <DerivedField name="count_vec@[car name](1200)" optype="continuous" dataType="double">
            <TextIndex textField="lowercase(car name)" wordSeparatorCharacterRE="(?u)\b\w\w+\b">
                <Constant dataType="string">1200</Constant>
            </TextIndex>
        </DerivedField>
        <DerivedField name="count_vec@[car name](1200d)" optype="continuous" dataType="double">
            <TextIndex textField="lowercase(car name)" wordSeparatorCharacterRE="(?u)\b\w\w+\b">
                <Constant dataType="string">1200d</Constant>
            </TextIndex>
        </DerivedField>
        <DerivedField name="count_vec@[car name](124)" optype="continuous" dataType="double">
            <TextIndex textField="lowercase(car name)" wordSeparatorCharacterRE="(?u)\b\w\w+\b">
                <Constant dataType="string">124</Constant>
            </TextIndex>
        </DerivedField>
        <DerivedField name="count_vec@[car name](124b)" optype="continuous" dataType="double">
            <TextIndex textField="lowercase(car name)" wordSeparatorCharacterRE="(?u)\b\w\w+\b">
                <Constant dataType="string">124b</Constant>
            </TextIndex>
        </DerivedField>
        <DerivedField name="count_vec@[car name](128)" optype="continuous" dataType="double">
            <TextIndex textField="lowercase(car name)" wordSeparatorCharacterRE="(?u)\b\w\w+\b">
                <Constant dataType="string">128</Constant>
            </TextIndex>
        </DerivedField>
        <DerivedField name="count_vec@[car name](1300)" optype="continuous" dataType="double">
            <TextIndex textField="lowercase(car name)" wordSeparatorCharacterRE="(?u)\b\w\w+\b">
                <Constant dataType="string">1300</Constant>
            </TextIndex>
        </DerivedField>
        <DerivedField name="count_vec@[car name](131)" optype="continuous" dataType="double">
            <TextIndex textField="lowercase(car name)" wordSeparatorCharacterRE="(?u)\b\w\w+\b">
                <Constant dataType="string">131</Constant>
            </TextIndex>
        </DerivedField>
        <DerivedField name="count_vec@[car name](144ea)" optype="continuous" dataType="double">
            <TextIndex textField="lowercase(car name)" wordSeparatorCharacterRE="(?u)\b\w\w+\b">
                <Constant dataType="string">144ea</Constant>
            </TextIndex>
        </DerivedField>
        <DerivedField name="count_vec@[car name](145e)" optype="continuous" dataType="double">
            <TextIndex textField="lowercase(car name)" wordSeparatorCharacterRE="(?u)\b\w\w+\b">
                <Constant dataType="string">145e</Constant>
            </TextIndex>
        </DerivedField>
        <DerivedField name="count_vec@[car name](1500)" optype="continuous" dataType="double">
            <TextIndex textField="lowercase(car name)" wordSeparatorCharacterRE="(?u)\b\w\w+\b">
                <Constant dataType="string">1500</Constant>
            </TextIndex>
        </DerivedField>
        <DerivedField name="count_vec@[car name](1600)" optype="continuous" dataType="double">
            <TextIndex textField="lowercase(car name)" wordSeparatorCharacterRE="(?u)\b\w\w+\b">
                <Constant dataType="string">1600</Constant>
            </TextIndex>
        </DerivedField>
        <DerivedField name="count_vec@[car name](18i)" optype="continuous" dataType="double">
            <TextIndex textField="lowercase(car name)" wordSeparatorCharacterRE="(?u)\b\w\w+\b">
                <Constant dataType="string">18i</Constant>
            </TextIndex>
        </DerivedField>
        <DerivedField name="count_vec@[car name](1900)" optype="continuous" dataType="double">
            <TextIndex textField="lowercase(car name)" wordSeparatorCharacterRE="(?u)\b\w\w+\b">
                <Constant dataType="string">1900</Constant>
            </TextIndex>
        </DerivedField>
        <DerivedField name="count_vec@[car name](200)" optype="continuous" dataType="double">
            <TextIndex textField="lowercase(car name)" wordSeparatorCharacterRE="(?u)\b\w\w+\b">
                <Constant dataType="string">200</Constant>
            </TextIndex>
        </DerivedField>
        <DerivedField name="count_vec@[car name](2000)" optype="continuous" dataType="double">
            <TextIndex textField="lowercase(car name)" wordSeparatorCharacterRE="(?u)\b\w\w+\b">
                <Constant dataType="string">2000</Constant>
            </TextIndex>
        </DerivedField>
        <DerivedField name="count_vec@[car name](2002)" optype="continuous" dataType="double">
            <TextIndex textField="lowercase(car name)" wordSeparatorCharacterRE="(?u)\b\w\w+\b">
                <Constant dataType="string">2002</Constant>
            </TextIndex>
        </DerivedField>
        <DerivedField name="count_vec@[car name](210)" optype="continuous" dataType="double">
            <TextIndex textField="lowercase(car name)" wordSeparatorCharacterRE="(?u)\b\w\w+\b">
                <Constant dataType="string">210</Constant>
            </TextIndex>
        </DerivedField>
        <DerivedField name="count_vec@[car name](2300)" optype="continuous" dataType="double">
            <TextIndex textField="lowercase(car name)" wordSeparatorCharacterRE="(?u)\b\w\w+\b">
                <Constant dataType="string">2300</Constant>
            </TextIndex>
        </DerivedField>
        <DerivedField name="count_vec@[car name](240d)" optype="continuous" dataType="double">
            <TextIndex textField="lowercase(car name)" wordSeparatorCharacterRE="(?u)\b\w\w+\b">
                <Constant dataType="string">240d</Constant>
            </TextIndex>
        </DerivedField>
        <DerivedField name="count_vec@[car name](244dl)" optype="continuous" dataType="double">
            <TextIndex textField="lowercase(car name)" wordSeparatorCharacterRE="(?u)\b\w\w+\b">
                <Constant dataType="string">244dl</Constant>
            </TextIndex>
        </DerivedField>
        <DerivedField name="count_vec@[car name](245)" optype="continuous" dataType="double">
            <TextIndex textField="lowercase(car name)" wordSeparatorCharacterRE="(?u)\b\w\w+\b">
                <Constant dataType="string">245</Constant>
            </TextIndex>
        </DerivedField>
        <DerivedField name="count_vec@[car name](264gl)" optype="continuous" dataType="double">
            <TextIndex textField="lowercase(car name)" wordSeparatorCharacterRE="(?u)\b\w\w+\b">
                <Constant dataType="string">264gl</Constant>
            </TextIndex>
        </DerivedField>
        <DerivedField name="count_vec@[car name](280)" optype="continuous" dataType="double">
            <TextIndex textField="lowercase(car name)" wordSeparatorCharacterRE="(?u)\b\w\w+\b">
                <Constant dataType="string">280</Constant>
            </TextIndex>
        </DerivedField>
        <DerivedField name="count_vec@[car name](2h)" optype="continuous" dataType="double">
            <TextIndex textField="lowercase(car name)" wordSeparatorCharacterRE="(?u)\b\w\w+\b">
                <Constant dataType="string">2h</Constant>
            </TextIndex>
        </DerivedField>
        <DerivedField name="count_vec@[car name](300d)" optype="continuous" dataType="double">
            <TextIndex textField="lowercase(car name)" wordSeparatorCharacterRE="(?u)\b\w\w+\b">
                <Constant dataType="string">300d</Constant>
            </TextIndex>
        </DerivedField>
        <DerivedField name="count_vec@[car name](320)" optype="continuous" dataType="double">
            <TextIndex textField="lowercase(car name)" wordSeparatorCharacterRE="(?u)\b\w\w+\b">
                <Constant dataType="string">320</Constant>
            </TextIndex>
        </DerivedField>
        <DerivedField name="count_vec@[car name](340)" optype="continuous" dataType="double">
            <TextIndex textField="lowercase(car name)" wordSeparatorCharacterRE="(?u)\b\w\w+\b">
                <Constant dataType="string">340</Constant>
            </TextIndex>
        </DerivedField>
        <DerivedField name="count_vec@[car name](350)" optype="continuous" dataType="double">
            <TextIndex textField="lowercase(car name)" wordSeparatorCharacterRE="(?u)\b\w\w+\b">
                <Constant dataType="string">350</Constant>
            </TextIndex>
        </DerivedField>
        <DerivedField name="count_vec@[car name](4000)" optype="continuous" dataType="double">
            <TextIndex textField="lowercase(car name)" wordSeparatorCharacterRE="(?u)\b\w\w+\b">
                <Constant dataType="string">4000</Constant>
            </TextIndex>
        </DerivedField>
        <DerivedField name="count_vec@[car name](411)" optype="continuous" dataType="double">
            <TextIndex textField="lowercase(car name)" wordSeparatorCharacterRE="(?u)\b\w\w+\b">
                <Constant dataType="string">411</Constant>
            </TextIndex>
        </DerivedField>
        <DerivedField name="count_vec@[car name](4w)" optype="continuous" dataType="double">
            <TextIndex textField="lowercase(car name)" wordSeparatorCharacterRE="(?u)\b\w\w+\b">
                <Constant dataType="string">4w</Constant>
            </TextIndex>
        </DerivedField>
        <DerivedField name="count_vec@[car name](500)" optype="continuous" dataType="double">
            <TextIndex textField="lowercase(car name)" wordSeparatorCharacterRE="(?u)\b\w\w+\b">
                <Constant dataType="string">500</Constant>
            </TextIndex>
        </DerivedField>
        <DerivedField name="count_vec@[car name](5000)" optype="continuous" dataType="double">
            <TextIndex textField="lowercase(car name)" wordSeparatorCharacterRE="(?u)\b\w\w+\b">
                <Constant dataType="string">5000</Constant>
            </TextIndex>
        </DerivedField>
        <DerivedField name="count_vec@[car name](5000s)" optype="continuous" dataType="double">
            <TextIndex textField="lowercase(car name)" wordSeparatorCharacterRE="(?u)\b\w\w+\b">
                <Constant dataType="string">5000s</Constant>
            </TextIndex>
        </DerivedField>
        <DerivedField name="count_vec@[car name](504)" optype="continuous" dataType="double">
            <TextIndex textField="lowercase(car name)" wordSeparatorCharacterRE="(?u)\b\w\w+\b">
                <Constant dataType="string">504</Constant>
            </TextIndex>
        </DerivedField>
        <DerivedField name="count_vec@[car name](505s)" optype="continuous" dataType="double">
            <TextIndex textField="lowercase(car name)" wordSeparatorCharacterRE="(?u)\b\w\w+\b">
                <Constant dataType="string">505s</Constant>
            </TextIndex>
        </DerivedField>
        <DerivedField name="count_vec@[car name](604sl)" optype="continuous" dataType="double">
            <TextIndex textField="lowercase(car name)" wordSeparatorCharacterRE="(?u)\b\w\w+\b">
                <Constant dataType="string">604sl</Constant>
            </TextIndex>
        </DerivedField>
        <DerivedField name="count_vec@[car name](610)" optype="continuous" dataType="double">
            <TextIndex textField="lowercase(car name)" wordSeparatorCharacterRE="(?u)\b\w\w+\b">
                <Constant dataType="string">610</Constant>
            </TextIndex>
        </DerivedField>
        <DerivedField name="count_vec@[car name](626)" optype="continuous" dataType="double">
            <TextIndex textField="lowercase(car name)" wordSeparatorCharacterRE="(?u)\b\w\w+\b">
                <Constant dataType="string">626</Constant>
            </TextIndex>
        </DerivedField>
        <DerivedField name="count_vec@[car name](710)" optype="continuous" dataType="double">
            <TextIndex textField="lowercase(car name)" wordSeparatorCharacterRE="(?u)\b\w\w+\b">
                <Constant dataType="string">710</Constant>
            </TextIndex>
        </DerivedField>
        <DerivedField name="count_vec@[car name](810)" optype="continuous" dataType="double">
            <TextIndex textField="lowercase(car name)" wordSeparatorCharacterRE="(?u)\b\w\w+\b">
                <Constant dataType="string">810</Constant>
            </TextIndex>
        </DerivedField>
        <DerivedField name="count_vec@[car name](99e)" optype="continuous" dataType="double">
            <TextIndex textField="lowercase(car name)" wordSeparatorCharacterRE="(?u)\b\w\w+\b">
                <Constant dataType="string">99e</Constant>
            </TextIndex>
        </DerivedField>
        <DerivedField name="count_vec@[car name](99gle)" optype="continuous" dataType="double">
            <TextIndex textField="lowercase(car name)" wordSeparatorCharacterRE="(?u)\b\w\w+\b">
                <Constant dataType="string">99gle</Constant>
            </TextIndex>
        </DerivedField>
        <DerivedField name="count_vec@[car name](99le)" optype="continuous" dataType="double">
            <TextIndex textField="lowercase(car name)" wordSeparatorCharacterRE="(?u)\b\w\w+\b">
                <Constant dataType="string">99le</Constant>
            </TextIndex>
        </DerivedField>
        <DerivedField name="count_vec@[car name](accord)" optype="continuous" dataType="double">
            <TextIndex textField="lowercase(car name)" wordSeparatorCharacterRE="(?u)\b\w\w+\b">
                <Constant dataType="string">accord</Constant>
            </TextIndex>
        </DerivedField>
        <DerivedField name="count_vec@[car name](ambassador)" optype="continuous" dataType="double">
            <TextIndex textField="lowercase(car name)" wordSeparatorCharacterRE="(?u)\b\w\w+\b">
                <Constant dataType="string">ambassador</Constant>
            </TextIndex>
        </DerivedField>
        <DerivedField name="count_vec@[car name](amc)" optype="continuous" dataType="double">
            <TextIndex textField="lowercase(car name)" wordSeparatorCharacterRE="(?u)\b\w\w+\b">
                <Constant dataType="string">amc</Constant>
            </TextIndex>
        </DerivedField>
        <DerivedField name="count_vec@[car name](aries)" optype="continuous" dataType="double">
            <TextIndex textField="lowercase(car name)" wordSeparatorCharacterRE="(?u)\b\w\w+\b">
                <Constant dataType="string">aries</Constant>
            </TextIndex>
        </DerivedField>
        <DerivedField name="count_vec@[car name](arrow)" optype="continuous" dataType="double">
            <TextIndex textField="lowercase(car name)" wordSeparatorCharacterRE="(?u)\b\w\w+\b">
                <Constant dataType="string">arrow</Constant>
            </TextIndex>
        </DerivedField>
        <DerivedField name="count_vec@[car name](aspen)" optype="continuous" dataType="double">
            <TextIndex textField="lowercase(car name)" wordSeparatorCharacterRE="(?u)\b\w\w+\b">
                <Constant dataType="string">aspen</Constant>
            </TextIndex>
        </DerivedField>
        <DerivedField name="count_vec@[car name](audi)" optype="continuous" dataType="double">
            <TextIndex textField="lowercase(car name)" wordSeparatorCharacterRE="(?u)\b\w\w+\b">
                <Constant dataType="string">audi</Constant>
            </TextIndex>
        </DerivedField>
        <DerivedField name="count_vec@[car name](auto)" optype="continuous" dataType="double">
            <TextIndex textField="lowercase(car name)" wordSeparatorCharacterRE="(?u)\b\w\w+\b">
                <Constant dataType="string">auto</Constant>
            </TextIndex>
        </DerivedField>
        <DerivedField name="count_vec@[car name](b210)" optype="continuous" dataType="double">
            <TextIndex textField="lowercase(car name)" wordSeparatorCharacterRE="(?u)\b\w\w+\b">
                <Constant dataType="string">b210</Constant>
            </TextIndex>
        </DerivedField>
        <DerivedField name="count_vec@[car name](beetle)" optype="continuous" dataType="double">
            <TextIndex textField="lowercase(car name)" wordSeparatorCharacterRE="(?u)\b\w\w+\b">
                <Constant dataType="string">beetle</Constant>
            </TextIndex>
        </DerivedField>
        <DerivedField name="count_vec@[car name](benz)" optype="continuous" dataType="double">
            <TextIndex textField="lowercase(car name)" wordSeparatorCharacterRE="(?u)\b\w\w+\b">
                <Constant dataType="string">benz</Constant>
            </TextIndex>
        </DerivedField>
        <DerivedField name="count_vec@[car name](bmw)" optype="continuous" dataType="double">
            <TextIndex textField="lowercase(car name)" wordSeparatorCharacterRE="(?u)\b\w\w+\b">
                <Constant dataType="string">bmw</Constant>
            </TextIndex>
        </DerivedField>
        <DerivedField name="count_vec@[car name](brougham)" optype="continuous" dataType="double">
            <TextIndex textField="lowercase(car name)" wordSeparatorCharacterRE="(?u)\b\w\w+\b">
                <Constant dataType="string">brougham</Constant>
            </TextIndex>
        </DerivedField>
        <DerivedField name="count_vec@[car name](buick)" optype="continuous" dataType="double">
            <TextIndex textField="lowercase(car name)" wordSeparatorCharacterRE="(?u)\b\w\w+\b">
                <Constant dataType="string">buick</Constant>
            </TextIndex>
        </DerivedField>
        <DerivedField name="count_vec@[car name](c10)" optype="continuous" dataType="double">
            <TextIndex textField="lowercase(car name)" wordSeparatorCharacterRE="(?u)\b\w\w+\b">
                <Constant dataType="string">c10</Constant>
            </TextIndex>
        </DerivedField>
        <DerivedField name="count_vec@[car name](c20)" optype="continuous" dataType="double">
            <TextIndex textField="lowercase(car name)" wordSeparatorCharacterRE="(?u)\b\w\w+\b">
                <Constant dataType="string">c20</Constant>
            </TextIndex>
        </DerivedField>
        <DerivedField name="count_vec@[car name](cadillac)" optype="continuous" dataType="double">
            <TextIndex textField="lowercase(car name)" wordSeparatorCharacterRE="(?u)\b\w\w+\b">
                <Constant dataType="string">cadillac</Constant>
            </TextIndex>
        </DerivedField>
        <DerivedField name="count_vec@[car name](camaro)" optype="continuous" dataType="double">
            <TextIndex textField="lowercase(car name)" wordSeparatorCharacterRE="(?u)\b\w\w+\b">
                <Constant dataType="string">camaro</Constant>
            </TextIndex>
        </DerivedField>
        <DerivedField name="count_vec@[car name](capri)" optype="continuous" dataType="double">
            <TextIndex textField="lowercase(car name)" wordSeparatorCharacterRE="(?u)\b\w\w+\b">
                <Constant dataType="string">capri</Constant>
            </TextIndex>
        </DerivedField>
        <DerivedField name="count_vec@[car name](caprice)" optype="continuous" dataType="double">
            <TextIndex textField="lowercase(car name)" wordSeparatorCharacterRE="(?u)\b\w\w+\b">
                <Constant dataType="string">caprice</Constant>
            </TextIndex>
        </DerivedField>
        <DerivedField name="count_vec@[car name](carina)" optype="continuous" dataType="double">
            <TextIndex textField="lowercase(car name)" wordSeparatorCharacterRE="(?u)\b\w\w+\b">
                <Constant dataType="string">carina</Constant>
            </TextIndex>
        </DerivedField>
        <DerivedField name="count_vec@[car name](carlo)" optype="continuous" dataType="double">
            <TextIndex textField="lowercase(car name)" wordSeparatorCharacterRE="(?u)\b\w\w+\b">
                <Constant dataType="string">carlo</Constant>
            </TextIndex>
        </DerivedField>
        <DerivedField name="count_vec@[car name](catalina)" optype="continuous" dataType="double">
            <TextIndex textField="lowercase(car name)" wordSeparatorCharacterRE="(?u)\b\w\w+\b">
                <Constant dataType="string">catalina</Constant>
            </TextIndex>
        </DerivedField>
        <DerivedField name="count_vec@[car name](cavalier)" optype="continuous" dataType="double">
            <TextIndex textField="lowercase(car name)" wordSeparatorCharacterRE="(?u)\b\w\w+\b">
                <Constant dataType="string">cavalier</Constant>
            </TextIndex>
        </DerivedField>
        <DerivedField name="count_vec@[car name](celica)" optype="continuous" dataType="double">
            <TextIndex textField="lowercase(car name)" wordSeparatorCharacterRE="(?u)\b\w\w+\b">
                <Constant dataType="string">celica</Constant>
            </TextIndex>
        </DerivedField>
        <DerivedField name="count_vec@[car name](century)" optype="continuous" dataType="double">
            <TextIndex textField="lowercase(car name)" wordSeparatorCharacterRE="(?u)\b\w\w+\b">
                <Constant dataType="string">century</Constant>
            </TextIndex>
        </DerivedField>
        <DerivedField name="count_vec@[car name](challenger)" optype="continuous" dataType="double">
            <TextIndex textField="lowercase(car name)" wordSeparatorCharacterRE="(?u)\b\w\w+\b">
                <Constant dataType="string">challenger</Constant>
            </TextIndex>
        </DerivedField>
        <DerivedField name="count_vec@[car name](champ)" optype="continuous" dataType="double">
            <TextIndex textField="lowercase(car name)" wordSeparatorCharacterRE="(?u)\b\w\w+\b">
                <Constant dataType="string">champ</Constant>
            </TextIndex>
        </DerivedField>
        <DerivedField name="count_vec@[car name](charger)" optype="continuous" dataType="double">
            <TextIndex textField="lowercase(car name)" wordSeparatorCharacterRE="(?u)\b\w\w+\b">
                <Constant dataType="string">charger</Constant>
            </TextIndex>
        </DerivedField>
        <DerivedField name="count_vec@[car name](chevelle)" optype="continuous" dataType="double">
            <TextIndex textField="lowercase(car name)" wordSeparatorCharacterRE="(?u)\b\w\w+\b">
                <Constant dataType="string">chevelle</Constant>
            </TextIndex>
        </DerivedField>
        <DerivedField name="count_vec@[car name](chevette)" optype="continuous" dataType="double">
            <TextIndex textField="lowercase(car name)" wordSeparatorCharacterRE="(?u)\b\w\w+\b">
                <Constant dataType="string">chevette</Constant>
            </TextIndex>
        </DerivedField>
        <DerivedField name="count_vec@[car name](chevroelt)" optype="continuous" dataType="double">
            <TextIndex textField="lowercase(car name)" wordSeparatorCharacterRE="(?u)\b\w\w+\b">
                <Constant dataType="string">chevroelt</Constant>
            </TextIndex>
        </DerivedField>
        <DerivedField name="count_vec@[car name](chevrolet)" optype="continuous" dataType="double">
            <TextIndex textField="lowercase(car name)" wordSeparatorCharacterRE="(?u)\b\w\w+\b">
                <Constant dataType="string">chevrolet</Constant>
            </TextIndex>
        </DerivedField>
        <DerivedField name="count_vec@[car name](chevy)" optype="continuous" dataType="double">
            <TextIndex textField="lowercase(car name)" wordSeparatorCharacterRE="(?u)\b\w\w+\b">
                <Constant dataType="string">chevy</Constant>
            </TextIndex>
        </DerivedField>
        <DerivedField name="count_vec@[car name](chrysler)" optype="continuous" dataType="double">
            <TextIndex textField="lowercase(car name)" wordSeparatorCharacterRE="(?u)\b\w\w+\b">
                <Constant dataType="string">chrysler</Constant>
            </TextIndex>
        </DerivedField>
        <DerivedField name="count_vec@[car name](ciera)" optype="continuous" dataType="double">
            <TextIndex textField="lowercase(car name)" wordSeparatorCharacterRE="(?u)\b\w\w+\b">
                <Constant dataType="string">ciera</Constant>
            </TextIndex>
        </DerivedField>
        <DerivedField name="count_vec@[car name](citation)" optype="continuous" dataType="double">
            <TextIndex textField="lowercase(car name)" wordSeparatorCharacterRE="(?u)\b\w\w+\b">
                <Constant dataType="string">citation</Constant>
            </TextIndex>
        </DerivedField>
        <DerivedField name="count_vec@[car name](civic)" optype="continuous" dataType="double">
            <TextIndex textField="lowercase(car name)" wordSeparatorCharacterRE="(?u)\b\w\w+\b">
                <Constant dataType="string">civic</Constant>
            </TextIndex>
        </DerivedField>
        <DerivedField name="count_vec@[car name](classic)" optype="continuous" dataType="double">
            <TextIndex textField="lowercase(car name)" wordSeparatorCharacterRE="(?u)\b\w\w+\b">
                <Constant dataType="string">classic</Constant>
            </TextIndex>
        </DerivedField>
        <DerivedField name="count_vec@[car name](cobra)" optype="continuous" dataType="double">
            <TextIndex textField="lowercase(car name)" wordSeparatorCharacterRE="(?u)\b\w\w+\b">
                <Constant dataType="string">cobra</Constant>
            </TextIndex>
        </DerivedField>
        <DerivedField name="count_vec@[car name](colt)" optype="continuous" dataType="double">
            <TextIndex textField="lowercase(car name)" wordSeparatorCharacterRE="(?u)\b\w\w+\b">
                <Constant dataType="string">colt</Constant>
            </TextIndex>
        </DerivedField>
        <DerivedField name="count_vec@[car name](concord)" optype="continuous" dataType="double">
            <TextIndex textField="lowercase(car name)" wordSeparatorCharacterRE="(?u)\b\w\w+\b">
                <Constant dataType="string">concord</Constant>
            </TextIndex>
        </DerivedField>
        <DerivedField name="count_vec@[car name](concours)" optype="continuous" dataType="double">
            <TextIndex textField="lowercase(car name)" wordSeparatorCharacterRE="(?u)\b\w\w+\b">
                <Constant dataType="string">concours</Constant>
            </TextIndex>
        </DerivedField>
        <DerivedField name="count_vec@[car name](corolla)" optype="continuous" dataType="double">
            <TextIndex textField="lowercase(car name)" wordSeparatorCharacterRE="(?u)\b\w\w+\b">
                <Constant dataType="string">corolla</Constant>
            </TextIndex>
        </DerivedField>
        <DerivedField name="count_vec@[car name](corona)" optype="continuous" dataType="double">
            <TextIndex textField="lowercase(car name)" wordSeparatorCharacterRE="(?u)\b\w\w+\b">
                <Constant dataType="string">corona</Constant>
            </TextIndex>
        </DerivedField>
        <DerivedField name="count_vec@[car name](country)" optype="continuous" dataType="double">
            <TextIndex textField="lowercase(car name)" wordSeparatorCharacterRE="(?u)\b\w\w+\b">
                <Constant dataType="string">country</Constant>
            </TextIndex>
        </DerivedField>
        <DerivedField name="count_vec@[car name](coupe)" optype="continuous" dataType="double">
            <TextIndex textField="lowercase(car name)" wordSeparatorCharacterRE="(?u)\b\w\w+\b">
                <Constant dataType="string">coupe</Constant>
            </TextIndex>
        </DerivedField>
        <DerivedField name="count_vec@[car name](cuda)" optype="continuous" dataType="double">
            <TextIndex textField="lowercase(car name)" wordSeparatorCharacterRE="(?u)\b\w\w+\b">
                <Constant dataType="string">cuda</Constant>
            </TextIndex>
        </DerivedField>
        <DerivedField name="count_vec@[car name](custom)" optype="continuous" dataType="double">
            <TextIndex textField="lowercase(car name)" wordSeparatorCharacterRE="(?u)\b\w\w+\b">
                <Constant dataType="string">custom</Constant>
            </TextIndex>
        </DerivedField>
        <DerivedField name="count_vec@[car name](cutlass)" optype="continuous" dataType="double">
            <TextIndex textField="lowercase(car name)" wordSeparatorCharacterRE="(?u)\b\w\w+\b">
                <Constant dataType="string">cutlass</Constant>
            </TextIndex>
        </DerivedField>
        <DerivedField name="count_vec@[car name](cvcc)" optype="continuous" dataType="double">
            <TextIndex textField="lowercase(car name)" wordSeparatorCharacterRE="(?u)\b\w\w+\b">
                <Constant dataType="string">cvcc</Constant>
            </TextIndex>
        </DerivedField>
        <DerivedField name="count_vec@[car name](d200)" optype="continuous" dataType="double">
            <TextIndex textField="lowercase(car name)" wordSeparatorCharacterRE="(?u)\b\w\w+\b">
                <Constant dataType="string">d200</Constant>
            </TextIndex>
        </DerivedField>
        <DerivedField name="count_vec@[car name](dart)" optype="continuous" dataType="double">
            <TextIndex textField="lowercase(car name)" wordSeparatorCharacterRE="(?u)\b\w\w+\b">
                <Constant dataType="string">dart</Constant>
            </TextIndex>
        </DerivedField>
        <DerivedField name="count_vec@[car name](dasher)" optype="continuous" dataType="double">
            <TextIndex textField="lowercase(car name)" wordSeparatorCharacterRE="(?u)\b\w\w+\b">
                <Constant dataType="string">dasher</Constant>
            </TextIndex>
        </DerivedField>
        <DerivedField name="count_vec@[car name](datsun)" optype="continuous" dataType="double">
            <TextIndex textField="lowercase(car name)" wordSeparatorCharacterRE="(?u)\b\w\w+\b">
                <Constant dataType="string">datsun</Constant>
            </TextIndex>
        </DerivedField>
        <DerivedField name="count_vec@[car name](deluxe)" optype="continuous" dataType="double">
            <TextIndex textField="lowercase(car name)" wordSeparatorCharacterRE="(?u)\b\w\w+\b">
                <Constant dataType="string">deluxe</Constant>
            </TextIndex>
        </DerivedField>
        <DerivedField name="count_vec@[car name](diesel)" optype="continuous" dataType="double">
            <TextIndex textField="lowercase(car name)" wordSeparatorCharacterRE="(?u)\b\w\w+\b">
                <Constant dataType="string">diesel</Constant>
            </TextIndex>
        </DerivedField>
        <DerivedField name="count_vec@[car name](diplomat)" optype="continuous" dataType="double">
            <TextIndex textField="lowercase(car name)" wordSeparatorCharacterRE="(?u)\b\w\w+\b">
                <Constant dataType="string">diplomat</Constant>
            </TextIndex>
        </DerivedField>
        <DerivedField name="count_vec@[car name](dl)" optype="continuous" dataType="double">
            <TextIndex textField="lowercase(car name)" wordSeparatorCharacterRE="(?u)\b\w\w+\b">
                <Constant dataType="string">dl</Constant>
            </TextIndex>
        </DerivedField>
        <DerivedField name="count_vec@[car name](dodge)" optype="continuous" dataType="double">
            <TextIndex textField="lowercase(car name)" wordSeparatorCharacterRE="(?u)\b\w\w+\b">
                <Constant dataType="string">dodge</Constant>
            </TextIndex>
        </DerivedField>
        <DerivedField name="count_vec@[car name](door)" optype="continuous" dataType="double">
            <TextIndex textField="lowercase(car name)" wordSeparatorCharacterRE="(?u)\b\w\w+\b">
                <Constant dataType="string">door</Constant>
            </TextIndex>
        </DerivedField>
        <DerivedField name="count_vec@[car name](duster)" optype="continuous" dataType="double">
            <TextIndex textField="lowercase(car name)" wordSeparatorCharacterRE="(?u)\b\w\w+\b">
                <Constant dataType="string">duster</Constant>
            </TextIndex>
        </DerivedField>
        <DerivedField name="count_vec@[car name](escort)" optype="continuous" dataType="double">
            <TextIndex textField="lowercase(car name)" wordSeparatorCharacterRE="(?u)\b\w\w+\b">
                <Constant dataType="string">escort</Constant>
            </TextIndex>
        </DerivedField>
        <DerivedField name="count_vec@[car name](f108)" optype="continuous" dataType="double">
            <TextIndex textField="lowercase(car name)" wordSeparatorCharacterRE="(?u)\b\w\w+\b">
                <Constant dataType="string">f108</Constant>
            </TextIndex>
        </DerivedField>
        <DerivedField name="count_vec@[car name](f250)" optype="continuous" dataType="double">
            <TextIndex textField="lowercase(car name)" wordSeparatorCharacterRE="(?u)\b\w\w+\b">
                <Constant dataType="string">f250</Constant>
            </TextIndex>
        </DerivedField>
        <DerivedField name="count_vec@[car name](fairmont)" optype="continuous" dataType="double">
            <TextIndex textField="lowercase(car name)" wordSeparatorCharacterRE="(?u)\b\w\w+\b">
                <Constant dataType="string">fairmont</Constant>
            </TextIndex>
        </DerivedField>
        <DerivedField name="count_vec@[car name](fiat)" optype="continuous" dataType="double">
            <TextIndex textField="lowercase(car name)" wordSeparatorCharacterRE="(?u)\b\w\w+\b">
                <Constant dataType="string">fiat</Constant>
            </TextIndex>
        </DerivedField>
        <DerivedField name="count_vec@[car name](fiesta)" optype="continuous" dataType="double">
            <TextIndex textField="lowercase(car name)" wordSeparatorCharacterRE="(?u)\b\w\w+\b">
                <Constant dataType="string">fiesta</Constant>
            </TextIndex>
        </DerivedField>
        <DerivedField name="count_vec@[car name](firebird)" optype="continuous" dataType="double">
            <TextIndex textField="lowercase(car name)" wordSeparatorCharacterRE="(?u)\b\w\w+\b">
                <Constant dataType="string">firebird</Constant>
            </TextIndex>
        </DerivedField>
        <DerivedField name="count_vec@[car name](ford)" optype="continuous" dataType="double">
            <TextIndex textField="lowercase(car name)" wordSeparatorCharacterRE="(?u)\b\w\w+\b">
                <Constant dataType="string">ford</Constant>
            </TextIndex>
        </DerivedField>
        <DerivedField name="count_vec@[car name](fox)" optype="continuous" dataType="double">
            <TextIndex textField="lowercase(car name)" wordSeparatorCharacterRE="(?u)\b\w\w+\b">
                <Constant dataType="string">fox</Constant>
            </TextIndex>
        </DerivedField>
        <DerivedField name="count_vec@[car name](fury)" optype="continuous" dataType="double">
            <TextIndex textField="lowercase(car name)" wordSeparatorCharacterRE="(?u)\b\w\w+\b">
                <Constant dataType="string">fury</Constant>
            </TextIndex>
        </DerivedField>
        <DerivedField name="count_vec@[car name](futura)" optype="continuous" dataType="double">
            <TextIndex textField="lowercase(car name)" wordSeparatorCharacterRE="(?u)\b\w\w+\b">
                <Constant dataType="string">futura</Constant>
            </TextIndex>
        </DerivedField>
        <DerivedField name="count_vec@[car name](galaxie)" optype="continuous" dataType="double">
            <TextIndex textField="lowercase(car name)" wordSeparatorCharacterRE="(?u)\b\w\w+\b">
                <Constant dataType="string">galaxie</Constant>
            </TextIndex>
        </DerivedField>
        <DerivedField name="count_vec@[car name](ghia)" optype="continuous" dataType="double">
            <TextIndex textField="lowercase(car name)" wordSeparatorCharacterRE="(?u)\b\w\w+\b">
                <Constant dataType="string">ghia</Constant>
            </TextIndex>
        </DerivedField>
        <DerivedField name="count_vec@[car name](gl)" optype="continuous" dataType="double">
            <TextIndex textField="lowercase(car name)" wordSeparatorCharacterRE="(?u)\b\w\w+\b">
                <Constant dataType="string">gl</Constant>
            </TextIndex>
        </DerivedField>
        <DerivedField name="count_vec@[car name](glc)" optype="continuous" dataType="double">
            <TextIndex textField="lowercase(car name)" wordSeparatorCharacterRE="(?u)\b\w\w+\b">
                <Constant dataType="string">glc</Constant>
            </TextIndex>
        </DerivedField>
        <DerivedField name="count_vec@[car name](gran)" optype="continuous" dataType="double">
            <TextIndex textField="lowercase(car name)" wordSeparatorCharacterRE="(?u)\b\w\w+\b">
                <Constant dataType="string">gran</Constant>
            </TextIndex>
        </DerivedField>
        <DerivedField name="count_vec@[car name](granada)" optype="continuous" dataType="double">
            <TextIndex textField="lowercase(car name)" wordSeparatorCharacterRE="(?u)\b\w\w+\b">
                <Constant dataType="string">granada</Constant>
            </TextIndex>
        </DerivedField>
        <DerivedField name="count_vec@[car name](grand)" optype="continuous" dataType="double">
            <TextIndex textField="lowercase(car name)" wordSeparatorCharacterRE="(?u)\b\w\w+\b">
                <Constant dataType="string">grand</Constant>
            </TextIndex>
        </DerivedField>
        <DerivedField name="count_vec@[car name](gremlin)" optype="continuous" dataType="double">
            <TextIndex textField="lowercase(car name)" wordSeparatorCharacterRE="(?u)\b\w\w+\b">
                <Constant dataType="string">gremlin</Constant>
            </TextIndex>
        </DerivedField>
        <DerivedField name="count_vec@[car name](gs)" optype="continuous" dataType="double">
            <TextIndex textField="lowercase(car name)" wordSeparatorCharacterRE="(?u)\b\w\w+\b">
                <Constant dataType="string">gs</Constant>
            </TextIndex>
        </DerivedField>
        <DerivedField name="count_vec@[car name](gt)" optype="continuous" dataType="double">
            <TextIndex textField="lowercase(car name)" wordSeparatorCharacterRE="(?u)\b\w\w+\b">
                <Constant dataType="string">gt</Constant>
            </TextIndex>
        </DerivedField>
        <DerivedField name="count_vec@[car name](gx)" optype="continuous" dataType="double">
            <TextIndex textField="lowercase(car name)" wordSeparatorCharacterRE="(?u)\b\w\w+\b">
                <Constant dataType="string">gx</Constant>
            </TextIndex>
        </DerivedField>
        <DerivedField name="count_vec@[car name](hardtop)" optype="continuous" dataType="double">
            <TextIndex textField="lowercase(car name)" wordSeparatorCharacterRE="(?u)\b\w\w+\b">
                <Constant dataType="string">hardtop</Constant>
            </TextIndex>
        </DerivedField>
        <DerivedField name="count_vec@[car name](hatchback)" optype="continuous" dataType="double">
            <TextIndex textField="lowercase(car name)" wordSeparatorCharacterRE="(?u)\b\w\w+\b">
                <Constant dataType="string">hatchback</Constant>
            </TextIndex>
        </DerivedField>
        <DerivedField name="count_vec@[car name](hi)" optype="continuous" dataType="double">
            <TextIndex textField="lowercase(car name)" wordSeparatorCharacterRE="(?u)\b\w\w+\b">
                <Constant dataType="string">hi</Constant>
            </TextIndex>
        </DerivedField>
        <DerivedField name="count_vec@[car name](honda)" optype="continuous" dataType="double">
            <TextIndex textField="lowercase(car name)" wordSeparatorCharacterRE="(?u)\b\w\w+\b">
                <Constant dataType="string">honda</Constant>
            </TextIndex>
        </DerivedField>
        <DerivedField name="count_vec@[car name](horizon)" optype="continuous" dataType="double">
            <TextIndex textField="lowercase(car name)" wordSeparatorCharacterRE="(?u)\b\w\w+\b">
                <Constant dataType="string">horizon</Constant>
            </TextIndex>
        </DerivedField>
        <DerivedField name="count_vec@[car name](hornet)" optype="continuous" dataType="double">
            <TextIndex textField="lowercase(car name)" wordSeparatorCharacterRE="(?u)\b\w\w+\b">
                <Constant dataType="string">hornet</Constant>
            </TextIndex>
        </DerivedField>
        <DerivedField name="count_vec@[car name](ii)" optype="continuous" dataType="double">
            <TextIndex textField="lowercase(car name)" wordSeparatorCharacterRE="(?u)\b\w\w+\b">
                <Constant dataType="string">ii</Constant>
            </TextIndex>
        </DerivedField>
        <DerivedField name="count_vec@[car name](iii)" optype="continuous" dataType="double">
            <TextIndex textField="lowercase(car name)" wordSeparatorCharacterRE="(?u)\b\w\w+\b">
                <Constant dataType="string">iii</Constant>
            </TextIndex>
        </DerivedField>
        <DerivedField name="count_vec@[car name](impala)" optype="continuous" dataType="double">
            <TextIndex textField="lowercase(car name)" wordSeparatorCharacterRE="(?u)\b\w\w+\b">
                <Constant dataType="string">impala</Constant>
            </TextIndex>
        </DerivedField>
        <DerivedField name="count_vec@[car name](isuzu)" optype="continuous" dataType="double">
            <TextIndex textField="lowercase(car name)" wordSeparatorCharacterRE="(?u)\b\w\w+\b">
                <Constant dataType="string">isuzu</Constant>
            </TextIndex>
        </DerivedField>
        <DerivedField name="count_vec@[car name](j2000)" optype="continuous" dataType="double">
            <TextIndex textField="lowercase(car name)" wordSeparatorCharacterRE="(?u)\b\w\w+\b">
                <Constant dataType="string">j2000</Constant>
            </TextIndex>
        </DerivedField>
        <DerivedField name="count_vec@[car name](jetta)" optype="continuous" dataType="double">
            <TextIndex textField="lowercase(car name)" wordSeparatorCharacterRE="(?u)\b\w\w+\b">
                <Constant dataType="string">jetta</Constant>
            </TextIndex>
        </DerivedField>
        <DerivedField name="count_vec@[car name](landau)" optype="continuous" dataType="double">
            <TextIndex textField="lowercase(car name)" wordSeparatorCharacterRE="(?u)\b\w\w+\b">
                <Constant dataType="string">landau</Constant>
            </TextIndex>
        </DerivedField>
        <DerivedField name="count_vec@[car name](lebaron)" optype="continuous" dataType="double">
            <TextIndex textField="lowercase(car name)" wordSeparatorCharacterRE="(?u)\b\w\w+\b">
                <Constant dataType="string">lebaron</Constant>
            </TextIndex>
        </DerivedField>
        <DerivedField name="count_vec@[car name](lecar)" optype="continuous" dataType="double">
            <TextIndex textField="lowercase(car name)" wordSeparatorCharacterRE="(?u)\b\w\w+\b">
                <Constant dataType="string">lecar</Constant>
            </TextIndex>
        </DerivedField>
        <DerivedField name="count_vec@[car name](lemans)" optype="continuous" dataType="double">
            <TextIndex textField="lowercase(car name)" wordSeparatorCharacterRE="(?u)\b\w\w+\b">
                <Constant dataType="string">lemans</Constant>
            </TextIndex>
        </DerivedField>
        <DerivedField name="count_vec@[car name](lesabre)" optype="continuous" dataType="double">
            <TextIndex textField="lowercase(car name)" wordSeparatorCharacterRE="(?u)\b\w\w+\b">
                <Constant dataType="string">lesabre</Constant>
            </TextIndex>
        </DerivedField>
        <DerivedField name="count_vec@[car name](liftback)" optype="continuous" dataType="double">
            <TextIndex textField="lowercase(car name)" wordSeparatorCharacterRE="(?u)\b\w\w+\b">
                <Constant dataType="string">liftback</Constant>
            </TextIndex>
        </DerivedField>
        <DerivedField name="count_vec@[car name](limited)" optype="continuous" dataType="double">
            <TextIndex textField="lowercase(car name)" wordSeparatorCharacterRE="(?u)\b\w\w+\b">
                <Constant dataType="string">limited</Constant>
            </TextIndex>
        </DerivedField>
        <DerivedField name="count_vec@[car name](lj)" optype="continuous" dataType="double">
            <TextIndex textField="lowercase(car name)" wordSeparatorCharacterRE="(?u)\b\w\w+\b">
                <Constant dataType="string">lj</Constant>
            </TextIndex>
        </DerivedField>
        <DerivedField name="count_vec@[car name](ls)" optype="continuous" dataType="double">
            <TextIndex textField="lowercase(car name)" wordSeparatorCharacterRE="(?u)\b\w\w+\b">
                <Constant dataType="string">ls</Constant>
            </TextIndex>
        </DerivedField>
        <DerivedField name="count_vec@[car name](ltd)" optype="continuous" dataType="double">
            <TextIndex textField="lowercase(car name)" wordSeparatorCharacterRE="(?u)\b\w\w+\b">
                <Constant dataType="string">ltd</Constant>
            </TextIndex>
        </DerivedField>
        <DerivedField name="count_vec@[car name](luxus)" optype="continuous" dataType="double">
            <TextIndex textField="lowercase(car name)" wordSeparatorCharacterRE="(?u)\b\w\w+\b">
                <Constant dataType="string">luxus</Constant>
            </TextIndex>
        </DerivedField>
        <DerivedField name="count_vec@[car name](lx)" optype="continuous" dataType="double">
            <TextIndex textField="lowercase(car name)" wordSeparatorCharacterRE="(?u)\b\w\w+\b">
                <Constant dataType="string">lx</Constant>
            </TextIndex>
        </DerivedField>
        <DerivedField name="count_vec@[car name](malibu)" optype="continuous" dataType="double">
            <TextIndex textField="lowercase(car name)" wordSeparatorCharacterRE="(?u)\b\w\w+\b">
                <Constant dataType="string">malibu</Constant>
            </TextIndex>
        </DerivedField>
        <DerivedField name="count_vec@[car name](mark)" optype="continuous" dataType="double">
            <TextIndex textField="lowercase(car name)" wordSeparatorCharacterRE="(?u)\b\w\w+\b">
                <Constant dataType="string">mark</Constant>
            </TextIndex>
        </DerivedField>
        <DerivedField name="count_vec@[car name](marquis)" optype="continuous" dataType="double">
            <TextIndex textField="lowercase(car name)" wordSeparatorCharacterRE="(?u)\b\w\w+\b">
                <Constant dataType="string">marquis</Constant>
            </TextIndex>
        </DerivedField>
        <DerivedField name="count_vec@[car name](matador)" optype="continuous" dataType="double">
            <TextIndex textField="lowercase(car name)" wordSeparatorCharacterRE="(?u)\b\w\w+\b">
                <Constant dataType="string">matador</Constant>
            </TextIndex>
        </DerivedField>
        <DerivedField name="count_vec@[car name](maverick)" optype="continuous" dataType="double">
            <TextIndex textField="lowercase(car name)" wordSeparatorCharacterRE="(?u)\b\w\w+\b">
                <Constant dataType="string">maverick</Constant>
            </TextIndex>
        </DerivedField>
        <DerivedField name="count_vec@[car name](maxda)" optype="continuous" dataType="double">
            <TextIndex textField="lowercase(car name)" wordSeparatorCharacterRE="(?u)\b\w\w+\b">
                <Constant dataType="string">maxda</Constant>
            </TextIndex>
        </DerivedField>
        <DerivedField name="count_vec@[car name](maxima)" optype="continuous" dataType="double">
            <TextIndex textField="lowercase(car name)" wordSeparatorCharacterRE="(?u)\b\w\w+\b">
                <Constant dataType="string">maxima</Constant>
            </TextIndex>
        </DerivedField>
        <DerivedField name="count_vec@[car name](mazda)" optype="continuous" dataType="double">
            <TextIndex textField="lowercase(car name)" wordSeparatorCharacterRE="(?u)\b\w\w+\b">
                <Constant dataType="string">mazda</Constant>
            </TextIndex>
        </DerivedField>
        <DerivedField name="count_vec@[car name](medallion)" optype="continuous" dataType="double">
            <TextIndex textField="lowercase(car name)" wordSeparatorCharacterRE="(?u)\b\w\w+\b">
                <Constant dataType="string">medallion</Constant>
            </TextIndex>
        </DerivedField>
        <DerivedField name="count_vec@[car name](mercedes)" optype="continuous" dataType="double">
            <TextIndex textField="lowercase(car name)" wordSeparatorCharacterRE="(?u)\b\w\w+\b">
                <Constant dataType="string">mercedes</Constant>
            </TextIndex>
        </DerivedField>
        <DerivedField name="count_vec@[car name](mercury)" optype="continuous" dataType="double">
            <TextIndex textField="lowercase(car name)" wordSeparatorCharacterRE="(?u)\b\w\w+\b">
                <Constant dataType="string">mercury</Constant>
            </TextIndex>
        </DerivedField>
        <DerivedField name="count_vec@[car name](model)" optype="continuous" dataType="double">
            <TextIndex textField="lowercase(car name)" wordSeparatorCharacterRE="(?u)\b\w\w+\b">
                <Constant dataType="string">model</Constant>
            </TextIndex>
        </DerivedField>
        <DerivedField name="count_vec@[car name](monaco)" optype="continuous" dataType="double">
            <TextIndex textField="lowercase(car name)" wordSeparatorCharacterRE="(?u)\b\w\w+\b">
                <Constant dataType="string">monaco</Constant>
            </TextIndex>
        </DerivedField>
        <DerivedField name="count_vec@[car name](monarch)" optype="continuous" dataType="double">
            <TextIndex textField="lowercase(car name)" wordSeparatorCharacterRE="(?u)\b\w\w+\b">
                <Constant dataType="string">monarch</Constant>
            </TextIndex>
        </DerivedField>
        <DerivedField name="count_vec@[car name](monte)" optype="continuous" dataType="double">
            <TextIndex textField="lowercase(car name)" wordSeparatorCharacterRE="(?u)\b\w\w+\b">
                <Constant dataType="string">monte</Constant>
            </TextIndex>
        </DerivedField>
        <DerivedField name="count_vec@[car name](mpg)" optype="continuous" dataType="double">
            <TextIndex textField="lowercase(car name)" wordSeparatorCharacterRE="(?u)\b\w\w+\b">
                <Constant dataType="string">mpg</Constant>
            </TextIndex>
        </DerivedField>
        <DerivedField name="count_vec@[car name](mustang)" optype="continuous" dataType="double">
            <TextIndex textField="lowercase(car name)" wordSeparatorCharacterRE="(?u)\b\w\w+\b">
                <Constant dataType="string">mustang</Constant>
            </TextIndex>
        </DerivedField>
        <DerivedField name="count_vec@[car name](new)" optype="continuous" dataType="double">
            <TextIndex textField="lowercase(car name)" wordSeparatorCharacterRE="(?u)\b\w\w+\b">
                <Constant dataType="string">new</Constant>
            </TextIndex>
        </DerivedField>
        <DerivedField name="count_vec@[car name](nissan)" optype="continuous" dataType="double">
            <TextIndex textField="lowercase(car name)" wordSeparatorCharacterRE="(?u)\b\w\w+\b">
                <Constant dataType="string">nissan</Constant>
            </TextIndex>
        </DerivedField>
        <DerivedField name="count_vec@[car name](nova)" optype="continuous" dataType="double">
            <TextIndex textField="lowercase(car name)" wordSeparatorCharacterRE="(?u)\b\w\w+\b">
                <Constant dataType="string">nova</Constant>
            </TextIndex>
        </DerivedField>
        <DerivedField name="count_vec@[car name](oldsmobile)" optype="continuous" dataType="double">
            <TextIndex textField="lowercase(car name)" wordSeparatorCharacterRE="(?u)\b\w\w+\b">
                <Constant dataType="string">oldsmobile</Constant>
            </TextIndex>
        </DerivedField>
        <DerivedField name="count_vec@[car name](omega)" optype="continuous" dataType="double">
            <TextIndex textField="lowercase(car name)" wordSeparatorCharacterRE="(?u)\b\w\w+\b">
                <Constant dataType="string">omega</Constant>
            </TextIndex>
        </DerivedField>
        <DerivedField name="count_vec@[car name](opel)" optype="continuous" dataType="double">
            <TextIndex textField="lowercase(car name)" wordSeparatorCharacterRE="(?u)\b\w\w+\b">
                <Constant dataType="string">opel</Constant>
            </TextIndex>
        </DerivedField>
        <DerivedField name="count_vec@[car name](pacer)" optype="continuous" dataType="double">
            <TextIndex textField="lowercase(car name)" wordSeparatorCharacterRE="(?u)\b\w\w+\b">
                <Constant dataType="string">pacer</Constant>
            </TextIndex>
        </DerivedField>
        <DerivedField name="count_vec@[car name](peugeot)" optype="continuous" dataType="double">
            <TextIndex textField="lowercase(car name)" wordSeparatorCharacterRE="(?u)\b\w\w+\b">
                <Constant dataType="string">peugeot</Constant>
            </TextIndex>
        </DerivedField>
        <DerivedField name="count_vec@[car name](phoenix)" optype="continuous" dataType="double">
            <TextIndex textField="lowercase(car name)" wordSeparatorCharacterRE="(?u)\b\w\w+\b">
                <Constant dataType="string">phoenix</Constant>
            </TextIndex>
        </DerivedField>
        <DerivedField name="count_vec@[car name](pinto)" optype="continuous" dataType="double">
            <TextIndex textField="lowercase(car name)" wordSeparatorCharacterRE="(?u)\b\w\w+\b">
                <Constant dataType="string">pinto</Constant>
            </TextIndex>
        </DerivedField>
        <DerivedField name="count_vec@[car name](pl510)" optype="continuous" dataType="double">
            <TextIndex textField="lowercase(car name)" wordSeparatorCharacterRE="(?u)\b\w\w+\b">
                <Constant dataType="string">pl510</Constant>
            </TextIndex>
        </DerivedField>
        <DerivedField name="count_vec@[car name](plymouth)" optype="continuous" dataType="double">
            <TextIndex textField="lowercase(car name)" wordSeparatorCharacterRE="(?u)\b\w\w+\b">
                <Constant dataType="string">plymouth</Constant>
            </TextIndex>
        </DerivedField>
        <DerivedField name="count_vec@[car name](pontiac)" optype="continuous" dataType="double">
            <TextIndex textField="lowercase(car name)" wordSeparatorCharacterRE="(?u)\b\w\w+\b">
                <Constant dataType="string">pontiac</Constant>
            </TextIndex>
        </DerivedField>
        <DerivedField name="count_vec@[car name](prelude)" optype="continuous" dataType="double">
            <TextIndex textField="lowercase(car name)" wordSeparatorCharacterRE="(?u)\b\w\w+\b">
                <Constant dataType="string">prelude</Constant>
            </TextIndex>
        </DerivedField>
        <DerivedField name="count_vec@[car name](premier)" optype="continuous" dataType="double">
            <TextIndex textField="lowercase(car name)" wordSeparatorCharacterRE="(?u)\b\w\w+\b">
                <Constant dataType="string">premier</Constant>
            </TextIndex>
        </DerivedField>
        <DerivedField name="count_vec@[car name](prix)" optype="continuous" dataType="double">
            <TextIndex textField="lowercase(car name)" wordSeparatorCharacterRE="(?u)\b\w\w+\b">
                <Constant dataType="string">prix</Constant>
            </TextIndex>
        </DerivedField>
        <DerivedField name="count_vec@[car name](rabbit)" optype="continuous" dataType="double">
            <TextIndex textField="lowercase(car name)" wordSeparatorCharacterRE="(?u)\b\w\w+\b">
                <Constant dataType="string">rabbit</Constant>
            </TextIndex>
        </DerivedField>
        <DerivedField name="count_vec@[car name](rampage)" optype="continuous" dataType="double">
            <TextIndex textField="lowercase(car name)" wordSeparatorCharacterRE="(?u)\b\w\w+\b">
                <Constant dataType="string">rampage</Constant>
            </TextIndex>
        </DerivedField>
        <DerivedField name="count_vec@[car name](ranger)" optype="continuous" dataType="double">
            <TextIndex textField="lowercase(car name)" wordSeparatorCharacterRE="(?u)\b\w\w+\b">
                <Constant dataType="string">ranger</Constant>
            </TextIndex>
        </DerivedField>
        <DerivedField name="count_vec@[car name](rebel)" optype="continuous" dataType="double">
            <TextIndex textField="lowercase(car name)" wordSeparatorCharacterRE="(?u)\b\w\w+\b">
                <Constant dataType="string">rebel</Constant>
            </TextIndex>
        </DerivedField>
        <DerivedField name="count_vec@[car name](renault)" optype="continuous" dataType="double">
            <TextIndex textField="lowercase(car name)" wordSeparatorCharacterRE="(?u)\b\w\w+\b">
                <Constant dataType="string">renault</Constant>
            </TextIndex>
        </DerivedField>
        <DerivedField name="count_vec@[car name](runabout)" optype="continuous" dataType="double">
            <TextIndex textField="lowercase(car name)" wordSeparatorCharacterRE="(?u)\b\w\w+\b">
                <Constant dataType="string">runabout</Constant>
            </TextIndex>
        </DerivedField>
        <DerivedField name="count_vec@[car name](rx2)" optype="continuous" dataType="double">
            <TextIndex textField="lowercase(car name)" wordSeparatorCharacterRE="(?u)\b\w\w+\b">
                <Constant dataType="string">rx2</Constant>
            </TextIndex>
        </DerivedField>
        <DerivedField name="count_vec@[car name](rx3)" optype="continuous" dataType="double">
            <TextIndex textField="lowercase(car name)" wordSeparatorCharacterRE="(?u)\b\w\w+\b">
                <Constant dataType="string">rx3</Constant>
            </TextIndex>
        </DerivedField>
        <DerivedField name="count_vec@[car name](saab)" optype="continuous" dataType="double">
            <TextIndex textField="lowercase(car name)" wordSeparatorCharacterRE="(?u)\b\w\w+\b">
                <Constant dataType="string">saab</Constant>
            </TextIndex>
        </DerivedField>
        <DerivedField name="count_vec@[car name](safari)" optype="continuous" dataType="double">
            <TextIndex textField="lowercase(car name)" wordSeparatorCharacterRE="(?u)\b\w\w+\b">
                <Constant dataType="string">safari</Constant>
            </TextIndex>
        </DerivedField>
        <DerivedField name="count_vec@[car name](salon)" optype="continuous" dataType="double">
            <TextIndex textField="lowercase(car name)" wordSeparatorCharacterRE="(?u)\b\w\w+\b">
                <Constant dataType="string">salon</Constant>
            </TextIndex>
        </DerivedField>
        <DerivedField name="count_vec@[car name](sapporo)" optype="continuous" dataType="double">
            <TextIndex textField="lowercase(car name)" wordSeparatorCharacterRE="(?u)\b\w\w+\b">
                <Constant dataType="string">sapporo</Constant>
            </TextIndex>
        </DerivedField>
        <DerivedField name="count_vec@[car name](satellite)" optype="continuous" dataType="double">
            <TextIndex textField="lowercase(car name)" wordSeparatorCharacterRE="(?u)\b\w\w+\b">
                <Constant dataType="string">satellite</Constant>
            </TextIndex>
        </DerivedField>
        <DerivedField name="count_vec@[car name](scirocco)" optype="continuous" dataType="double">
            <TextIndex textField="lowercase(car name)" wordSeparatorCharacterRE="(?u)\b\w\w+\b">
                <Constant dataType="string">scirocco</Constant>
            </TextIndex>
        </DerivedField>
        <DerivedField name="count_vec@[car name](se)" optype="continuous" dataType="double">
            <TextIndex textField="lowercase(car name)" wordSeparatorCharacterRE="(?u)\b\w\w+\b">
                <Constant dataType="string">se</Constant>
            </TextIndex>
        </DerivedField>
        <DerivedField name="count_vec@[car name](sebring)" optype="continuous" dataType="double">
            <TextIndex textField="lowercase(car name)" wordSeparatorCharacterRE="(?u)\b\w\w+\b">
                <Constant dataType="string">sebring</Constant>
            </TextIndex>
        </DerivedField>
        <DerivedField name="count_vec@[car name](sedan)" optype="continuous" dataType="double">
            <TextIndex textField="lowercase(car name)" wordSeparatorCharacterRE="(?u)\b\w\w+\b">
                <Constant dataType="string">sedan</Constant>
            </TextIndex>
        </DerivedField>
        <DerivedField name="count_vec@[car name](seville)" optype="continuous" dataType="double">
            <TextIndex textField="lowercase(car name)" wordSeparatorCharacterRE="(?u)\b\w\w+\b">
                <Constant dataType="string">seville</Constant>
            </TextIndex>
        </DerivedField>
        <DerivedField name="count_vec@[car name](skyhawk)" optype="continuous" dataType="double">
            <TextIndex textField="lowercase(car name)" wordSeparatorCharacterRE="(?u)\b\w\w+\b">
                <Constant dataType="string">skyhawk</Constant>
            </TextIndex>
        </DerivedField>
        <DerivedField name="count_vec@[car name](skylark)" optype="continuous" dataType="double">
            <TextIndex textField="lowercase(car name)" wordSeparatorCharacterRE="(?u)\b\w\w+\b">
                <Constant dataType="string">skylark</Constant>
            </TextIndex>
        </DerivedField>
        <DerivedField name="count_vec@[car name](special)" optype="continuous" dataType="double">
            <TextIndex textField="lowercase(car name)" wordSeparatorCharacterRE="(?u)\b\w\w+\b">
                <Constant dataType="string">special</Constant>
            </TextIndex>
        </DerivedField>
        <DerivedField name="count_vec@[car name](spirit)" optype="continuous" dataType="double">
            <TextIndex textField="lowercase(car name)" wordSeparatorCharacterRE="(?u)\b\w\w+\b">
                <Constant dataType="string">spirit</Constant>
            </TextIndex>
        </DerivedField>
        <DerivedField name="count_vec@[car name](sportabout)" optype="continuous" dataType="double">
            <TextIndex textField="lowercase(car name)" wordSeparatorCharacterRE="(?u)\b\w\w+\b">
                <Constant dataType="string">sportabout</Constant>
            </TextIndex>
        </DerivedField>
        <DerivedField name="count_vec@[car name](squire)" optype="continuous" dataType="double">
            <TextIndex textField="lowercase(car name)" wordSeparatorCharacterRE="(?u)\b\w\w+\b">
                <Constant dataType="string">squire</Constant>
            </TextIndex>
        </DerivedField>
        <DerivedField name="count_vec@[car name](sst)" optype="continuous" dataType="double">
            <TextIndex textField="lowercase(car name)" wordSeparatorCharacterRE="(?u)\b\w\w+\b">
                <Constant dataType="string">sst</Constant>
            </TextIndex>
        </DerivedField>
        <DerivedField name="count_vec@[car name](stanza)" optype="continuous" dataType="double">
            <TextIndex textField="lowercase(car name)" wordSeparatorCharacterRE="(?u)\b\w\w+\b">
                <Constant dataType="string">stanza</Constant>
            </TextIndex>
        </DerivedField>
        <DerivedField name="count_vec@[car name](starlet)" optype="continuous" dataType="double">
            <TextIndex textField="lowercase(car name)" wordSeparatorCharacterRE="(?u)\b\w\w+\b">
                <Constant dataType="string">starlet</Constant>
            </TextIndex>
        </DerivedField>
        <DerivedField name="count_vec@[car name](strada)" optype="continuous" dataType="double">
            <TextIndex textField="lowercase(car name)" wordSeparatorCharacterRE="(?u)\b\w\w+\b">
                <Constant dataType="string">strada</Constant>
            </TextIndex>
        </DerivedField>
        <DerivedField name="count_vec@[car name](subaru)" optype="continuous" dataType="double">
            <TextIndex textField="lowercase(car name)" wordSeparatorCharacterRE="(?u)\b\w\w+\b">
                <Constant dataType="string">subaru</Constant>
            </TextIndex>
        </DerivedField>
        <DerivedField name="count_vec@[car name](suburb)" optype="continuous" dataType="double">
            <TextIndex textField="lowercase(car name)" wordSeparatorCharacterRE="(?u)\b\w\w+\b">
                <Constant dataType="string">suburb</Constant>
            </TextIndex>
        </DerivedField>
        <DerivedField name="count_vec@[car name](sunbird)" optype="continuous" dataType="double">
            <TextIndex textField="lowercase(car name)" wordSeparatorCharacterRE="(?u)\b\w\w+\b">
                <Constant dataType="string">sunbird</Constant>
            </TextIndex>
        </DerivedField>
        <DerivedField name="count_vec@[car name](super)" optype="continuous" dataType="double">
            <TextIndex textField="lowercase(car name)" wordSeparatorCharacterRE="(?u)\b\w\w+\b">
                <Constant dataType="string">super</Constant>
            </TextIndex>
        </DerivedField>
        <DerivedField name="count_vec@[car name](supreme)" optype="continuous" dataType="double">
            <TextIndex textField="lowercase(car name)" wordSeparatorCharacterRE="(?u)\b\w\w+\b">
                <Constant dataType="string">supreme</Constant>
            </TextIndex>
        </DerivedField>
        <DerivedField name="count_vec@[car name](sw)" optype="continuous" dataType="double">
            <TextIndex textField="lowercase(car name)" wordSeparatorCharacterRE="(?u)\b\w\w+\b">
                <Constant dataType="string">sw</Constant>
            </TextIndex>
        </DerivedField>
        <DerivedField name="count_vec@[car name](sx)" optype="continuous" dataType="double">
            <TextIndex textField="lowercase(car name)" wordSeparatorCharacterRE="(?u)\b\w\w+\b">
                <Constant dataType="string">sx</Constant>
            </TextIndex>
        </DerivedField>
        <DerivedField name="count_vec@[car name](tc)" optype="continuous" dataType="double">
            <TextIndex textField="lowercase(car name)" wordSeparatorCharacterRE="(?u)\b\w\w+\b">
                <Constant dataType="string">tc</Constant>
            </TextIndex>
        </DerivedField>
        <DerivedField name="count_vec@[car name](tercel)" optype="continuous" dataType="double">
            <TextIndex textField="lowercase(car name)" wordSeparatorCharacterRE="(?u)\b\w\w+\b">
                <Constant dataType="string">tercel</Constant>
            </TextIndex>
        </DerivedField>
        <DerivedField name="count_vec@[car name](thunderbird)" optype="continuous" dataType="double">
            <TextIndex textField="lowercase(car name)" wordSeparatorCharacterRE="(?u)\b\w\w+\b">
                <Constant dataType="string">thunderbird</Constant>
            </TextIndex>
        </DerivedField>
        <DerivedField name="count_vec@[car name](torino)" optype="continuous" dataType="double">
            <TextIndex textField="lowercase(car name)" wordSeparatorCharacterRE="(?u)\b\w\w+\b">
                <Constant dataType="string">torino</Constant>
            </TextIndex>
        </DerivedField>
        <DerivedField name="count_vec@[car name](town)" optype="continuous" dataType="double">
            <TextIndex textField="lowercase(car name)" wordSeparatorCharacterRE="(?u)\b\w\w+\b">
                <Constant dataType="string">town</Constant>
            </TextIndex>
        </DerivedField>
        <DerivedField name="count_vec@[car name](toyota)" optype="continuous" dataType="double">
            <TextIndex textField="lowercase(car name)" wordSeparatorCharacterRE="(?u)\b\w\w+\b">
                <Constant dataType="string">toyota</Constant>
            </TextIndex>
        </DerivedField>
        <DerivedField name="count_vec@[car name](toyouta)" optype="continuous" dataType="double">
            <TextIndex textField="lowercase(car name)" wordSeparatorCharacterRE="(?u)\b\w\w+\b">
                <Constant dataType="string">toyouta</Constant>
            </TextIndex>
        </DerivedField>
        <DerivedField name="count_vec@[car name](tr7)" optype="continuous" dataType="double">
            <TextIndex textField="lowercase(car name)" wordSeparatorCharacterRE="(?u)\b\w\w+\b">
                <Constant dataType="string">tr7</Constant>
            </TextIndex>
        </DerivedField>
        <DerivedField name="count_vec@[car name](triumph)" optype="continuous" dataType="double">
            <TextIndex textField="lowercase(car name)" wordSeparatorCharacterRE="(?u)\b\w\w+\b">
                <Constant dataType="string">triumph</Constant>
            </TextIndex>
        </DerivedField>
        <DerivedField name="count_vec@[car name](turbo)" optype="continuous" dataType="double">
            <TextIndex textField="lowercase(car name)" wordSeparatorCharacterRE="(?u)\b\w\w+\b">
                <Constant dataType="string">turbo</Constant>
            </TextIndex>
        </DerivedField>
        <DerivedField name="count_vec@[car name](type)" optype="continuous" dataType="double">
            <TextIndex textField="lowercase(car name)" wordSeparatorCharacterRE="(?u)\b\w\w+\b">
                <Constant dataType="string">type</Constant>
            </TextIndex>
        </DerivedField>
        <DerivedField name="count_vec@[car name](v6)" optype="continuous" dataType="double">
            <TextIndex textField="lowercase(car name)" wordSeparatorCharacterRE="(?u)\b\w\w+\b">
                <Constant dataType="string">v6</Constant>
            </TextIndex>
        </DerivedField>
        <DerivedField name="count_vec@[car name](v8)" optype="continuous" dataType="double">
            <TextIndex textField="lowercase(car name)" wordSeparatorCharacterRE="(?u)\b\w\w+\b">
                <Constant dataType="string">v8</Constant>
            </TextIndex>
        </DerivedField>
        <DerivedField name="count_vec@[car name](valiant)" optype="continuous" dataType="double">
            <TextIndex textField="lowercase(car name)" wordSeparatorCharacterRE="(?u)\b\w\w+\b">
                <Constant dataType="string">valiant</Constant>
            </TextIndex>
        </DerivedField>
        <DerivedField name="count_vec@[car name](vega)" optype="continuous" dataType="double">
            <TextIndex textField="lowercase(car name)" wordSeparatorCharacterRE="(?u)\b\w\w+\b">
                <Constant dataType="string">vega</Constant>
            </TextIndex>
        </DerivedField>
        <DerivedField name="count_vec@[car name](vokswagen)" optype="continuous" dataType="double">
            <TextIndex textField="lowercase(car name)" wordSeparatorCharacterRE="(?u)\b\w\w+\b">
                <Constant dataType="string">vokswagen</Constant>
            </TextIndex>
        </DerivedField>
        <DerivedField name="count_vec@[car name](volare)" optype="continuous" dataType="double">
            <TextIndex textField="lowercase(car name)" wordSeparatorCharacterRE="(?u)\b\w\w+\b">
                <Constant dataType="string">volare</Constant>
            </TextIndex>
        </DerivedField>
        <DerivedField name="count_vec@[car name](volkswagen)" optype="continuous" dataType="double">
            <TextIndex textField="lowercase(car name)" wordSeparatorCharacterRE="(?u)\b\w\w+\b">
                <Constant dataType="string">volkswagen</Constant>
            </TextIndex>
        </DerivedField>
        <DerivedField name="count_vec@[car name](volvo)" optype="continuous" dataType="double">
            <TextIndex textField="lowercase(car name)" wordSeparatorCharacterRE="(?u)\b\w\w+\b">
                <Constant dataType="string">volvo</Constant>
            </TextIndex>
        </DerivedField>
        <DerivedField name="count_vec@[car name](vw)" optype="continuous" dataType="double">
            <TextIndex textField="lowercase(car name)" wordSeparatorCharacterRE="(?u)\b\w\w+\b">
                <Constant dataType="string">vw</Constant>
            </TextIndex>
        </DerivedField>
        <DerivedField name="count_vec@[car name](wagon)" optype="continuous" dataType="double">
            <TextIndex textField="lowercase(car name)" wordSeparatorCharacterRE="(?u)\b\w\w+\b">
                <Constant dataType="string">wagon</Constant>
            </TextIndex>
        </DerivedField>
        <DerivedField name="count_vec@[car name](woody)" optype="continuous" dataType="double">
            <TextIndex textField="lowercase(car name)" wordSeparatorCharacterRE="(?u)\b\w\w+\b">
                <Constant dataType="string">woody</Constant>
            </TextIndex>
        </DerivedField>
        <DerivedField name="count_vec@[car name](x1)" optype="continuous" dataType="double">
            <TextIndex textField="lowercase(car name)" wordSeparatorCharacterRE="(?u)\b\w\w+\b">
                <Constant dataType="string">x1</Constant>
            </TextIndex>
        </DerivedField>
        <DerivedField name="count_vec@[car name](xe)" optype="continuous" dataType="double">
            <TextIndex textField="lowercase(car name)" wordSeparatorCharacterRE="(?u)\b\w\w+\b">
                <Constant dataType="string">xe</Constant>
            </TextIndex>
        </DerivedField>
        <DerivedField name="count_vec@[car name](yorker)" optype="continuous" dataType="double">
            <TextIndex textField="lowercase(car name)" wordSeparatorCharacterRE="(?u)\b\w\w+\b">
                <Constant dataType="string">yorker</Constant>
            </TextIndex>
        </DerivedField>
        <DerivedField name="count_vec@[car name](zx)" optype="continuous" dataType="double">
            <TextIndex textField="lowercase(car name)" wordSeparatorCharacterRE="(?u)\b\w\w+\b">
                <Constant dataType="string">zx</Constant>
            </TextIndex>
        </DerivedField>
        <DerivedField name="standardScaler(displacement)" optype="continuous" dataType="double">
            <Apply function="/">
                <Apply function="-">
                    <FieldRef field="displacement"/>
                    <Constant dataType="double">187.2124060150376010</Constant>
                </Apply>
                <Constant dataType="double">99.7410604104702543</Constant>
            </Apply>
        </DerivedField>
    </TransformationDictionary>
    <MiningModel modelName="model1" functionName="regression">
        <MiningSchema>
            <MiningField name="c" usageType="active" optype="categorical"/>
            <MiningField name="cylinders" usageType="active" optype="continuous"/>
            <MiningField name="displacement" usageType="active" optype="continuous"/>
            <MiningField name="horsepower" usageType="active" optype="continuous"/>
            <MiningField name="weight" usageType="active" optype="continuous"/>
            <MiningField name="acceleration" usageType="active" optype="continuous"/>
            <MiningField name="model year" usageType="active" optype="continuous"/>
            <MiningField name="origin" usageType="active" optype="continuous"/>
            <MiningField name="car name" usageType="active" optype="continuous"/>
            <MiningField name="mpg" usageType="target" optype="continuous"/>
        </MiningSchema>
        <Output>
            <OutputField name="predicted_mpg" optype="continuous" dataType="double" feature="predictedValue"/>
        </Output>
        <Segmentation multipleModelMethod="sum">
            <Segment id="1" weight="1">
                <True/>
                <TreeModel modelName="DecisionTreeModel" functionName="regression" missingValuePenalty="1.0" noTrueChildStrategy="returnLastPrediction">
                    <MiningSchema>
                        <MiningField name="cylinders" usageType="active"/>
                        <MiningField name="displacement" usageType="active"/>
                        <MiningField name="horsepower" usageType="active"/>
                        <MiningField name="weight" usageType="active"/>
                        <MiningField name="acceleration" usageType="active"/>
                        <MiningField name="model year" usageType="active"/>
                        <MiningField name="origin" usageType="active"/>
                        <MiningField name="car name" usageType="active"/>
                    </MiningSchema>
                    <Node>
                        <True/>
                        <Node>
                            <SimplePredicate field="standardScaler(displacement)" operator="lessThan" value="1.0000000180025095e-35"/>
                            <Node>
                                <SimplePredicate field="standardScaler(displacement)" operator="lessThan" value="-0.7490636825753528"/>
                                <Node score="24.71272344280815">
                                    <SimplePredicate field="standardScaler(displacement)" operator="lessThan" value="-0.9395569450472795"/>
                                </Node>
                                <Node score="24.332557989797806">
                                    <SimplePredicate field="standardScaler(displacement)" operator="greaterOrEqual" value="-0.9395569450472795"/>
                                </Node>
                            </Node>
                            <Node>
                                <SimplePredicate field="standardScaler(displacement)" operator="greaterOrEqual" value="-0.7490636825753528"/>
                                <Node score="23.831612353916327">
                                    <SimplePredicate field="standardScaler(displacement)" operator="lessThan" value="-0.5284925365552274"/>
                                </Node>
                                <Node score="23.930663848875334">
                                    <SimplePredicate field="standardScaler(displacement)" operator="greaterOrEqual" value="-0.5284925365552274"/>
                                </Node>
                            </Node>
                        </Node>
                        <Node>
                            <SimplePredicate field="standardScaler(displacement)" operator="greaterOrEqual" value="1.0000000180025095e-35"/>
                            <Node>
                                <SimplePredicate field="standardScaler(displacement)" operator="lessThan" value="1.1608819227352798"/>
                                <Node score="23.359963615035912">
                                    <SimplePredicate field="standardScaler(displacement)" operator="lessThan" value="0.5392723294058351"/>
                                </Node>
                                <Node score="23.157747625685975">
                                    <SimplePredicate field="standardScaler(displacement)" operator="greaterOrEqual" value="0.5392723294058351"/>
                                </Node>
                            </Node>
                            <Node>
                                <SimplePredicate field="standardScaler(displacement)" operator="greaterOrEqual" value="1.1608819227352798"/>
                                <Node score="22.815834595374294">
                                    <SimplePredicate field="standardScaler(displacement)" operator="lessThan" value="1.6371150789150966"/>
                                </Node>
                                <Node score="22.752470963374442">
                                    <SimplePredicate field="standardScaler(displacement)" operator="greaterOrEqual" value="1.6371150789150966"/>
                                </Node>
                            </Node>
                        </Node>
                    </Node>
                </TreeModel>
            </Segment>
            <Segment id="2" weight="1">
                <True/>
                <TreeModel modelName="DecisionTreeModel" functionName="regression" missingValuePenalty="1.0" noTrueChildStrategy="returnLastPrediction">
                    <MiningSchema>
                        <MiningField name="cylinders" usageType="active"/>
                        <MiningField name="displacement" usageType="active"/>
                        <MiningField name="horsepower" usageType="active"/>
                        <MiningField name="weight" usageType="active"/>
                        <MiningField name="acceleration" usageType="active"/>
                        <MiningField name="model year" usageType="active"/>
                        <MiningField name="origin" usageType="active"/>
                        <MiningField name="car name" usageType="active"/>
                    </MiningSchema>
                    <Node>
                        <True/>
                        <Node>
                            <SimplePredicate field="standardScaler(displacement)" operator="lessThan" value="1.0000000180025095e-35"/>
                            <Node>
                                <SimplePredicate field="standardScaler(displacement)" operator="lessThan" value="-0.7490636825753528"/>
                                <Node score="0.8776165237029394">
                                    <SimplePredicate field="standardScaler(displacement)" operator="lessThan" value="-0.9395569450472795"/>
                                </Node>
                                <Node score="0.5354676143603122">
                                    <SimplePredicate field="standardScaler(displacement)" operator="greaterOrEqual" value="-0.9395569450472795"/>
                                </Node>
                            </Node>
                            <Node>
                                <SimplePredicate field="standardScaler(displacement)" operator="greaterOrEqual" value="-0.7490636825753528"/>
                                <Node score="0.08461653389450577">
                                    <SimplePredicate field="standardScaler(displacement)" operator="lessThan" value="-0.5284925365552274"/>
                                </Node>
                                <Node score="0.17376287950248254">
                                    <SimplePredicate field="standardScaler(displacement)" operator="greaterOrEqual" value="-0.5284925365552274"/>
                                </Node>
                            </Node>
                        </Node>
                        <Node>
                            <SimplePredicate field="standardScaler(displacement)" operator="greaterOrEqual" value="1.0000000180025095e-35"/>
                            <Node>
                                <SimplePredicate field="standardScaler(displacement)" operator="lessThan" value="1.1608819227352798"/>
                                <Node score="-0.3398673127735815">
                                    <SimplePredicate field="standardScaler(displacement)" operator="lessThan" value="0.5392723294058351"/>
                                </Node>
                                <Node score="-0.5218617097191188">
                                    <SimplePredicate field="standardScaler(displacement)" operator="greaterOrEqual" value="0.5392723294058351"/>
                                </Node>
                            </Node>
                            <Node>
                                <SimplePredicate field="standardScaler(displacement)" operator="greaterOrEqual" value="1.1608819227352798"/>
                                <Node score="-0.8295834763844807">
                                    <SimplePredicate field="standardScaler(displacement)" operator="lessThan" value="1.6371150789150966"/>
                                </Node>
                                <Node score="-0.8866107333790172">
                                    <SimplePredicate field="standardScaler(displacement)" operator="greaterOrEqual" value="1.6371150789150966"/>
                                </Node>
                            </Node>
                        </Node>
                    </Node>
                </TreeModel>
            </Segment>
            <Segment id="3" weight="1">
                <True/>
                <TreeModel modelName="DecisionTreeModel" functionName="regression" missingValuePenalty="1.0" noTrueChildStrategy="returnLastPrediction">
                    <MiningSchema>
                        <MiningField name="cylinders" usageType="active"/>
                        <MiningField name="displacement" usageType="active"/>
                        <MiningField name="horsepower" usageType="active"/>
                        <MiningField name="weight" usageType="active"/>
                        <MiningField name="acceleration" usageType="active"/>
                        <MiningField name="model year" usageType="active"/>
                        <MiningField name="origin" usageType="active"/>
                        <MiningField name="car name" usageType="active"/>
                    </MiningSchema>
                    <Node>
                        <True/>
                        <Node>
                            <SimplePredicate field="standardScaler(displacement)" operator="lessThan" value="-0.3430122546746673"/>
                            <Node>
                                <SimplePredicate field="standardScaler(displacement)" operator="lessThan" value="-0.7490636825753528"/>
                                <Node score="0.7898548748758105">
                                    <SimplePredicate field="standardScaler(displacement)" operator="lessThan" value="-0.9395569450472795"/>
                                </Node>
                                <Node score="0.4819208387364733">
                                    <SimplePredicate field="standardScaler(displacement)" operator="greaterOrEqual" value="-0.9395569450472795"/>
                                </Node>
                            </Node>
                            <Node>
                                <SimplePredicate field="standardScaler(displacement)" operator="greaterOrEqual" value="-0.7490636825753528"/>
                                <Node score="0.0761548913239191">
                                    <SimplePredicate field="standardScaler(displacement)" operator="lessThan" value="-0.5284925365552274"/>
                                </Node>
                                <Node score="0.279927705945792">
                                    <SimplePredicate field="standardScaler(displacement)" operator="greaterOrEqual" value="-0.5284925365552274"/>
                                </Node>
                            </Node>
                        </Node>
                        <Node>
                            <SimplePredicate field="standardScaler(displacement)" operator="greaterOrEqual" value="-0.3430122546746673"/>
                            <Node>
                                <SimplePredicate field="standardScaler(displacement)" operator="lessThan" value="1.1608819227352798"/>
                                <Node score="-0.11286974804741996">
                                    <SimplePredicate field="standardScaler(displacement)" operator="lessThan" value="0.2535324356979451"/>
                                </Node>
                                <Node>
                                    <SimplePredicate field="standardScaler(displacement)" operator="greaterOrEqual" value="0.2535324356979451"/>
                                    <Node score="-0.34409295717875166">
                                        <SimplePredicate field="standardScaler(displacement)" operator="lessThan" value="0.5392723294058351"/>
                                    </Node>
                                    <Node score="-0.46967554377472925">
                                        <SimplePredicate field="standardScaler(displacement)" operator="greaterOrEqual" value="0.5392723294058351"/>
                                    </Node>
                                </Node>
                            </Node>
                            <Node>
                                <SimplePredicate field="standardScaler(displacement)" operator="greaterOrEqual" value="1.1608819227352798"/>
                                <Node score="-0.7466251118977865">
                                    <SimplePredicate field="standardScaler(displacement)" operator="lessThan" value="1.6371150789150966"/>
                                </Node>
                                <Node score="-0.7979496619918129">
                                    <SimplePredicate field="standardScaler(displacement)" operator="greaterOrEqual" value="1.6371150789150966"/>
                                </Node>
                            </Node>
                        </Node>
                    </Node>
                </TreeModel>
            </Segment>
            <Segment id="4" weight="1">
                <True/>
                <TreeModel modelName="DecisionTreeModel" functionName="regression" missingValuePenalty="1.0" noTrueChildStrategy="returnLastPrediction">
                    <MiningSchema>
                        <MiningField name="cylinders" usageType="active"/>
                        <MiningField name="displacement" usageType="active"/>
                        <MiningField name="horsepower" usageType="active"/>
                        <MiningField name="weight" usageType="active"/>
                        <MiningField name="acceleration" usageType="active"/>
                        <MiningField name="model year" usageType="active"/>
                        <MiningField name="origin" usageType="active"/>
                        <MiningField name="car name" usageType="active"/>
                    </MiningSchema>
                    <Node>
                        <True/>
                        <Node>
                            <SimplePredicate field="standardScaler(displacement)" operator="lessThan" value="-0.3430122546746673"/>
                            <Node>
                                <SimplePredicate field="standardScaler(displacement)" operator="lessThan" value="-0.7991934884890178"/>
                                <Node score="0.7108693853020669">
                                    <SimplePredicate field="standardScaler(displacement)" operator="lessThan" value="-0.9395569450472795"/>
                                </Node>
                                <Node score="0.4544648233297709">
                                    <SimplePredicate field="standardScaler(displacement)" operator="greaterOrEqual" value="-0.9395569450472795"/>
                                </Node>
                            </Node>
                            <Node>
                                <SimplePredicate field="standardScaler(displacement)" operator="greaterOrEqual" value="-0.7991934884890178"/>
                                <Node>
                                    <SimplePredicate field="standardScaler(displacement)" operator="lessThan" value="-0.5284925365552274"/>
                                    <Node score="0.23445911406353118">
                                        <SimplePredicate field="standardScaler(displacement)" operator="lessThan" value="-0.6688559931134891"/>
                                    </Node>
                                    <Node score="0.008380667364136094">
                                        <SimplePredicate field="standardScaler(displacement)" operator="greaterOrEqual" value="-0.6688559931134891"/>
                                    </Node>
                                </Node>
                                <Node score="0.2519349307925613">
                                    <SimplePredicate field="standardScaler(displacement)" operator="greaterOrEqual" value="-0.5284925365552274"/>
                                </Node>
                            </Node>
                        </Node>
                        <Node>
                            <SimplePredicate field="standardScaler(displacement)" operator="greaterOrEqual" value="-0.3430122546746673"/>
                            <Node>
                                <SimplePredicate field="standardScaler(displacement)" operator="lessThan" value="1.1608819227352798"/>
                                <Node score="-0.10158277462635722">
                                    <SimplePredicate field="standardScaler(displacement)" operator="lessThan" value="0.2535324356979451"/>
                                </Node>
                                <Node>
                                    <SimplePredicate field="standardScaler(displacement)" operator="greaterOrEqual" value="0.2535324356979451"/>
                                    <Node score="-0.30968367016563814">
                                        <SimplePredicate field="standardScaler(displacement)" operator="lessThan" value="0.5392723294058351"/>
                                    </Node>
                                    <Node score="-0.4227079783444819">
                                        <SimplePredicate field="standardScaler(displacement)" operator="greaterOrEqual" value="0.5392723294058351"/>
                                    </Node>
                                </Node>
                            </Node>
                            <Node>
                                <SimplePredicate field="standardScaler(displacement)" operator="greaterOrEqual" value="1.1608819227352798"/>
                                <Node score="-0.6719625922044119">
                                    <SimplePredicate field="standardScaler(displacement)" operator="lessThan" value="1.6371150789150966"/>
                                </Node>
                                <Node score="-0.7181546839800749">
                                    <SimplePredicate field="standardScaler(displacement)" operator="greaterOrEqual" value="1.6371150789150966"/>
                                </Node>
                            </Node>
                        </Node>
                    </Node>
                </TreeModel>
            </Segment>
            <Segment id="5" weight="1">
                <True/>
                <TreeModel modelName="DecisionTreeModel" functionName="regression" missingValuePenalty="1.0" noTrueChildStrategy="returnLastPrediction">
                    <MiningSchema>
                        <MiningField name="cylinders" usageType="active"/>
                        <MiningField name="displacement" usageType="active"/>
                        <MiningField name="horsepower" usageType="active"/>
                        <MiningField name="weight" usageType="active"/>
                        <MiningField name="acceleration" usageType="active"/>
                        <MiningField name="model year" usageType="active"/>
                        <MiningField name="origin" usageType="active"/>
                        <MiningField name="car name" usageType="active"/>
                    </MiningSchema>
                    <Node>
                        <True/>
                        <Node>
                            <SimplePredicate field="standardScaler(displacement)" operator="lessThan" value="-0.3430122546746673"/>
                            <Node>
