<?xml version="1.0" encoding="UTF-8"?>
<PMML xmlns="http://www.dmg.org/PMML-4_3" version="4.4">
    <Header copyright="Copyright (c) 2019 Software AG" description="Default Description">
        <Application name="Nyoka" version="3.0.9rc1"/>
        <Timestamp>2019-07-05 12:14:06.603463</Timestamp>
    </Header>
    <MiningBuildTask>
        <Extension name="modelObject" value="LGBMClassifier(boosting_type='gbdt', class_weight=None, colsample_bytree=1.0,
        importance_type='split', learning_rate=0.1, max_depth=-1,
        min_child_samples=20, min_child_weight=0.001, min_split_gain=0.0,
        n_estimators=100, n_jobs=-1, num_leaves=31, objective=None,
        random_state=None, reg_alpha=0.0, reg_lambda=0.0, silent=True,
        subsample=1.0, subsample_for_bin=200000, subsample_freq=0)" for="model1"/>
    </MiningBuildTask>
    <DataDictionary numberOfFields="5">
        <DataField name="sepal length (cm)" optype="continuous" dataType="double"/>
        <DataField name="sepal width (cm)" optype="continuous" dataType="double"/>
        <DataField name="petal length (cm)" optype="continuous" dataType="double"/>
        <DataField name="petal width (cm)" optype="continuous" dataType="double"/>
        <DataField name="Species" optype="categorical" dataType="integer">
            <Value value="0"/>
            <Value value="1"/>
            <Value value="2"/>
        </DataField>
    </DataDictionary>
    <MiningModel modelName="model1" functionName="classification">
        <MiningSchema>
            <MiningField name="c" usageType="active" optype="categorical"/>
            <MiningField name="sepal length (cm)" usageType="active" optype="continuous"/>
            <MiningField name="sepal width (cm)" usageType="active" optype="continuous"/>
            <MiningField name="petal length (cm)" usageType="active" optype="continuous"/>
            <MiningField name="petal width (cm)" usageType="active" optype="continuous"/>
            <MiningField name="Species" usageType="target" optype="categorical"/>
        </MiningSchema>
        <Output>
            <OutputField name="probability_0" optype="continuous" dataType="double" feature="probability" value="0"/>
            <OutputField name="probability_1" optype="continuous" dataType="double" feature="probability" value="1"/>
            <OutputField name="probability_2" optype="continuous" dataType="double" feature="probability" value="2"/>
            <OutputField name="predicted_Species" optype="categorical" dataType="string" feature="predictedValue"/>
        </Output>
        <Segmentation multipleModelMethod="modelChain">
            <Segment id="1" weight="1">
                <True/>
                <MiningModel modelName="MiningModel" functionName="regression">
                    <MiningSchema>
                        <MiningField name="sepal length (cm)" usageType="active"/>
                        <MiningField name="sepal width (cm)" usageType="active"/>
                        <MiningField name="petal length (cm)" usageType="active"/>
                        <MiningField name="petal width (cm)" usageType="active"/>
                    </MiningSchema>
                    <Output>
                        <OutputField name="lgbValue(0)" optype="continuous" dataType="float" feature="predictedValue"/>
                    </Output>
                    <Segmentation multipleModelMethod="sum">
                        <Segment id="1" weight="1">
                            <True/>
                            <TreeModel modelName="DecisionTreeModel" functionName="regression" missingValuePenalty="1.0" noTrueChildStrategy="returnLastPrediction">
                                <MiningSchema>
                                    <MiningField name="sepal length (cm)" usageType="active"/>
                                    <MiningField name="sepal width (cm)" usageType="active"/>
                                    <MiningField name="petal length (cm)" usageType="active"/>
                                    <MiningField name="petal width (cm)" usageType="active"/>
                                </MiningSchema>
                                <Node>
                                    <True/>
                                    <Node>
                                        <SimplePredicate field="petal length (cm)" operator="lessThan" value="3.1500000000000004"/>
                                        <Node score="-0.9598622855668056">
                                            <SimplePredicate field="sepal width (cm)" operator="lessThan" value="3.35"/>
                                        </Node>
                                        <Node score="-0.9486122853153485">
                                            <SimplePredicate field="sepal width (cm)" operator="greaterOrEqual" value="3.35"/>
                                        </Node>
                                    </Node>
                                    <Node score="-1.1736122903444903">
                                        <SimplePredicate field="petal length (cm)" operator="greaterOrEqual" value="3.1500000000000004"/>
                                    </Node>
                                </Node>
                            </TreeModel>
                        </Segment>
                        <Segment id="2" weight="1">
                            <True/>
                            <TreeModel modelName="DecisionTreeModel" functionName="regression" missingValuePenalty="1.0" noTrueChildStrategy="returnLastPrediction">
                                <MiningSchema>
                                    <MiningField name="sepal length (cm)" usageType="active"/>
                                    <MiningField name="sepal width (cm)" usageType="active"/>
                                    <MiningField name="petal length (cm)" usageType="active"/>
                                    <MiningField name="petal width (cm)" usageType="active"/>
                                </MiningSchema>
                                <Node>
                                    <True/>
                                    <Node>
                                        <SimplePredicate field="petal length (cm)" operator="lessThan" value="3.1500000000000004"/>
                                        <Node score="0.12061441448292787">
                                            <SimplePredicate field="sepal width (cm)" operator="lessThan" value="3.35"/>
                                        </Node>
                                        <Node score="0.13043927462446933">
                                            <SimplePredicate field="sepal width (cm)" operator="greaterOrEqual" value="3.35"/>
                                        </Node>
                                    </Node>
                                    <Node>
                                        <SimplePredicate field="petal length (cm)" operator="greaterOrEqual" value="3.1500000000000004"/>
                                        <Node score="-0.07237861977270295">
                                            <SimplePredicate field="petal length (cm)" operator="lessThan" value="4.450000000000001"/>
                                        </Node>
                                        <Node>
                                            <SimplePredicate field="petal length (cm)" operator="greaterOrEqual" value="4.450000000000001"/>
                                            <Node>
                                                <SimplePredicate field="petal length (cm)" operator="lessThan" value="5.3500000000000005"/>
                                                <Node score="-0.07227993627786825">
                                                    <SimplePredicate field="petal width (cm)" operator="lessThan" value="1.6500000000000001"/>
                                                </Node>
                                                <Node score="-0.07224975958220653">
                                                    <SimplePredicate field="petal width (cm)" operator="greaterOrEqual" value="1.6500000000000001"/>
                                                </Node>
                                            </Node>
                                            <Node score="-0.07220468757927466">
                                                <SimplePredicate field="petal length (cm)" operator="greaterOrEqual" value="5.3500000000000005"/>
                                            </Node>
                                        </Node>
                                    </Node>
                                </Node>
                            </TreeModel>
                        </Segment>
                        <Segment id="3" weight="1">
                            <True/>
                            <TreeModel modelName="DecisionTreeModel" functionName="regression" missingValuePenalty="1.0" noTrueChildStrategy="returnLastPrediction">
                                <MiningSchema>
                                    <MiningField name="sepal length (cm)" usageType="active"/>
                                    <MiningField name="sepal width (cm)" usageType="active"/>
                                    <MiningField name="petal length (cm)" usageType="active"/>
                                    <MiningField name="petal width (cm)" usageType="active"/>
                                </MiningSchema>
                                <Node>
                                    <True/>
                                    <Node>
                                        <SimplePredicate field="petal length (cm)" operator="lessThan" value="3.1500000000000004"/>
                                        <Node score="0.11661302170895026">
                                            <SimplePredicate field="sepal length (cm)" operator="lessThan" value="5.050000000000001"/>
                                        </Node>
                                        <Node score="0.10776204848307627">
                                            <SimplePredicate field="sepal length (cm)" operator="greaterOrEqual" value="5.050000000000001"/>
                                        </Node>
                                    </Node>
                                    <Node>
                                        <SimplePredicate field="petal length (cm)" operator="greaterOrEqual" value="3.1500000000000004"/>
                                        <Node>
                                            <SimplePredicate field="petal length (cm)" operator="lessThan" value="5.150000000000001"/>
                                            <Node>
                                                <SimplePredicate field="petal length (cm)" operator="lessThan" value="4.750000000000001"/>
                                                <Node score="-0.06998059583016383">
                                                    <SimplePredicate field="petal length (cm)" operator="lessThan" value="4.250000000000001"/>
                                                </Node>
                                                <Node score="-0.07027643812680125">
                                                    <SimplePredicate field="petal length (cm)" operator="greaterOrEqual" value="4.250000000000001"/>
                                                </Node>
                                            </Node>
                                            <Node score="-0.06990610260597376">
                                                <SimplePredicate field="petal length (cm)" operator="greaterOrEqual" value="4.750000000000001"/>
                                            </Node>
                                        </Node>
                                        <Node score="-0.0696401952192398">
                                            <SimplePredicate field="petal length (cm)" operator="greaterOrEqual" value="5.150000000000001"/>
                                        </Node>
                                    </Node>
                                </Node>
                            </TreeModel>
                        </Segment>
                        <Segment id="4" weight="1">
                            <True/>
                            <TreeModel modelName="DecisionTreeModel" functionName="regression" missingValuePenalty="1.0" noTrueChildStrategy="returnLastPrediction">
                                <MiningSchema>
                                    <MiningField name="sepal length (cm)" usageType="active"/>
                                    <MiningField name="sepal width (cm)" usageType="active"/>
                                    <MiningField name="petal length (cm)" usageType="active"/>
                                    <MiningField name="petal width (cm)" usageType="active"/>
                                </MiningSchema>
                                <Node>
                                    <True/>
                                    <Node>
                                        <SimplePredicate field="petal length (cm)" operator="lessThan" value="3.1500000000000004"/>
                                        <Node score="0.10571167835419658">
                                            <SimplePredicate field="sepal length (cm)" operator="lessThan" value="5.050000000000001"/>
                                        </Node>
                                        <Node score="0.0976743695996144">
                                            <SimplePredicate field="sepal length (cm)" operator="greaterOrEqual" value="5.050000000000001"/>
                                        </Node>
                                    </Node>
                                    <Node>
                                        <SimplePredicate field="petal length (cm)" operator="greaterOrEqual" value="3.1500000000000004"/>
                                        <Node>
                                            <SimplePredicate field="petal length (cm)" operator="lessThan" value="5.150000000000001"/>
                                            <Node score="-0.06791953452856796">
                                                <SimplePredicate field="petal length (cm)" operator="lessThan" value="4.450000000000001"/>
                                            </Node>
                                            <Node score="-0.06823762995902632">
                                                <SimplePredicate field="petal length (cm)" operator="greaterOrEqual" value="4.450000000000001"/>
                                            </Node>
                                        </Node>
                                        <Node score="-0.06741161352906265">
                                            <SimplePredicate field="petal length (cm)" operator="greaterOrEqual" value="5.150000000000001"/>
                                        </Node>
                                    </Node>
                                </Node>
                            </TreeModel>
                        </Segment>
                        <Segment id="5" weight="1">
                            <True/>
                            <TreeModel modelName="DecisionTreeModel" functionName="regression" missingValuePenalty="1.0" noTrueChildStrategy="returnLastPrediction">
                                <MiningSchema>
                                    <MiningField name="sepal length (cm)" usageType="active"/>
                                    <MiningField name="sepal width (cm)" usageType="active"/>
                                    <MiningField name="petal length (cm)" usageType="active"/>
                                    <MiningField name="petal width (cm)" usageType="active"/>
                                </MiningSchema>
                                <Node>
                                    <True/>
                                    <Node>
                                        <SimplePredicate field="petal length (cm)" operator="lessThan" value="3.1500000000000004"/>
                                        <Node score="0.0885123739836667">
                                            <SimplePredicate field="sepal width (cm)" operator="lessThan" value="3.35"/>
                                        </Node>
                                        <Node score="0.09705338096501662">
                                            <SimplePredicate field="sepal width (cm)" operator="greaterOrEqual" value="3.35"/>
                                        </Node>
                                    </Node>
                                    <Node>
                                        <SimplePredicate field="petal length (cm)" operator="greaterOrEqual" value="3.1500000000000004"/>
                                        <Node>
                                            <SimplePredicate field="petal length (cm)" operator="lessThan" value="4.8500000000000005"/>
                                            <Node score="-0.06604124045992033">
                                                <SimplePredicate field="petal length (cm)" operator="lessThan" value="4.450000000000001"/>
                                            </Node>
                                            <Node score="-0.0669440554755732">
                                                <SimplePredicate field="petal length (cm)" operator="greaterOrEqual" value="4.450000000000001"/>
                                            </Node>
                                        </Node>
                                        <Node>
                                            <SimplePredicate field="petal length (cm)" operator="greaterOrEqual" value="4.8500000000000005"/>
                                            <Node score="-0.06583893578942245">
                                                <SimplePredicate field="petal length (cm)" operator="lessThan" value="5.550000000000001"/>
                                            </Node>
                                            <Node score="-0.06554144319959675">
                                                <SimplePredicate field="petal length (cm)" operator="greaterOrEqual" value="5.550000000000001"/>
                                            </Node>
                                        </Node>
                                    </Node>
                                </Node>
                            </TreeModel>
                        </Segment>
                        <Segment id="6" weight="1">
                            <True/>
                            <TreeModel modelName="DecisionTreeModel" functionName="regression" missingValuePenalty="1.0" noTrueChildStrategy="returnLastPrediction">
                                <MiningSchema>
                                    <MiningField name="sepal length (cm)" usageType="active"/>
                                    <MiningField name="sepal width (cm)" usageType="active"/>
                                    <MiningField name="petal length (cm)" usageType="active"/>
                                    <MiningField name="petal width (cm)" usageType="active"/>
                                </MiningSchema>
                                <Node>
                                    <True/>
                                    <Node>
                                        <SimplePredicate field="petal length (cm)" operator="lessThan" value="3.1500000000000004"/>
                                        <Node score="0.08200760155990837">
                                            <SimplePredicate field="sepal width (cm)" operator="lessThan" value="3.35"/>
                                        </Node>
                                        <Node score="0.0903196830079303">
                                            <SimplePredicate field="sepal width (cm)" operator="greaterOrEqual" value="3.35"/>
                                        </Node>
                                    </Node>
                                    <Node>
                                        <SimplePredicate field="petal length (cm)" operator="greaterOrEqual" value="3.1500000000000004"/>
                                        <Node>
                                            <SimplePredicate field="petal length (cm)" operator="lessThan" value="5.150000000000001"/>
                                            <Node score="-0.06444551133038931">
                                                <SimplePredicate field="petal length (cm)" operator="lessThan" value="4.450000000000001"/>
                                            </Node>
                                            <Node score="-0.06492516186700278">
                                                <SimplePredicate field="petal length (cm)" operator="greaterOrEqual" value="4.450000000000001"/>
                                            </Node>
                                        </Node>
                                        <Node score="-0.06388706563236081">
                                            <SimplePredicate field="petal length (cm)" operator="greaterOrEqual" value="5.150000000000001"/>
                                        </Node>
                                    </Node>
                                </Node>
                            </TreeModel>
                        </Segment>
                        <Segment id="7" weight="1">
                            <True/>
                            <TreeModel modelName="DecisionTreeModel" functionName="regression" missingValuePenalty="1.0" noTrueChildStrategy="returnLastPrediction">
                                <MiningSchema>
                                    <MiningField name="sepal length (cm)" usageType="active"/>
                                    <MiningField name="sepal width (cm)" usageType="active"/>
                                    <MiningField name="petal length (cm)" usageType="active"/>
                                    <MiningField name="petal width (cm)" usageType="active"/>
                                </MiningSchema>
                                <Node>
                                    <True/>
                                    <Node>
                                        <SimplePredicate field="petal length (cm)" operator="lessThan" value="3.1500000000000004"/>
                                        <Node score="0.07666637859366533">
                                            <SimplePredicate field="sepal width (cm)" operator="lessThan" value="3.35"/>
                                        </Node>
                                        <Node score="0.08468991425484525">
                                            <SimplePredicate field="sepal width (cm)" operator="greaterOrEqual" value="3.35"/>
                                        </Node>
                                    </Node>
                                    <Node>
                                        <SimplePredicate field="petal length (cm)" operator="greaterOrEqual" value="3.1500000000000004"/>
                                        <Node>
                                            <SimplePredicate field="petal length (cm)" operator="lessThan" value="5.150000000000001"/>
                                            <Node score="-0.0629838213922203">
                                                <SimplePredicate field="petal length (cm)" operator="lessThan" value="4.450000000000001"/>
                                            </Node>
                                            <Node score="-0.06349138854526364">
                                                <SimplePredicate field="petal length (cm)" operator="greaterOrEqual" value="4.450000000000001"/>
                                            </Node>
                                        </Node>
                                        <Node score="-0.06243607947888649">
                                            <SimplePredicate field="petal length (cm)" operator="greaterOrEqual" value="5.150000000000001"/>
                                        </Node>
                                    </Node>
                                </Node>
                            </TreeModel>
                        </Segment>
                        <Segment id="8" weight="1">
                            <True/>
                            <TreeModel modelName="DecisionTreeModel" functionName="regression" missingValuePenalty="1.0" noTrueChildStrategy="returnLastPrediction">
                                <MiningSchema>
                                    <MiningField name="sepal length (cm)" usageType="active"/>
                                    <MiningField name="sepal width (cm)" usageType="active"/>
                                    <MiningField name="petal length (cm)" usageType="active"/>
                                    <MiningField name="petal width (cm)" usageType="active"/>
                                </MiningSchema>
                                <Node>
                                    <True/>
                                    <Node>
                                        <SimplePredicate field="petal length (cm)" operator="lessThan" value="3.1500000000000004"/>
                                        <Node score="0.07191838922637903">
                                            <SimplePredicate field="sepal width (cm)" operator="lessThan" value="3.35"/>
                                        </Node>
                                        <Node score="0.0801746746217736">
                                            <SimplePredicate field="sepal width (cm)" operator="greaterOrEqual" value="3.35"/>
                                        </Node>
                                    </Node>
                                    <Node>
                                        <SimplePredicate field="petal length (cm)" operator="greaterOrEqual" value="3.1500000000000004"/>
                                        <Node>
                                            <SimplePredicate field="petal length (cm)" operator="lessThan" value="5.150000000000001"/>
                                            <Node score="-0.06175702770932609">
                                                <SimplePredicate field="petal length (cm)" operator="lessThan" value="4.450000000000001"/>
                                            </Node>
                                            <Node score="-0.06221656256064574">
                                                <SimplePredicate field="petal length (cm)" operator="greaterOrEqual" value="4.450000000000001"/>
                                            </Node>
                                        </Node>
                                        <Node score="-0.06114443225039672">
                                            <SimplePredicate field="petal length (cm)" operator="greaterOrEqual" value="5.150000000000001"/>
                                        </Node>
                                    </Node>
                                </Node>
                            </TreeModel>
                        </Segment>
                        <Segment id="9" weight="1">
                            <True/>
                            <TreeModel modelName="DecisionTreeModel" functionName="regression" missingValuePenalty="1.0" noTrueChildStrategy="returnLastPrediction">
                                <MiningSchema>
                                    <MiningField name="sepal length (cm)" usageType="active"/>
                                    <MiningField name="sepal width (cm)" usageType="active"/>
                                    <MiningField name="petal length (cm)" usageType="active"/>
                                    <MiningField name="petal width (cm)" usageType="active"/>
                                </MiningSchema>
                                <Node>
                                    <True/>
                                    <Node>
                                        <SimplePredicate field="petal length (cm)" operator="lessThan" value="3.1500000000000004"/>
                                        <Node score="0.07688521229581219">
                                            <SimplePredicate field="sepal length (cm)" operator="lessThan" value="5.050000000000001"/>
                                        </Node>
                                        <Node score="0.06853740506608648">
                                            <SimplePredicate field="sepal length (cm)" operator="greaterOrEqual" value="5.050000000000001"/>
                                        </Node>
                                    </Node>
                                    <Node>
                                        <SimplePredicate field="petal length (cm)" operator="greaterOrEqual" value="3.1500000000000004"/>
                                        <Node>
                                            <SimplePredicate field="petal length (cm)" operator="lessThan" value="5.150000000000001"/>
                                            <Node score="-0.0606505452082467">
                                                <SimplePredicate field="petal width (cm)" operator="lessThan" value="1.4500000000000002"/>
                                            </Node>
                                            <Node score="-0.061194589862031246">
                                                <SimplePredicate field="petal width (cm)" operator="greaterOrEqual" value="1.4500000000000002"/>
                                            </Node>
                                        </Node>
                                        <Node score="-0.06001698958061909">
                                            <SimplePredicate field="petal length (cm)" operator="greaterOrEqual" value="5.150000000000001"/>
                                        </Node>
                                    </Node>
                                </Node>
                            </TreeModel>
                        </Segment>
                        <Segment id="10" weight="1">
                            <True/>
                            <TreeModel modelName="DecisionTreeModel" functionName="regression" missingValuePenalty="1.0" noTrueChildStrategy="returnLastPrediction">
                                <MiningSchema>
                                    <MiningField name="sepal length (cm)" usageType="active"/>
                                    <MiningField name="sepal width (cm)" usageType="active"/>
                                    <MiningField name="petal length (cm)" usageType="active"/>
                                    <MiningField name="petal width (cm)" usageType="active"/>
                                </MiningSchema>
                                <Node>
                                    <True/>
                                    <Node>
                                        <SimplePredicate field="petal length (cm)" operator="lessThan" value="3.1500000000000004"/>
                                        <Node score="0.06445099641029046">
                                            <SimplePredicate field="sepal width (cm)" operator="lessThan" value="3.35"/>
                                        </Node>
                                        <Node score="0.07330602737352108">
                                            <SimplePredicate field="sepal width (cm)" operator="greaterOrEqual" value="3.35"/>
                                        </Node>
                                    </Node>
                                    <Node>
                                        <SimplePredicate field="petal length (cm)" operator="greaterOrEqual" value="3.1500000000000004"/>
                                        <Node>
                                            <SimplePredicate field="petal length (cm)" operator="lessThan" value="5.150000000000001"/>
                                            <Node score="-0.059644618323084535">
                                                <SimplePredicate field="petal width (cm)" operator="lessThan" value="1.4500000000000002"/>
                                            </Node>
                                            <Node score="-0.06022771642371166">
                                                <SimplePredicate field="petal width (cm)" operator="greaterOrEqual" value="1.4500000000000002"/>
                                            </Node>
                                        </Node>
                                        <Node score="-0.058975875639030166">
                                            <SimplePredicate field="petal length (cm)" operator="greaterOrEqual" value="5.150000000000001"/>
                                        </Node>
                                    </Node>
                                </Node>
                            </TreeModel>
                        </Segment>
                        <Segment id="11" weight="1">
                            <True/>
                            <TreeModel modelName="DecisionTreeModel" functionName="regression" missingValuePenalty="1.0" noTrueChildStrategy="returnLastPrediction">
                                <MiningSchema>
                                    <MiningField name="sepal length (cm)" usageType="active"/>
                                    <MiningField name="sepal width (cm)" usageType="active"/>
                                    <MiningField name="petal length (cm)" usageType="active"/>
                                    <MiningField name="petal width (cm)" usageType="active"/>
                                </MiningSchema>
                                <Node>
                                    <True/>
                                    <Node>
                                        <SimplePredicate field="petal length (cm)" operator="lessThan" value="3.1500000000000004"/>
                                        <Node score="0.06152656083069533">
                                            <SimplePredicate field="sepal width (cm)" operator="lessThan" value="3.35"/>
                                        </Node>
                                        <Node score="0.07053055980580857">
                                            <SimplePredicate field="sepal width (cm)" operator="greaterOrEqual" value="3.35"/>
                                        </Node>
                                    </Node>
                                    <Node>
                                        <SimplePredicate field="petal length (cm)" operator="greaterOrEqual" value="3.1500000000000004"/>
                                        <Node>
                                            <SimplePredicate field="petal length (cm)" operator="lessThan" value="5.150000000000001"/>
                                            <Node score="-0.058712110546361676">
                                                <SimplePredicate field="petal width (cm)" operator="lessThan" value="1.4500000000000002"/>
                                            </Node>
                                            <Node score="-0.05929777532116649">
                                                <SimplePredicate field="petal width (cm)" operator="greaterOrEqual" value="1.4500000000000002"/>
                                            </Node>
                                        </Node>
                                        <Node score="-0.0581062975394608">
                                            <SimplePredicate field="petal length (cm)" operator="greaterOrEqual" value="5.150000000000001"/>
                                        </Node>
                                    </Node>
                                </Node>
                            </TreeModel>
                        </Segment>
                        <Segment id="12" weight="1">
                            <True/>
                            <TreeModel modelName="DecisionTreeModel" functionName="regression" missingValuePenalty="1.0" noTrueChildStrategy="returnLastPrediction">
                                <MiningSchema>
                                    <MiningField name="sepal length (cm)" usageType="active"/>
                                    <MiningField name="sepal width (cm)" usageType="active"/>
                                    <MiningField name="petal length (cm)" usageType="active"/>
                                    <MiningField name="petal width (cm)" usageType="active"/>
                                </MiningSchema>
                                <Node>
                                    <True/>
                                    <Node>
                                        <SimplePredicate field="petal length (cm)" operator="lessThan" value="3.1500000000000004"/>
                                        <Node score="0.05874431043379037">
                                            <SimplePredicate field="sepal width (cm)" operator="lessThan" value="3.35"/>
                                        </Node>
                                        <Node score="0.06826738705249365">
                                            <SimplePredicate field="sepal width (cm)" operator="greaterOrEqual" value="3.35"/>
                                        </Node>
                                    </Node>
                                    <Node>
                                        <SimplePredicate field="petal length (cm)" operator="greaterOrEqual" value="3.1500000000000004"/>
                                        <Node>
                                            <SimplePredicate field="petal length (cm)" operator="lessThan" value="5.150000000000001"/>
                                            <Node score="-0.0578114096108566">
                                                <SimplePredicate field="petal length (cm)" operator="lessThan" value="4.450000000000001"/>
                                            </Node>
                                            <Node score="-0.058484199806111095">
                                                <SimplePredicate field="petal length (cm)" operator="greaterOrEqual" value="4.450000000000001"/>
                                            </Node>
                                        </Node>
                                        <Node score="-0.0572932131010143">
                                            <SimplePredicate field="petal length (cm)" operator="greaterOrEqual" value="5.150000000000001"/>
                                        </Node>
                                    </Node>
                                </Node>
                            </TreeModel>
                        </Segment>
                        <Segment id="13" weight="1">
                            <True/>
                            <TreeModel modelName="DecisionTreeModel" functionName="regression" missingValuePenalty="1.0" noTrueChildStrategy="returnLastPrediction">
                                <MiningSchema>
                                    <MiningField name="sepal length (cm)" usageType="active"/>
                                    <MiningField name="sepal width (cm)" usageType="active"/>
                                    <MiningField name="petal length (cm)" usageType="active"/>
                                    <MiningField name="petal width (cm)" usageType="active"/>
                                </MiningSchema>
                                <Node>
                                    <True/>
                                    <Node>
                                        <SimplePredicate field="petal length (cm)" operator="lessThan" value="3.1500000000000004"/>
                                        <Node score="0.056397017745057655">
                                            <SimplePredicate field="sepal width (cm)" operator="lessThan" value="3.35"/>
                                        </Node>
                                        <Node score="0.06622018503041922">
                                            <SimplePredicate field="sepal width (cm)" operator="greaterOrEqual" value="3.35"/>
                                        </Node>
                                    </Node>
                                    <Node>
                                        <SimplePredicate field="petal length (cm)" operator="greaterOrEqual" value="3.1500000000000004"/>
                                        <Node>
                                            <SimplePredicate field="petal length (cm)" operator="lessThan" value="5.150000000000001"/>
                                            <Node score="-0.05713102136232171">
                                                <SimplePredicate field="petal width (cm)" operator="lessThan" value="1.4500000000000002"/>
                                            </Node>
                                            <Node score="-0.05778912311028426">
                                                <SimplePredicate field="petal width (cm)" operator="greaterOrEqual" value="1.4500000000000002"/>
                                            </Node>
                                        </Node>
                                        <Node score="-0.05660582345916946">
                                            <SimplePredicate field="petal length (cm)" operator="greaterOrEqual" value="5.150000000000001"/>
                                        </Node>
                                    </Node>
                                </Node>
                            </TreeModel>
                        </Segment>
                        <Segment id="14" weight="1">
                            <True/>
                            <TreeModel modelName="DecisionTreeModel" functionName="regression" missingValuePenalty="1.0" noTrueChildStrategy="returnLastPrediction">
                                <MiningSchema>
                                    <MiningField name="sepal length (cm)" usageType="active"/>
                                    <MiningField name="sepal width (cm)" usageType="active"/>
                                    <MiningField name="petal length (cm)" usageType="active"/>
                                    <MiningField name="petal width (cm)" usageType="active"/>
                                </MiningSchema>
                                <Node>
                                    <True/>
                                    <Node>
                                        <SimplePredicate field="petal length (cm)" operator="lessThan" value="3.1500000000000004"/>
                                        <Node score="0.0540912486435481">
                                            <SimplePredicate field="sepal width (cm)" operator="lessThan" value="3.35"/>
                                        </Node>
                                        <Node score="0.06455327930296938">
                                            <SimplePredicate field="sepal width (cm)" operator="greaterOrEqual" value="3.35"/>
                                        </Node>
                                    </Node>
                                    <Node>
                                        <SimplePredicate field="petal length (cm)" operator="greaterOrEqual" value="3.1500000000000004"/>
                                        <Node>
                                            <SimplePredicate field="petal length (cm)" operator="lessThan" value="5.150000000000001"/>
                                            <Node score="-0.05643311113180591">
                                                <SimplePredicate field="petal width (cm)" operator="lessThan" value="1.4500000000000002"/>
                                            </Node>
                                            <Node score="-0.057211598096031296">
                                                <SimplePredicate field="petal width (cm)" operator="greaterOrEqual" value="1.4500000000000002"/>
                                            </Node>
                                        </Node>
                                        <Node score="-0.05595452924501498">
                                            <SimplePredicate field="petal length (cm)" operator="greaterOrEqual" value="5.150000000000001"/>
                                        </Node>
                                    </Node>
                                </Node>
                            </TreeModel>
                        </Segment>
                        <Segment id="15" weight="1">
                            <True/>
                            <TreeModel modelName="DecisionTreeModel" functionName="regression" missingValuePenalty="1.0" noTrueChildStrategy="returnLastPrediction">
                                <MiningSchema>
                                    <MiningField name="sepal length (cm)" usageType="active"/>
                                    <MiningField name="sepal width (cm)" usageType="active"/>
                                    <MiningField name="petal length (cm)" usageType="active"/>
                                    <MiningField name="petal width (cm)" usageType="active"/>
                                </MiningSchema>
                                <Node>
                                    <True/>
                                    <Node>
                                        <SimplePredicate field="petal length (cm)" operator="lessThan" value="3.1500000000000004"/>
                                        <Node score="0.06344410438890283">
                                            <SimplePredicate field="sepal length (cm)" operator="lessThan" value="5.050000000000001"/>
                                        </Node>
                                        <Node score="0.05274630341632704">
                                            <SimplePredicate field="sepal length (cm)" operator="greaterOrEqual" value="5.050000000000001"/>
                                        </Node>
                                    </Node>
                                    <Node>
                                        <SimplePredicate field="petal length (cm)" operator="greaterOrEqual" value="3.1500000000000004"/>
                                        <Node>
                                            <SimplePredicate field="petal length (cm)" operator="lessThan" value="5.150000000000001"/>
                                            <Node score="-0.05580990188629825">
                                                <SimplePredicate field="petal width (cm)" operator="lessThan" value="1.4500000000000002"/>
                                            </Node>
                                            <Node score="-0.056702377332111024">
                                                <SimplePredicate field="petal width (cm)" operator="greaterOrEqual" value="1.4500000000000002"/>
                                            </Node>
                                        </Node>
                                        <Node score="-0.05535760342987675">
                                            <SimplePredicate field="petal length (cm)" operator="greaterOrEqual" value="5.150000000000001"/>
                                        </Node>
                                    </Node>
                                </Node>
                            </TreeModel>
                        </Segment>
                        <Segment id="16" weight="1">
                            <True/>
                            <TreeModel modelName="DecisionTreeModel" functionName="regression" missingValuePenalty="1.0" noTrueChildStrategy="returnLastPrediction">
                                <MiningSchema>
                                    <MiningField name="sepal length (cm)" usageType="active"/>
                                    <MiningField name="sepal width (cm)" usageType="active"/>
                                    <MiningField name="petal length (cm)" usageType="active"/>
                                    <MiningField name="petal width (cm)" usageType="active"/>
                                </MiningSchema>
                                <Node>
                                    <True/>
                                    <Node>
                                        <SimplePredicate field="petal length (cm)" operator="lessThan" value="3.1500000000000004"/>
                                        <Node score="0.05005131334408203">
                                            <SimplePredicate field="sepal width (cm)" operator="lessThan" value="3.35"/>
                                        </Node>
                                        <Node score="0.06183910380567569">
                                            <SimplePredicate field="sepal width (cm)" operator="greaterOrEqual" value="3.35"/>
                                        </Node>
                                    </Node>
                                    <Node>
                                        <SimplePredicate field="petal length (cm)" operator="greaterOrEqual" value="3.1500000000000004"/>
                                        <Node>
                                            <SimplePredicate field="petal length (cm)" operator="lessThan" value="5.150000000000001"/>
                                            <Node score="-0.05527042517954938">
                                                <SimplePredicate field="petal width (cm)" operator="lessThan" value="1.4500000000000002"/>
                                            </Node>
                                            <Node score="-0.05613842293993143">
                                                <SimplePredicate field="petal width (cm)" operator="greaterOrEqual" value="1.4500000000000002"/>
                                            </Node>
                                        </Node>
                                        <Node score="-0.05487406229368172">
                                            <SimplePredicate field="petal length (cm)" operator="greaterOrEqual" value="5.150000000000001"/>
                                        </Node>
                                    </Node>
                                </Node>
                            </TreeModel>
                        </Segment>
                        <Segment id="17" weight="1">
                            <True/>
                            <TreeModel modelName="DecisionTreeModel" functionName="regression" missingValuePenalty="1.0" noTrueChildStrategy="returnLastPrediction">
                                <MiningSchema>
                                    <MiningField name="sepal length (cm)" usageType="active"/>
                                    <MiningField name="sepal width (cm)" usageType="active"/>
                                    <MiningField name="petal length (cm)" usageType="active"/>
                                    <MiningField name="petal width (cm)" usageType="active"/>
                                </MiningSchema>
                                <Node>
                                    <True/>
                                    <Node>
                                        <SimplePredicate field="petal length (cm)" operator="lessThan" value="3.1500000000000004"/>
                                        <Node score="0.048328501368991535">
                                            <SimplePredicate field="sepal width (cm)" operator="lessThan" value="3.35"/>
                                        </Node>
                                        <Node score="0.0606373373924645">
                                            <SimplePredicate field="sepal width (cm)" operator="greaterOrEqual" value="3.35"/>
                                        </Node>
                                    </Node>
                                    <Node>
                                        <SimplePredicate field="petal length (cm)" operator="greaterOrEqual" value="3.1500000000000004"/>
                                        <Node>
                                            <SimplePredicate field="petal length (cm)" operator="lessThan" value="5.150000000000001"/>
                                            <Node score="-0.05476350752355424">
                                                <SimplePredicate field="petal width (cm)" operator="lessThan" value="1.4500000000000002"/>
                                            </Node>
                                            <Node score="-0.05571051489702061">
                                                <SimplePredicate field="petal width (cm)" operator="greaterOrEqual" value="1.4500000000000002"/>
                                            </Node>
                                        </Node>
                                        <Node score="-0.05440338068905479">
                                            <SimplePredicate field="petal length (cm)" operator="greaterOrEqual" value="5.150000000000001"/>
                                        </Node>
                                    </Node>
                                </Node>
                            </TreeModel>
                        </Segment>
                        <Segment id="18" weight="1">
                            <True/>
                            <TreeModel modelName="DecisionTreeModel" functionName="regression" missingValuePenalty="1.0" noTrueChildStrategy="returnLastPrediction">
                                <MiningSchema>
                                    <MiningField name="sepal length (cm)" usageType="active"/>
                                    <MiningField name="sepal width (cm)" usageType="active"/>
                                    <MiningField name="petal length (cm)" usageType="active"/>
                                    <MiningField name="petal width (cm)" usageType="active"/>
                                </MiningSchema>
                                <Node>
                                    <True/>
                                    <Node>
                                        <SimplePredicate field="petal length (cm)" operator="lessThan" value="3.1500000000000004"/>
                                        <Node score="0.04650947908407855">
                                            <SimplePredicate field="sepal width (cm)" operator="lessThan" value="3.35"/>
                                        </Node>
                                        <Node score="0.05967442400541443">
                                            <SimplePredicate field="sepal width (cm)" operator="greaterOrEqual" value="3.35"/>
                                        </Node>
                                    </Node>
                                    <Node>
                                        <SimplePredicate field="petal length (cm)" operator="greaterOrEqual" value="3.1500000000000004"/>
                                        <Node>
                                            <SimplePredicate field="petal length (cm)" operator="lessThan" value="5.150000000000001"/>
                                            <Node score="-0.054306123339789694">
                                                <SimplePredicate field="petal width (cm)" operator="lessThan" value="1.4500000000000002"/>
                                            </Node>
                                            <Node score="-0.05525160003962887">
                                                <SimplePredicate field="petal width (cm)" operator="greaterOrEqual" value="1.4500000000000002"/>
                                            </Node>
                                        </Node>
                                        <Node score="-0.054034515274727135">
                                            <SimplePredicate field="petal length (cm)" operator="greaterOrEqual" value="5.150000000000001"/>
                                        </Node>
                                    </Node>
                                </Node>
                            </TreeModel>
                        </Segment>
                        <Segment id="19" weight="1">
                            <True/>
                            <TreeModel modelName="DecisionTreeModel" functionName="regression" missingValuePenalty="1.0" noTrueChildStrategy="returnLastPrediction">
                                <MiningSchema>
                                    <MiningField name="sepal length (cm)" usageType="active"/>
                                    <MiningField name="sepal width (cm)" usageType="active"/>
                                    <MiningField name="petal length (cm)" usageType="active"/>
                                    <MiningField name="petal width (cm)" usageType="active"/>
                                </MiningSchema>
                                <Node>
                                    <True/>
                                    <Node>
                                        <SimplePredicate field="petal length (cm)" operator="lessThan" value="1.8"/>
                                        <Node score="0.05800755449002756">
                                            <SimplePredicate field="petal length (cm)" operator="lessThan" value="1.4500000000000002"/>
                                        </Node>
                                        <Node score="0.05900427934632523">
                                            <SimplePredicate field="petal length (cm)" operator="greaterOrEqual" value="1.4500000000000002"/>
                                        </Node>
                                    </Node>
                                    <Node>
                                        <SimplePredicate field="petal length (cm)" operator="greaterOrEqual" value="1.8"/>
                                        <Node>
                                            <SimplePredicate field="sepal width (cm)" operator="lessThan" value="3.150000000000001"/>
                                            <Node score="-0.06002260693475408">
                                                <SimplePredicate field="sepal width (cm)" operator="lessThan" value="2.650000000000001"/>
                                            </Node>
                                            <Node>
                                                <SimplePredicate field="sepal width (cm)" operator="greaterOrEqual" value="2.650000000000001"/>
                                                <Node score="-0.054389908697279714">
                                                    <SimplePredicate field="sepal length (cm)" operator="lessThan" value="6.3500000000000005"/>
                                                </Node>
                                                <Node score="-0.05388904658410755">
                                                    <SimplePredicate field="sepal length (cm)" operator="greaterOrEqual" value="6.3500000000000005"/>
                                                </Node>
                                            </Node>
                                        </Node>
                                        <Node score="-0.025793717960438237">
                                            <SimplePredicate field="sepal width (cm)" operator="greaterOrEqual" value="3.150000000000001"/>
                                        </Node>
                                    </Node>
                                </Node>
                            </TreeModel>
                        </Segment>
                        <Segment id="20" weight="1">
                            <True/>
                            <TreeModel modelName="DecisionTreeModel" functionName="regression" missingValuePenalty="1.0" noTrueChildStrategy="returnLastPrediction">
                                <MiningSchema>
                                    <MiningField name="sepal length (cm)" usageType="active"/>
                                    <MiningField name="sepal width (cm)" usageType="active"/>
                                    <MiningField name="petal length (cm)" usageType="active"/>
                                    <MiningField name="petal width (cm)" usageType="active"/>
                                </MiningSchema>
                                <Node>
                                    <True/>
                                    <Node>
                                        <SimplePredicate field="petal width (cm)" operator="lessThan" value="1.0500000000000003"/>
                                        <Node score="0.03771451810199671">
                                            <SimplePredicate field="sepal width (cm)" operator="lessThan" value="3.2500000000000004"/>
                                        </Node>
                                        <Node score="0.05860257560946505">
                                            <SimplePredicate field="sepal width (cm)" operator="greaterOrEqual" value="3.2500000000000004"/>
                                        </Node>
                                    </Node>
                                    <Node>
                                        <SimplePredicate field="petal width (cm)" operator="greaterOrEqual" value="1.0500000000000003"/>
                                        <Node score="-0.059806277230620764">
                                            <SimplePredicate field="petal width (cm)" operator="lessThan" value="1.3500000000000003"/>
                                        </Node>
                                        <Node>
                                            <SimplePredicate field="petal width (cm)" operator="greaterOrEqual" value="1.3500000000000003"/>
                                            <Node score="-0.054397326824175675">
                                                <SimplePredicate field="petal length (cm)" operator="lessThan" value="5.150000000000001"/>
                                            </Node>
                                            <Node score="-0.05336731842254199">
                                                <SimplePredicate field="petal length (cm)" operator="greaterOrEqual" value="5.150000000000001"/>
                                            </Node>
                                        </Node>
                                    </Node>
                                </Node>
                            </TreeModel>
                        </Segment>
                        <Segment id="21" weight="1">
                            <True/>
                            <TreeModel modelName="DecisionTreeModel" functionName="regression" missingValuePenalty="1.0" noTrueChildStrategy="returnLastPrediction">
                                <MiningSchema>
                                    <MiningField name="sepal length (cm)" usageType="active"/>
                                    <MiningField name="sepal width (cm)" usageType="active"/>
                                    <MiningField name="petal length (cm)" usageType="active"/>
                                    <MiningField name="petal width (cm)" usageType="active"/>
                                </MiningSchema>
                                <Node>
                                    <True/>
                                    <Node>
                                        <SimplePredicate field="petal length (cm)" operator="lessThan" value="3.1500000000000004"/>
                                        <Node score="0.04272127444609509">
                                            <SimplePredicate field="sepal width (cm)" operator="lessThan" value="3.35"/>
                                        </Node>
                                        <Node score="0.05739808758889943">
                                            <SimplePredicate field="sepal width (cm)" operator="greaterOrEqual" value="3.35"/>
                                        </Node>
                                    </Node>
                                    <Node>
                                        <SimplePredicate field="petal length (cm)" operator="greaterOrEqual" value="3.1500000000000004"/>
                                        <Node>
                                            <SimplePredicate field="petal length (cm)" operator="lessThan" value="5.150000000000001"/>
                                            <Node score="-0.05325477165506734">
                                                <SimplePredicate field="petal width (cm)" operator="lessThan" value="1.4500000000000002"/>
                                            </Node>
                                            <Node score="-0.05424686233532103">
                                                <SimplePredicate field="petal width (cm)" operator="greaterOrEqual" value="1.4500000000000002"/>
                                            </Node>
                                        </Node>
                                        <Node score="-0.05305094758339884">
                                            <SimplePredicate field="petal length (cm)" operator="greaterOrEqual" value="5.150000000000001"/>
                                        </Node>
                                    </Node>
                                </Node>
                            </TreeModel>
                        </Segment>
                        <Segment id="22" weight="1">
                            <True/>
                            <TreeModel modelName="DecisionTreeModel" functionName="regression" missingValuePenalty="1.0" noTrueChildStrategy="returnLastPrediction">
                                <MiningSchema>
                                    <MiningField name="sepal length (cm)" usageType="active"/>
                                    <MiningField name="sepal width (cm)" usageType="active"/>
                                    <MiningField name="petal length (cm)" usageType="active"/>
                                    <MiningField name="petal width (cm)" usageType="active"/>
                                </MiningSchema>
                                <Node>
                                    <True/>
                                    <Node>
                                        <SimplePredicate field="petal width (cm)" operator="lessThan" value="1.0500000000000003"/>
                                        <Node score="0.03592224014540209">
                                            <SimplePredicate field="sepal width (cm)" operator="lessThan" value="3.2500000000000004"/>
                                        </Node>
                                        <Node score="0.05725796246458157">
                                            <SimplePredicate field="sepal width (cm)" operator="greaterOrEqual" value="3.2500000000000004"/>
                                        </Node>
                                    </Node>
                                    <Node>
                                        <SimplePredicate field="petal width (cm)" operator="greaterOrEqual" value="1.0500000000000003"/>
                                        <Node score="-0.05939394801463676">
                                            <SimplePredicate field="petal width (cm)" operator="lessThan" value="1.3500000000000003"/>
                                        </Node>
                                        <Node>
                                            <SimplePredicate field="petal width (cm)" operator="greaterOrEqual" value="1.3500000000000003"/>
                                            <Node score="-0.0537841293943459">
                                                <SimplePredicate field="petal length (cm)" operator="lessThan" value="5.150000000000001"/>
                                            </Node>
                                            <Node score="-0.052815797561967186">
                                                <SimplePredicate field="petal length (cm)" operator="greaterOrEqual" value="5.150000000000001"/>
                                            </Node>
                                        </Node>
                                    </Node>
                                </Node>
                            </TreeModel>
                        </Segment>
                        <Segment id="23" weight="1">
                            <True/>
                            <TreeModel modelName="DecisionTreeModel" functionName="regression" missingValuePenalty="1.0" noTrueChildStrategy="returnLastPrediction">
                                <MiningSchema>
                                    <MiningField name="sepal length (cm)" usageType="active"/>
                                    <MiningField name="sepal width (cm)" usageType="active"/>
                                    <MiningField name="petal length (cm)" usageType="active"/>
                                    <MiningField name="petal width (cm)" usageType="active"/>
                                </MiningSchema>
                                <Node>
                                    <True/>
                                    <Node>
                                        <SimplePredicate field="petal length (cm)" operator="lessThan" value="3.1500000000000004"/>
                                        <Node score="0.04026088242575834">
                                            <SimplePredicate field="sepal width (cm)" operator="lessThan" value="3.35"/>
                                        </Node>
                                        <Node score="0.05621952358513815">
                                            <SimplePredicate field="sepal width (cm)" operator="greaterOrEqual" value="3.35"/>
                                        </Node>
                                    </Node>
                                    <Node>
                                        <SimplePredicate field="petal length (cm)" operator="greaterOrEqual" value="3.1500000000000004"/>
                                        <Node>
                                            <SimplePredicate field="petal length (cm)" operator="lessThan" value="5.150000000000001"/>
                                            <Node score="-0.05277664777396697">
                                                <SimplePredicate field="petal width (cm)" operator="lessThan" value="1.4500000000000002"/>
                                            </Node>
                                            <Node score="-0.05360455929204166">
                                                <SimplePredicate field="petal width (cm)" operator="greaterOrEqual" value="1.4500000000000002"/>
                                            </Node>
                                        </Node>
                                        <Node score="-0.0526056179627403">
                                            <SimplePredicate field="petal length (cm)" operator="greaterOrEqual" value="5.150000000000001"/>
                                        </Node>
                                    </Node>
                                </Node>
                            </TreeModel>
                        </Segment>
                        <Segment id="24" weight="1">
                            <True/>
                            <TreeModel modelName="DecisionTreeModel" functionName="regression" missingValuePenalty="1.0" noTrueChildStrategy="returnLastPrediction">
                                <MiningSchema>
                                    <MiningField name="sepal length (cm)" usageType="active"/>
                                    <MiningField name="sepal width (cm)" usageType="active"/>
                                    <MiningField name="petal length (cm)" usageType="active"/>
                                    <MiningField name="petal width (cm)" usageType="active"/>
                                </MiningSchema>
                                <Node>
                                    <True/>
                                    <Node>
                                        <SimplePredicate field="petal width (cm)" operator="lessThan" value="0.45000000000000007"/>
                                        <Node score="0.05480040464201328">
                                            <SimplePredicate field="petal length (cm)" operator="lessThan" value="1.4500000000000002"/>
                                        </Node>
                                        <Node score="0.05590806880196876">
                                            <SimplePredicate field="petal length (cm)" operator="greaterOrEqual" value="1.4500000000000002"/>
                                        </Node>
                                    </Node>
                                    <Node>
                                        <SimplePredicate field="petal width (cm)" operator="greaterOrEqual" value="0.45000000000000007"/>
                                        <Node>
                                            <SimplePredicate field="sepal width (cm)" operator="lessThan" value="3.150000000000001"/>
                                            <Node score="-0.05865361366221747">
                                                <SimplePredicate field="sepal width (cm)" operator="lessThan" value="2.650000000000001"/>
                                            </Node>
                                            <Node>
                                                <SimplePredicate field="sepal width (cm)" operator="greaterOrEqual" value="2.650000000000001"/>
                                                <Node score="-0.052924275431921075">
                                                    <SimplePredicate field="sepal length (cm)" operator="lessThan" value="6.3500000000000005"/>
                                                </Node>
                                                <Node score="-0.052522395862732434">
                                                    <SimplePredicate field="sepal length (cm)" operator="greaterOrEqual" value="6.3500000000000005"/>
                                                </Node>
                                            </Node>
                                        </Node>
                                        <Node score="-0.02134643401022135">
                                            <SimplePredicate field="sepal width (cm)" operator="greaterOrEqual" value="3.150000000000001"/>
                                        </Node>
                                    </Node>
                                </Node>
                            </TreeModel>
                        </Segment>
                        <Segment id="25" weight="1">
                            <True/>
                            <TreeModel modelName="DecisionTreeModel" functionName="regression" missingValuePenalty="1.0" noTrueChildStrategy="returnLastPrediction">
                                <MiningSchema>
                                    <MiningField name="sepal length (cm)" usageType="active"/>
                                    <MiningField name="sepal width (cm)" usageType="active"/>
                                    <MiningField name="petal length (cm)" usageType="active"/>
                                    <MiningField name="petal width (cm)" usageType="active"/>
                                </MiningSchema>
                                <Node>
                                    <True/>
                                    <Node>
                                        <SimplePredicate field="petal width (cm)" operator="lessThan" value="1.0500000000000003"/>
                                        <Node score="0.03309431234958918">
                                            <SimplePredicate field="sepal width (cm)" operator="lessThan" value="3.2500000000000004"/>
                                        </Node>
                                        <Node score="0.05589452693644975">
                                            <SimplePredicate field="sepal width (cm)" operator="greaterOrEqual" value="3.2500000000000004"/>
                                        </Node>
                                    </Node>
                                    <Node>
                                        <SimplePredicate field="petal width (cm)" operator="greaterOrEqual" value="1.0500000000000003"/>
                                        <Node score="-0.058850479466713596">
                                            <SimplePredicate field="petal width (cm)" operator="lessThan" value="1.3500000000000003"/>
                                        </Node>
                                        <Node>
                                            <SimplePredicate field="petal width (cm)" operator="greaterOrEqual" value="1.3500000000000003"/>
                                            <Node score="-0.05301019033357906">
                                                <SimplePredicate field="petal width (cm)" operator="lessThan" value="1.8500000000000003"/>
                                            </Node>
                                            <Node score="-0.052206211524413175">
                                                <SimplePredicate field="petal width (cm)" operator="greaterOrEqual" value="1.8500000000000003"/>
                                            </Node>
                                        </Node>
                                    </Node>
                                </Node>
                            </TreeModel>
                        </Segment>
                        <Segment id="26" weight="1">
                            <True/>
                            <TreeModel modelName="DecisionTreeModel" functionName="regression" missingValuePenalty="1.0" noTrueChildStrategy="returnLastPrediction">
                                <MiningSchema>
                                    <MiningField name="sepal length (cm)" usageType="active"/>
                                    <MiningField name="sepal width (cm)" usageType="active"/>
                                    <MiningField name="petal length (cm)" usageType="active"/>
                                    <MiningField name="petal width (cm)" usageType="active"/>
                                </MiningSchema>
                                <Node>
                                    <True/>
                                    <Node>
                                        <SimplePredicate field="petal width (cm)" operator="lessThan" value="1.0500000000000003"/>
                                        <Node score="0.03121122065153761">
                                            <SimplePredicate field="sepal width (cm)" operator="lessThan" value="3.2500000000000004"/>
                                        </Node>
                                        <Node score="0.05546680789253251">
                                            <SimplePredicate field="sepal width (cm)" operator="greaterOrEqual" value="3.2500000000000004"/>
                                        </Node>
                                    </Node>
                                    <Node>
                                        <SimplePredicate field="petal width (cm)" operator="greaterOrEqual" value="1.0500000000000003"/>
                                        <Node score="-0.05849728391775713">
                                            <SimplePredicate field="petal width (cm)" operator="lessThan" value="1.3500000000000003"/>
                                        </Node>
                                        <Node>
                                            <SimplePredicate field="petal width (cm)" operator="greaterOrEqual" value="1.3500000000000003"/>
                                            <Node score="-0.05278968276914725">
                                                <SimplePredicate field="petal length (cm)" operator="lessThan" value="5.150000000000001"/>
                                            </Node>
                                            <Node score="-0.05200361822987372">
                                                <SimplePredicate field="petal length (cm)" operator="greaterOrEqual" value="5.150000000000001"/>
                                            </Node>
                                        </Node>
                                    </Node>
                                </Node>
                            </TreeModel>
                        </Segment>
                        <Segment id="27" weight="1">
                            <True/>
                            <TreeModel modelName="DecisionTreeModel" functionName="regression" missingValuePenalty="1.0" noTrueChildStrategy="returnLastPrediction">
                                <MiningSchema>
                                    <MiningField name="sepal length (cm)" usageType="active"/>
                                    <MiningField name="sepal width (cm)" usageType="active"/>
                                    <MiningField name="petal length (cm)" usageType="active"/>
                                    <MiningField name="petal width (cm)" usageType="active"/>
                                </MiningSchema>
                                <Node>
                                    <True/>
                                    <Node>
                                        <SimplePredicate field="petal length (cm)" operator="lessThan" value="1.8"/>
                                        <Node score="0.05357982051261746">
                                            <SimplePredicate field="petal length (cm)" operator="lessThan" value="1.4500000000000002"/>
                                        </Node>
                                        <Node score="0.05478262811071827">
                                            <SimplePredicate field="petal length (cm)" operator="greaterOrEqual" value="1.4500000000000002"/>
                                        </Node>
                                    </Node>
                                    <Node>
                                        <SimplePredicate field="petal length (cm)" operator="greaterOrEqual" value="1.8"/>
                                        <Node>
                                            <SimplePredicate field="sepal width (cm)" operator="lessThan" value="3.150000000000001"/>
                                            <Node score="-0.057159419631521616">
                                                <SimplePredicate field="sepal width (cm)" operator="lessThan" value="2.650000000000001"/>
                                            </Node>
                                            <Node>
                                                <SimplePredicate field="sepal width (cm)" operator="greaterOrEqual" value="2.650000000000001"/>
                                                <Node score="-0.051907739895708016">
                                                    <SimplePredicate field="petal width (cm)" operator="lessThan" value="1.4500000000000002"/>
                                                </Node>
                                                <Node score="-0.05228518657089029">
                                                    <SimplePredicate field="petal width (cm)" operator="greaterOrEqual" value="1.4500000000000002"/>
                                                </Node>
                                            </Node>
                                        </Node>
                                        <Node score="-0.01912262944877471">
                                            <SimplePredicate field="sepal width (cm)" operator="greaterOrEqual" value="3.150000000000001"/>
                                        </Node>
                                    </Node>
                                </Node>
                            </TreeModel>
                        </Segment>
                        <Segment id="28" weight="1">
                            <True/>
                            <TreeModel modelName="DecisionTreeModel" functionName="regression" missingValuePenalty="1.0" noTrueChildStrategy="returnLastPrediction">
                                <MiningSchema>
                                    <MiningField name="sepal length (cm)" usageType="active"/>
                                    <MiningField name="sepal width (cm)" usageType="active"/>
                                    <MiningField name="petal length (cm)" usageType="active"/>
                                    <MiningField name="petal width (cm)" usageType="active"/>
                                </MiningSchema>
                                <Node>
                                    <True/>
                                    <Node>
                                        <SimplePredicate field="petal width (cm)" operator="lessThan" value="1.0500000000000003"/>
                                        <Node score="0.029400619780275784">
                                            <SimplePredicate field="sepal width (cm)" operator="lessThan" value="3.2500000000000004"/>
                                        </Node>
                                        <Node score="0.05486470576219293">
                                            <SimplePredicate field="sepal width (cm)" operator="greaterOrEqual" value="3.2500000000000004"/>
                                        </Node>
                                    </Node>
                                    <Node>
                                        <SimplePredicate field="petal width (cm)" operator="greaterOrEqual" value="1.0500000000000003"/>
                                        <Node score="-0.05756587839804378">
                                            <SimplePredicate field="petal width (cm)" operator="lessThan" value="1.3500000000000003"/>
                                        </Node>
                                        <Node>
                                            <SimplePredicate field="petal width (cm)" operator="greaterOrEqual" value="1.3500000000000003"/>
                                            <Node score="-0.05243542356918468">
                                                <SimplePredicate field="petal width (cm)" operator="lessThan" value="1.8500000000000003"/>
                                            </Node>
                                            <Node score="-0.05171154371364848">
                                                <SimplePredicate field="petal width (cm)" operator="greaterOrEqual" value="1.8500000000000003"/>
                                            </Node>
                                        </Node>
                                    </Node>
                                </Node>
                            </TreeModel>
                        </Segment>
                        <Segment id="29" weight="1">
                            <True/>
                            <TreeModel modelName="DecisionTreeModel" functionName="regression" missingValuePenalty="1.0" noTrueChildStrategy="returnLastPrediction">
                                <MiningSchema>
                                    <MiningField name="sepal length (cm)" usageType="active"/>
                                    <MiningField name="sepal width (cm)" usageType="active"/>
                                    <MiningField name="petal length (cm)" usageType="active"/>
                                    <MiningField name="petal width (cm)" usageType="active"/>
                                </MiningSchema>
                                <Node>
                                    <True/>
                                    <Node>
                                        <SimplePredicate field="petal length (cm)" operator="lessThan" value="3.1500000000000004"/>
                                        <Node score="0.03474524180489883">
                                            <SimplePredicate field="sepal width (cm)" operator="lessThan" value="3.35"/>
                                        </Node>
                                        <Node score="0.05404979123278364">
                                            <SimplePredicate field="sepal width (cm)" operator="greaterOrEqual" value="3.35"/>
                                        </Node>
                                    </Node>
                                    <Node>
                                        <SimplePredicate field="petal length (cm)" operator="greaterOrEqual" value="3.1500000000000004"/>
                                        <Node>
                                            <SimplePredicate field="petal length (cm)" operator="lessThan" value="5.150000000000001"/>
                                            <Node score="-0.05180721275602632">
                                                <SimplePredicate field="petal width (cm)" operator="lessThan" value="1.4500000000000002"/>
                                            </Node>
                                            <Node score="-0.05236578927403779">
                                                <SimplePredicate field="petal width (cm)" operator="greaterOrEqual" value="1.4500000000000002"/>
                                            </Node>
                                        </Node>
                                        <Node score="-0.05155552430199947">
                                            <SimplePredicate field="petal length (cm)" operator="greaterOrEqual" value="5.150000000000001"/>
                                        </Node>
                                    </Node>
                                </Node>
                            </TreeModel>
                        </Segment>
                        <Segment id="30" weight="1">
                            <True/>
                            <TreeModel modelName="DecisionTreeModel" functionName="regression" missingValuePenalty="1.0" noTrueChildStrategy="returnLastPrediction">
                                <MiningSchema>
                                    <MiningField name="sepal length (cm)" usageType="active"/>
                                    <MiningField name="sepal width (cm)" usageType="active"/>
                                    <MiningField name="petal length (cm)" usageType="active"/>
                                    <MiningField name="petal width (cm)" usageType="active"/>
                                </MiningSchema>
                                <Node>
                                    <True/>
                                    <Node>
                                        <SimplePredicate field="petal width (cm)" operator="lessThan" value="0.45000000000000007"/>
                                        <Node score="0.052683621052075">
                                            <SimplePredicate field="petal length (cm)" operator="lessThan" value="1.4500000000000002"/>
                                        </Node>
                                        <Node score="0.053857719510782824">
                                            <SimplePredicate field="petal length (cm)" operator="greaterOrEqual" value="1.4500000000000002"/>
                                        </Node>
                                    </Node>
                                    <Node>
                                        <SimplePredicate field="petal width (cm)" operator="greaterOrEqual" value="0.45000000000000007"/>
                                        <Node>
                                            <SimplePredicate field="sepal width (cm)" operator="lessThan" value="3.150000000000001"/>
                                            <Node score="-0.05652209576438116">
                                                <SimplePredicate field="sepal width (cm)" operator="lessThan" value="2.650000000000001"/>
                                            </Node>
                                            <Node>
                                                <SimplePredicate field="sepal width (cm)" operator="greaterOrEqual" value="2.650000000000001"/>
                                                <Node score="-0.05146154019450633">
                                                    <SimplePredicate field="petal width (cm)" operator="lessThan" value="1.4500000000000002"/>
                                                </Node>
                                                <Node score="-0.051822521436445806">
                                                    <SimplePredicate field="petal width (cm)" operator="greaterOrEqual" value="1.4500000000000002"/>
                                                </Node>
                                            </Node>
                                        </Node>
                                        <Node score="-0.01695329635827587">
                                            <SimplePredicate field="sepal width (cm)" operator="greaterOrEqual" value="3.150000000000001"/>
                                        </Node>
                                    </Node>
                                </Node>
                            </TreeModel>
                        </Segment>
                        <Segment id="31" weight="1">
                            <True/>
                            <TreeModel modelName="DecisionTreeModel" functionName="regression" missingValuePenalty="1.0" noTrueChildStrategy="returnLastPrediction">
                                <MiningSchema>
                                    <MiningField name="sepal length (cm)" usageType="active"/>
                                    <MiningField name="sepal width (cm)" usageType="active"/>
                                    <MiningField name="petal length (cm)" usageType="active"/>
                                    <MiningField name="petal width (cm)" usageType="active"/>
                                </MiningSchema>
                                <Node>
                                    <True/>
                                    <Node>
                                        <SimplePredicate field="petal width (cm)" operator="lessThan" value="1.0500000000000003"/>
                                        <Node score="0.027621337003234044">
                                            <SimplePredicate field="sepal width (cm)" operator="lessThan" value="3.2500000000000004"/>
                                        </Node>
                                        <Node score="0.05410860012612219">
                                            <SimplePredicate field="sepal width (cm)" operator="greaterOrEqual" value="3.2500000000000004"/>
                                        </Node>
                                    </Node>
                                    <Node>
                                        <SimplePredicate field="petal width (cm)" operator="greaterOrEqual" value="1.0500000000000003"/>
                                        <Node score="-0.05699425126528668">
                                            <SimplePredicate field="petal width (cm)" operator="lessThan" value="1.3500000000000003"/>
                                        </Node>
                                        <Node>
                                            <SimplePredicate field="petal width (cm)" operator="greaterOrEqual" value="1.3500000000000003"/>
                                            <Node score="-0.05198902864938594">
                                                <SimplePredicate field="petal width (cm)" operator="lessThan" value="1.8500000000000003"/>
                                            </Node>
                                            <Node score="-0.05133276809966919">
                                                <SimplePredicate field="petal width (cm)" operator="greaterOrEqual" value="1.8500000000000003"/>
                                            </Node>
                                        </Node>
                                    </Node>
                                </Node>
                            </TreeModel>
                        </Segment>
                        <Segment id="32" weight="1">
                            <True/>
                            <TreeModel modelName="DecisionTreeModel" functionName="regression" missingValuePenalty="1.0" noTrueChildStrategy="returnLastPrediction">
                                <MiningSchema>
                                    <MiningField name="sepal length (cm)" usageType="active"/>
                                    <MiningField name="sepal width (cm)" usageType="active"/>
                                    <MiningField name="petal length (cm)" usageType="active"/>
                                    <MiningField name="petal width (cm)" usageType="active"/>
                                </MiningSchema>
                                <Node>
                                    <True/>
                                    <Node>
                                        <SimplePredicate field="petal width (cm)" operator="lessThan" value="1.0500000000000003"/>
                                        <Node score="0.026143793286440536">
                                            <SimplePredicate field="sepal width (cm)" operator="lessThan" value="3.2500000000000004"/>
                                        </Node>
                                        <Node score="0.0538335559006346">
                                            <SimplePredicate field="sepal width (cm)" operator="greaterOrEqual" value="3.2500000000000004"/>
                                        </Node>
                                    </Node>
                                    <Node>
                                        <SimplePredicate field="petal width (cm)" operator="greaterOrEqual" value="1.0500000000000003"/>
                                        <Node score="-0.05663829841841638">
                                            <SimplePredicate field="petal width (cm)" operator="lessThan" value="1.3500000000000003"/>
                                        </Node>
                                        <Node>
                                            <SimplePredicate field="petal width (cm)" operator="greaterOrEqual" value="1.3500000000000003"/>
                                            <Node score="-0.05184686271482639">
                                                <SimplePredicate field="petal width (cm)" operator="lessThan" value="1.8500000000000003"/>
                                            </Node>
                                            <Node score="-0.051233881783725004">
                                                <SimplePredicate field="petal width (cm)" operator="greaterOrEqual" value="1.8500000000000003"/>
                                            </Node>
                                        </Node>
                                    </Node>
                                </Node>
                            </TreeModel>
                        </Segment>
                        <Segment id="33" weight="1">
                            <True/>
                            <TreeModel modelName="DecisionTreeModel" functionName="regression" missingValuePenalty="1.0" noTrueChildStrategy="returnLastPrediction">
                                <MiningSchema>
                                    <MiningField name="sepal length (cm)" usageType="active"/>
