<?xml version="1.0" encoding="UTF-8"?>
<PMML xmlns="http://www.dmg.org/PMML-4_3" version="4.3Ext">
    <Header copyright="Copyright (c) 2018 Software AG" description="Default description">
        <Timestamp>2019-02-19 14:04:52.169050</Timestamp>
    </Header>
    <MiningBuildTask>
        <Extension value="Pipeline(memory=None,
    steps=[('svm',SVC(C=1.0, cache_size=200, class_weight=None, coef0=0.0,
  decision_function_shape='ovr', degree=3, gamma='auto', kernel='rbf',
  max_iter=-1, probability=False, random_state=None, shrinking=True,
  tol=0.001, verbose=False))])">
            
        </Extension>
    </MiningBuildTask>
    <DataDictionary numberOfFields="5">
        <DataField name="sepal length (cm)" optype="continuous" dataType="double"/>
        <DataField name="sepal width (cm)" optype="continuous" dataType="double"/>
        <DataField name="petal length (cm)" optype="continuous" dataType="double"/>
        <DataField name="petal width (cm)" optype="continuous" dataType="double"/>
        <DataField name="Species" optype="categorical" dataType="integer">
            <Value value="0"/>
            <Value value="1"/>
            <Value value="2"/>
        </DataField>
    </DataDictionary>
    <SupportVectorMachineModel modelName="SupportVectorMachineModel" functionName="classification" threshold="0" classificationMethod="OneAgainstOne">
        <MiningSchema>
            <MiningField name="sepal length (cm)" usageType="active" optype="continuous"/>
            <MiningField name="sepal width (cm)" usageType="active" optype="continuous"/>
            <MiningField name="petal length (cm)" usageType="active" optype="continuous"/>
            <MiningField name="petal width (cm)" usageType="active" optype="continuous"/>
            <MiningField name="Species" usageType="target" optype="categorical"/>
        </MiningSchema>
        <Output>
            <OutputField name="probability_0" optype="continuous" dataType="double" feature="probability" value="0"/>
            <OutputField name="probability_1" optype="continuous" dataType="double" feature="probability" value="1"/>
            <OutputField name="probability_2" optype="continuous" dataType="double" feature="probability" value="2"/>
            <OutputField name="predicted_Species" optype="categorical" dataType="string" feature="predictedValue"/>
        </Output>
        <RadialBasisKernelType description="Radial Basis Kernel Type" gamma="0.25"/>
        <VectorDictionary>
            <VectorFields>
                <FieldRef field="sepal length (cm)"/>
                <FieldRef field="sepal width (cm)"/>
                <FieldRef field="petal length (cm)"/>
                <FieldRef field="petal width (cm)"/>
            </VectorFields>
            <VectorInstance id="13">
                <REAL-SparseArray n="4" defaultValue="0">
                    <Indices>1 2 3 4</Indices>
                    <REAL-Entries>4.3 3.0 1.1 0.1</REAL-Entries>
                </REAL-SparseArray>
            </VectorInstance>
            <VectorInstance id="15">
                <REAL-SparseArray n="4" defaultValue="0">
                    <Indices>1 2 3 4</Indices>
                    <REAL-Entries>5.7 4.4 1.5 0.4</REAL-Entries>
                </REAL-SparseArray>
            </VectorInstance>
            <VectorInstance id="18">
                <REAL-SparseArray n="4" defaultValue="0">
                    <Indices>1 2 3 4</Indices>
                    <REAL-Entries>5.7 3.8 1.7 0.3</REAL-Entries>
                </REAL-SparseArray>
            </VectorInstance>
            <VectorInstance id="23">
                <REAL-SparseArray n="4" defaultValue="0">
                    <Indices>1 2 3 4</Indices>
                    <REAL-Entries>5.1 3.3 1.7 0.5</REAL-Entries>
                </REAL-SparseArray>
            </VectorInstance>
            <VectorInstance id="24">
                <REAL-SparseArray n="4" defaultValue="0">
                    <Indices>1 2 3 4</Indices>
                    <REAL-Entries>4.8 3.4 1.9 0.2</REAL-Entries>
                </REAL-SparseArray>
            </VectorInstance>
            <VectorInstance id="41">
                <REAL-SparseArray n="4" defaultValue="0">
                    <Indices>1 2 3 4</Indices>
                    <REAL-Entries>4.5 2.3 1.3 0.3</REAL-Entries>
                </REAL-SparseArray>
            </VectorInstance>
            <VectorInstance id="44">
                <REAL-SparseArray n="4" defaultValue="0">
                    <Indices>1 2 3 4</Indices>
                    <REAL-Entries>5.1 3.8 1.9 0.4</REAL-Entries>
                </REAL-SparseArray>
            </VectorInstance>
            <VectorInstance id="50">
                <REAL-SparseArray n="4" defaultValue="0">
                    <Indices>1 2 3 4</Indices>
                    <REAL-Entries>7.0 3.2 4.7 1.4</REAL-Entries>
                </REAL-SparseArray>
            </VectorInstance>
            <VectorInstance id="52">
                <REAL-SparseArray n="4" defaultValue="0">
                    <Indices>1 2 3 4</Indices>
                    <REAL-Entries>6.9 3.1 4.9 1.5</REAL-Entries>
                </REAL-SparseArray>
            </VectorInstance>
            <VectorInstance id="54">
                <REAL-SparseArray n="4" defaultValue="0">
                    <Indices>1 2 3 4</Indices>
                    <REAL-Entries>6.5 2.8 4.6 1.5</REAL-Entries>
                </REAL-SparseArray>
            </VectorInstance>
            <VectorInstance id="56">
                <REAL-SparseArray n="4" defaultValue="0">
                    <Indices>1 2 3 4</Indices>
                    <REAL-Entries>6.3 3.3 4.7 1.6</REAL-Entries>
                </REAL-SparseArray>
            </VectorInstance>
            <VectorInstance id="57">
                <REAL-SparseArray n="4" defaultValue="0">
                    <Indices>1 2 3 4</Indices>
                    <REAL-Entries>4.9 2.4 3.3 1.0</REAL-Entries>
                </REAL-SparseArray>
            </VectorInstance>
            <VectorInstance id="60">
                <REAL-SparseArray n="4" defaultValue="0">
                    <Indices>1 2 3 4</Indices>
                    <REAL-Entries>5.0 2.0 3.5 1.0</REAL-Entries>
                </REAL-SparseArray>
            </VectorInstance>
            <VectorInstance id="63">
                <REAL-SparseArray n="4" defaultValue="0">
                    <Indices>1 2 3 4</Indices>
                    <REAL-Entries>6.1 2.9 4.7 1.4</REAL-Entries>
                </REAL-SparseArray>
            </VectorInstance>
            <VectorInstance id="66">
                <REAL-SparseArray n="4" defaultValue="0">
                    <Indices>1 2 3 4</Indices>
                    <REAL-Entries>5.6 3.0 4.5 1.5</REAL-Entries>
                </REAL-SparseArray>
            </VectorInstance>
            <VectorInstance id="68">
                <REAL-SparseArray n="4" defaultValue="0">
                    <Indices>1 2 3 4</Indices>
                    <REAL-Entries>6.2 2.2 4.5 1.5</REAL-Entries>
                </REAL-SparseArray>
            </VectorInstance>
            <VectorInstance id="70">
                <REAL-SparseArray n="4" defaultValue="0">
                    <Indices>1 2 3 4</Indices>
                    <REAL-Entries>5.9 3.2 4.8 1.8</REAL-Entries>
                </REAL-SparseArray>
            </VectorInstance>
            <VectorInstance id="72">
                <REAL-SparseArray n="4" defaultValue="0">
                    <Indices>1 2 3 4</Indices>
                    <REAL-Entries>6.3 2.5 4.9 1.5</REAL-Entries>
                </REAL-SparseArray>
            </VectorInstance>
            <VectorInstance id="76">
                <REAL-SparseArray n="4" defaultValue="0">
                    <Indices>1 2 3 4</Indices>
                    <REAL-Entries>6.8 2.8 4.8 1.4</REAL-Entries>
                </REAL-SparseArray>
            </VectorInstance>
            <VectorInstance id="77">
                <REAL-SparseArray n="4" defaultValue="0">
                    <Indices>1 2 3 4</Indices>
                    <REAL-Entries>6.7 3.0 5.0 1.7</REAL-Entries>
                </REAL-SparseArray>
            </VectorInstance>
            <VectorInstance id="78">
                <REAL-SparseArray n="4" defaultValue="0">
                    <Indices>1 2 3 4</Indices>
                    <REAL-Entries>6.0 2.9 4.5 1.5</REAL-Entries>
                </REAL-SparseArray>
            </VectorInstance>
            <VectorInstance id="83">
                <REAL-SparseArray n="4" defaultValue="0">
                    <Indices>1 2 3 4</Indices>
                    <REAL-Entries>6.0 2.7 5.1 1.6</REAL-Entries>
                </REAL-SparseArray>
            </VectorInstance>
            <VectorInstance id="84">
                <REAL-SparseArray n="4" defaultValue="0">
                    <Indices>1 2 3 4</Indices>
                    <REAL-Entries>5.4 3.0 4.5 1.5</REAL-Entries>
                </REAL-SparseArray>
            </VectorInstance>
            <VectorInstance id="85">
                <REAL-SparseArray n="4" defaultValue="0">
                    <Indices>1 2 3 4</Indices>
                    <REAL-Entries>6.0 3.4 4.5 1.6</REAL-Entries>
                </REAL-SparseArray>
            </VectorInstance>
            <VectorInstance id="86">
                <REAL-SparseArray n="4" defaultValue="0">
                    <Indices>1 2 3 4</Indices>
                    <REAL-Entries>6.7 3.1 4.7 1.5</REAL-Entries>
                </REAL-SparseArray>
            </VectorInstance>
            <VectorInstance id="98">
                <REAL-SparseArray n="4" defaultValue="0">
                    <Indices>1 2 3 4</Indices>
                    <REAL-Entries>5.1 2.5 3.0 1.1</REAL-Entries>
                </REAL-SparseArray>
            </VectorInstance>
            <VectorInstance id="100">
                <REAL-SparseArray n="4" defaultValue="0">
                    <Indices>1 2 3 4</Indices>
                    <REAL-Entries>6.3 3.3 6.0 2.5</REAL-Entries>
                </REAL-SparseArray>
            </VectorInstance>
            <VectorInstance id="106">
                <REAL-SparseArray n="4" defaultValue="0">
                    <Indices>1 2 3 4</Indices>
                    <REAL-Entries>4.9 2.5 4.5 1.7</REAL-Entries>
                </REAL-SparseArray>
            </VectorInstance>
            <VectorInstance id="110">
                <REAL-SparseArray n="4" defaultValue="0">
                    <Indices>1 2 3 4</Indices>
                    <REAL-Entries>6.5 3.2 5.1 2.0</REAL-Entries>
                </REAL-SparseArray>
            </VectorInstance>
            <VectorInstance id="118">
                <REAL-SparseArray n="4" defaultValue="0">
                    <Indices>1 2 3 4</Indices>
                    <REAL-Entries>7.7 2.6 6.9 2.3</REAL-Entries>
                </REAL-SparseArray>
            </VectorInstance>
            <VectorInstance id="119">
                <REAL-SparseArray n="4" defaultValue="0">
                    <Indices>1 2 3 4</Indices>
                    <REAL-Entries>6.0 2.2 5.0 1.5</REAL-Entries>
                </REAL-SparseArray>
            </VectorInstance>
            <VectorInstance id="121">
                <REAL-SparseArray n="4" defaultValue="0">
                    <Indices>1 2 3 4</Indices>
                    <REAL-Entries>5.6 2.8 4.9 2.0</REAL-Entries>
                </REAL-SparseArray>
            </VectorInstance>
            <VectorInstance id="123">
                <REAL-SparseArray n="4" defaultValue="0">
                    <Indices>1 2 3 4</Indices>
                    <REAL-Entries>6.3 2.7 4.9 1.8</REAL-Entries>
                </REAL-SparseArray>
            </VectorInstance>
            <VectorInstance id="126">
                <REAL-SparseArray n="4" defaultValue="0">
                    <Indices>1 2 3 4</Indices>
                    <REAL-Entries>6.2 2.8 4.8 1.8</REAL-Entries>
                </REAL-SparseArray>
            </VectorInstance>
            <VectorInstance id="127">
                <REAL-SparseArray n="4" defaultValue="0">
                    <Indices>1 2 3 4</Indices>
                    <REAL-Entries>6.1 3.0 4.9 1.8</REAL-Entries>
                </REAL-SparseArray>
            </VectorInstance>
            <VectorInstance id="129">
                <REAL-SparseArray n="4" defaultValue="0">
                    <Indices>1 2 3 4</Indices>
                    <REAL-Entries>7.2 3.0 5.8 1.6</REAL-Entries>
                </REAL-SparseArray>
            </VectorInstance>
            <VectorInstance id="131">
                <REAL-SparseArray n="4" defaultValue="0">
                    <Indices>1 2 3 4</Indices>
                    <REAL-Entries>7.9 3.8 6.4 2.0</REAL-Entries>
                </REAL-SparseArray>
            </VectorInstance>
            <VectorInstance id="133">
                <REAL-SparseArray n="4" defaultValue="0">
                    <Indices>1 2 3 4</Indices>
                    <REAL-Entries>6.3 2.8 5.1 1.5</REAL-Entries>
                </REAL-SparseArray>
            </VectorInstance>
            <VectorInstance id="134">
                <REAL-SparseArray n="4" defaultValue="0">
                    <Indices>1 2 3 4</Indices>
                    <REAL-Entries>6.1 2.6 5.6 1.4</REAL-Entries>
                </REAL-SparseArray>
            </VectorInstance>
            <VectorInstance id="138">
                <REAL-SparseArray n="4" defaultValue="0">
                    <Indices>1 2 3 4</Indices>
                    <REAL-Entries>6.0 3.0 4.8 1.8</REAL-Entries>
                </REAL-SparseArray>
            </VectorInstance>
            <VectorInstance id="141">
                <REAL-SparseArray n="4" defaultValue="0">
                    <Indices>1 2 3 4</Indices>
                    <REAL-Entries>6.9 3.1 5.1 2.3</REAL-Entries>
                </REAL-SparseArray>
            </VectorInstance>
            <VectorInstance id="142">
                <REAL-SparseArray n="4" defaultValue="0">
                    <Indices>1 2 3 4</Indices>
                    <REAL-Entries>5.8 2.7 5.1 1.9</REAL-Entries>
                </REAL-SparseArray>
            </VectorInstance>
            <VectorInstance id="146">
                <REAL-SparseArray n="4" defaultValue="0">
                    <Indices>1 2 3 4</Indices>
                    <REAL-Entries>6.3 2.5 5.0 1.9</REAL-Entries>
                </REAL-SparseArray>
            </VectorInstance>
            <VectorInstance id="147">
                <REAL-SparseArray n="4" defaultValue="0">
                    <Indices>1 2 3 4</Indices>
                    <REAL-Entries>6.5 3.0 5.2 2.0</REAL-Entries>
                </REAL-SparseArray>
            </VectorInstance>
            <VectorInstance id="149">
                <REAL-SparseArray n="4" defaultValue="0">
                    <Indices>1 2 3 4</Indices>
                    <REAL-Entries>5.9 3.0 5.1 1.8</REAL-Entries>
                </REAL-SparseArray>
            </VectorInstance>
        </VectorDictionary>
        <SupportVectorMachine targetCategory="1" alternateTargetCategory="0">
            <SupportVectors>
                <SupportVector vectorId="13"/>
                <SupportVector vectorId="15"/>
                <SupportVector vectorId="18"/>
                <SupportVector vectorId="23"/>
                <SupportVector vectorId="24"/>
                <SupportVector vectorId="41"/>
                <SupportVector vectorId="44"/>
                <SupportVector vectorId="50"/>
                <SupportVector vectorId="52"/>
                <SupportVector vectorId="54"/>
                <SupportVector vectorId="56"/>
                <SupportVector vectorId="57"/>
                <SupportVector vectorId="60"/>
                <SupportVector vectorId="63"/>
                <SupportVector vectorId="66"/>
                <SupportVector vectorId="68"/>
                <SupportVector vectorId="70"/>
                <SupportVector vectorId="72"/>
                <SupportVector vectorId="76"/>
                <SupportVector vectorId="77"/>
                <SupportVector vectorId="78"/>
                <SupportVector vectorId="83"/>
                <SupportVector vectorId="84"/>
                <SupportVector vectorId="85"/>
                <SupportVector vectorId="86"/>
                <SupportVector vectorId="98"/>
            </SupportVectors>
            <Coefficients absoluteValue="-0.0398569105121">
                <Coefficient value="0.0"/>
                <Coefficient value="0.438624410446"/>
                <Coefficient value="0.0666311583128"/>
                <Coefficient value="0.00227702074997"/>
                <Coefficient value="0.358431125728"/>
                <Coefficient value="1.0"/>
                <Coefficient value="0.458858234397"/>
                <Coefficient value="-0.551710082049"/>
                <Coefficient value="-0.0"/>
                <Coefficient value="-0.0"/>
                <Coefficient value="-0.0"/>
                <Coefficient value="-0.54282930661"/>
                <Coefficient value="-0.0"/>
                <Coefficient value="-0.0"/>
                <Coefficient value="-0.0"/>
                <Coefficient value="-0.0"/>
                <Coefficient value="-0.0"/>
                <Coefficient value="-0.0"/>
                <Coefficient value="-0.0"/>
                <Coefficient value="-0.166490971815"/>
                <Coefficient value="-0.0"/>
                <Coefficient value="-0.0637915891609"/>
                <Coefficient value="-0.0"/>
                <Coefficient value="-0.0"/>
                <Coefficient value="-0.0"/>
                <Coefficient value="-1.0"/>
            </Coefficients>
        </SupportVectorMachine>
        <SupportVectorMachine targetCategory="2" alternateTargetCategory="0">
            <SupportVectors>
                <SupportVector vectorId="13"/>
                <SupportVector vectorId="15"/>
                <SupportVector vectorId="18"/>
                <SupportVector vectorId="23"/>
                <SupportVector vectorId="24"/>
                <SupportVector vectorId="41"/>
                <SupportVector vectorId="44"/>
                <SupportVector vectorId="100"/>
                <SupportVector vectorId="106"/>
                <SupportVector vectorId="110"/>
                <SupportVector vectorId="118"/>
                <SupportVector vectorId="119"/>
                <SupportVector vectorId="121"/>
                <SupportVector vectorId="123"/>
                <SupportVector vectorId="126"/>
                <SupportVector vectorId="127"/>
                <SupportVector vectorId="129"/>
                <SupportVector vectorId="131"/>
                <SupportVector vectorId="133"/>
                <SupportVector vectorId="134"/>
                <SupportVector vectorId="138"/>
                <SupportVector vectorId="141"/>
                <SupportVector vectorId="142"/>
                <SupportVector vectorId="146"/>
                <SupportVector vectorId="147"/>
                <SupportVector vectorId="149"/>
            </SupportVectors>
            <Coefficients absoluteValue="-0.167774532094">
                <Coefficient value="0.009368831961"/>
                <Coefficient value="0.955647490122"/>
                <Coefficient value="0.0"/>
                <Coefficient value="0.0"/>
                <Coefficient value="0.0116173056924"/>
                <Coefficient value="0.968621844512"/>
                <Coefficient value="0.0"/>
                <Coefficient value="-0.117576081311"/>
                <Coefficient value="-0.733765504934"/>
                <Coefficient value="-0.0"/>
                <Coefficient value="-0.427235940618"/>
                <Coefficient value="-0.0999300175851"/>
                <Coefficient value="-0.0"/>
                <Coefficient value="-0.0"/>
                <Coefficient value="-0.0"/>
                <Coefficient value="-0.0"/>
                <Coefficient value="-0.0"/>
                <Coefficient value="-0.405339510491"/>
                <Coefficient value="-0.0"/>
                <Coefficient value="-0.0"/>
                <Coefficient value="-0.0"/>
                <Coefficient value="-0.161408417348"/>
                <Coefficient value="-0.0"/>
                <Coefficient value="-0.0"/>
                <Coefficient value="-0.0"/>
                <Coefficient value="-0.0"/>
            </Coefficients>
        </SupportVectorMachine>
        <SupportVectorMachine targetCategory="2" alternateTargetCategory="1">
            <SupportVectors>
                <SupportVector vectorId="50"/>
                <SupportVector vectorId="52"/>
                <SupportVector vectorId="54"/>
                <SupportVector vectorId="56"/>
                <SupportVector vectorId="57"/>
                <SupportVector vectorId="60"/>
                <SupportVector vectorId="63"/>
                <SupportVector vectorId="66"/>
                <SupportVector vectorId="68"/>
                <SupportVector vectorId="70"/>
                <SupportVector vectorId="72"/>
                <SupportVector vectorId="76"/>
                <SupportVector vectorId="77"/>
                <SupportVector vectorId="78"/>
                <SupportVector vectorId="83"/>
                <SupportVector vectorId="84"/>
                <SupportVector vectorId="85"/>
                <SupportVector vectorId="86"/>
                <SupportVector vectorId="98"/>
                <SupportVector vectorId="100"/>
                <SupportVector vectorId="106"/>
                <SupportVector vectorId="110"/>
                <SupportVector vectorId="118"/>
                <SupportVector vectorId="119"/>
                <SupportVector vectorId="121"/>
                <SupportVector vectorId="123"/>
                <SupportVector vectorId="126"/>
                <SupportVector vectorId="127"/>
                <SupportVector vectorId="129"/>
                <SupportVector vectorId="131"/>
                <SupportVector vectorId="133"/>
                <SupportVector vectorId="134"/>
                <SupportVector vectorId="138"/>
                <SupportVector vectorId="141"/>
                <SupportVector vectorId="142"/>
                <SupportVector vectorId="146"/>
                <SupportVector vectorId="147"/>
                <SupportVector vectorId="149"/>
            </SupportVectors>
            <Coefficients absoluteValue="-0.143704687543">
                <Coefficient value="0.0"/>
                <Coefficient value="1.0"/>
                <Coefficient value="1.0"/>
                <Coefficient value="1.0"/>
                <Coefficient value="0.0"/>
                <Coefficient value="0.404342169781"/>
                <Coefficient value="1.0"/>
                <Coefficient value="1.0"/>
                <Coefficient value="1.0"/>
                <Coefficient value="1.0"/>
                <Coefficient value="1.0"/>
                <Coefficient value="1.0"/>
                <Coefficient value="1.0"/>
                <Coefficient value="1.0"/>
                <Coefficient value="1.0"/>
                <Coefficient value="1.0"/>
                <Coefficient value="0.273915164568"/>
                <Coefficient value="1.0"/>
                <Coefficient value="0.0"/>
                <Coefficient value="-0.0"/>
                <Coefficient value="-1.0"/>
                <Coefficient value="-1.0"/>
                <Coefficient value="-0.0"/>
                <Coefficient value="-1.0"/>
                <Coefficient value="-1.0"/>
                <Coefficient value="-1.0"/>
                <Coefficient value="-1.0"/>
                <Coefficient value="-1.0"/>
                <Coefficient value="-0.830034354701"/>
                <Coefficient value="-0.130921483022"/>
                <Coefficient value="-1.0"/>
                <Coefficient value="-0.623723884137"/>
                <Coefficient value="-1.0"/>
                <Coefficient value="-0.773012798435"/>
                <Coefficient value="-0.320564814054"/>
                <Coefficient value="-1.0"/>
                <Coefficient value="-1.0"/>
                <Coefficient value="-1.0"/>
            </Coefficients>
        </SupportVectorMachine>
    </SupportVectorMachineModel>
</PMML>
